tree
version=v4
num_class=1
num_tree_per_iteration=1
label_index=0
max_feature_idx=27
objective=lambdarank
feature_names=avg_position_all avg_position_recent3 win_rate place_rate avg_position_on_turf avg_position_on_dirt avg_position_at_distance running_style_encoded race_distance race_surface_encoded num_horses odds rotation_days avg_position_condition weight_change jockey_match_win_rate avg_position_trend odds_rank jockey_win_rate_all jockey_place_rate_all age sex_encoded weight_diff_vs_avg distance_aptitude speed_index comeback_flag odds_divergence rest_flag
feature_infos=[1:18] [1:18] [0:1] [0:1] [1:18] [1:18] [1:18] [0:4] [1200:3930] none [1:18] [1:999.89999999999998] [1:1953] [1:18] [-39:42] [0:1] [-5.7575757575757578:8.2916666666666661] [1:18] [0:1] [0:1] none [0:1] [-115.69230769230768:122.83333333333331] [0:1930] [-1933.2080679405522:583.10971786833863] [0:1] [0.94999999999999996:207.59999999999999] [0:1]
tree_sizes=3451 3447 3449 3433 3431 3468 3445 3450 3451 3431 3461 3451 3447 3434 3453 3444 3458 3455 3451 3466 3470 3446 3465 3460 3467 3429 3446 3434 3448 3458 3451 3441 3449 3457 3446 3459 3450 3452 3439 3440 3443 3423 3433 3416 3434 3458 3445 3439 3441 3433 3481 3468 3442 3447 3445 3446 3462 3457 3441 3450 3444 3463 3450 3464 3461 3414 3459 3458 3463 3444 3471 3466 3457 3452 3432 3462 3443 3464 3439 3421 3418 3468 3437 3446 3434 3430 3451 3474 3469 3449 3457 3453 3465 3445 3447 3445 3456 3450 3434 3431 3469 3447 3467 3461 3470 3453 3467 3440 3470 3431 3482 3474 3451 3483 3489 3463 3463 3469 3460 3442 3452 3464 3482 3443 3436 3480 3462 3452 3474 3470 3446 3471 3447 3445 3488 3445 3443 3447 3439 3469 3435 3458 3445 3445 3452 3456 3458 3461 3466 3463 3458 3453 3454 3469 3469 3437 3459 3473 3464 3476 3453 3453 3455 3456 3430 3468 3461 3454 3448 3471 3472 3459 3467 3449 3449 3449 3466 3470 3452 3451 3469 3460 3476 3441 3458 3480 3453 3440 3453 3436 3465 3443 3453 3470 3478 3447 3435 3450 3461 3439 3463 3495 3449 3452 3470 3467 3477 3457 3442 3454 3486 3453 3456 3473 3472 3464 3437 3463 3466 3461 3495 3455 3454 3442 3472 3480 3466 3461 3479 3468 3457 3447 3437 3478 3455 3451 3453 3459 3441 3494 3450 3460 3440 3462 3453 3476 3474 3454 3469 3459 3443 3451 3464 3458 3470 3474 3483 3463 3476 3444 3459 3467 3479 3467 3468 3477 3460 3463 3486 3435 3470 3475 3459 3488 3462 3488 3475 3461 3457 3444 3472 3477 3446 3478 3480 3464 3446 3454 3454 3471 3442 3469 3452 3442 3472 3484 3479 3478 3451 3489 3483 3497 3467 3439 3472 3453 3485 3472 3477 3478 3478 3459 3464 3442 3473 3469 3456 3478 3480 3466 3471 3477 3449 3429 3499 3464 3479 3482 3466 3491 3471 3462 3465 3467 3478 3483 3482 3486 3483 3497 3467 3496 3481 3490 3461 3481 3472 3486 3453 3468 3477 3484 3460 3478 3447 3478 3482 3465 3457 3487 3457 3473 3460 3473 3471 3482 3470 3474 3468 3480 3472 3476 3462 3479 3476 3495 3468 3470 3446 3457 3451 3483 3455 3473 3462 3489 3445 3461 3475 3478 3466 3463 3460 3481 3473 3476 3472 3471 3474 3480 3504 3478 3460 3462 3506 3470 3504 3472 3469 3480 3473 3469 3504 3473 3466 3453 3458 3438 3479 3463 3469 3468 3449 3459 3458 3488 3491 3472 3484 3477 3489 3485 3482 3496 3483 3504 3487 3502 3486 3488 3481 3489 3474 3487 3507 3455 3476 3467 3485 3467 3495 3477 3472 3487 3484 3488 3485 3467 3452 3463 3471 3501 3490 3474 3506 3482 3482 3488 3460 3482 3469 3490 3491 3471 3478 3481 3457 3464 3467 3467 3486 3501 3481 3466 3488 3471 3483 3489 3479 3477 3505 3485 3494 3472 3482 3480 3500 3476 3480 3492

Tree=0
num_leaves=31
num_cat=0
split_feature=17 26 17 26 26 26 10 17 17 10 26 18 22 12 10 24 26 17 10 24 26 17 26 26 26 12 22 17 24 16
split_gain=787.188 157.398 57.4641 26.3096 20.4169 17.2173 9.56181 7.34463 7.25131 5.2674 5.07866 4.30879 4.71446 4.80552 4.28598 4.26609 3.57807 3.96269 4.64684 3.5177 3.40463 2.79207 2.79173 2.76613 2.65211 2.42423 2.40717 2.17117 3.11034 2.13695
threshold=4.5000000000000009 4.503571428571429 1.5000000000000002 2.3958333333333339 8.9577380952380974 2.1050000000000009 10.500000000000002 3.5000000000000004 8.5000000000000018 15.500000000000002 4.2563492063492072 0.23562458691341706 -1.240384615384613 85.500000000000014 12.500000000000002 -40.843718985149017 6.4035714285714294 7.5000000000000009 10.500000000000002 502.93859649122811 3.0958333333333337 10.500000000000002 11.663068181818184 2.0954545454545461 2.9035714285714294 90.500000000000014 -35.861904761904746 3.5000000000000004 76.91263157894727 0.65476190476190477
decision_type=2 2 2 2 2 2 2 2 2 2 2 2 2 2 2 2 2 2 2 2 2 2 2 2 2 2 2 2 2 2
left_child=2 3 10 14 16 7 27 -4 15 -9 23 12 13 -10 -2 29 -3 18 -18 24 26 -16 -6 -1 -17 -12 -8 28 -7 -5
right_child=1 4 5 8 22 6 20 9 11 -11 25 -13 -14 -15 21 19 17 -19 -20 -21 -22 -23 -24 -25 -26 -27 -28 -29 -30 -31
leaf_value=0.085674870636893385 -0.01057746204325798 -0.048480137240291779 0.053436253101521385 -0.041393413344039988 -0.072972048940513429 -0.017432655026360263 -0.011840989898358103 0.017066024894090297 -0.013640570017754894 0.05241466430763482 0.052472464259412391 0.062137941337447058 -0.059448320095267508 -0.063446633750920495 0.015559339716547974 -0.0022125669875206859 -0.071314240619891126 -0.072609259561806624 -0.012026374627043326 0.061453394246622696 0.010272498806448491 -0.075230584427710315 -0.088939383371333336 0.07144532873611166 -0.021638402499256693 -0.0098649286885727754 0.03566457569910577 -0.025789291691330436 0.032744345576575642 -0.0027343555395066598
leaf_weight=57.646080473437905 23.1511572052259 73.545727119817457 117.27584493753966 23.339339380967434 39.884316089272033 6.6820939330500551 2.7768744452623642 29.233682529884391 16.671216437767729 16.4797990253428 8.3683948192920052 0.97348684331518498 24.527157715961948 6.8259700949420212 65.845882350811735 28.801608408219181 6.5294393848307646 42.943755265732761 6.6924075028327934 1.5749989966861893 19.758349760151759 0.85785226454026897 87.277850829181261 83.803732980508357 45.055363602121361 1.9168580386321981 67.147738542582374 9.7200334996741731 5.7426585261273431 4.2211355143226674
leaf_count=899 886 3949 2988 1230 2214 234 143 929 737 503 214 33 1597 399 2436 1185 237 2461 449 29 960 38 5723 1701 2063 48 2109 329 155 109
internal_value=0.000212385 -0.042439 0.0500798 -0.01349 -0.0696943 0.0364433 0.0213343 0.0468096 -0.0261701 0.0298093 0.0747777 -0.0420039 -0.0441149 -0.0281093 0.0079584 -0.0186373 -0.0557372 -0.06524 -0.0413049 -0.0124863 0.0285994 0.0143917 -0.0839312 0.0772444 -0.014063 0.0408547 0.033778 -0.00808858 0.0057589 -0.0354724
internal_weight=925.271 498.719 426.552 241.845 256.873 274.817 111.828 162.989 151.99 45.7135 151.735 48.9978 48.0243 23.4972 89.8549 102.992 129.711 56.1656 13.2218 75.432 89.683 66.7037 127.162 141.45 73.857 10.2853 69.9246 22.1448 12.4248 27.5605
internal_count=36987 25775 11212 10742 15033 8350 3930 4420 7382 1432 2862 2766 2733 1136 3360 4616 7096 3147 686 3277 3212 2474 7937 2600 3248 262 2252 718 389 1339
is_linear=0
shrinkage=0.05


Tree=1
num_leaves=31
num_cat=0
split_feature=11 11 11 11 17 11 11 19 3 11 11 11 3 24 24 24 17 16 0 19 16 13 17 11 14 18 19 18 19 24
split_gain=1530.82 256.711 219.259 41.9921 42.4169 35.4266 28.4146 12.5502 13.7188 12.6405 11.0354 9.53232 11.5685 8.91813 7.99213 7.49813 7.23538 7.10592 7.01294 7.52361 6.68207 6.63998 6.48062 6.10054 6.08142 7.05486 6.60378 6.13902 6.06377 7.80098
threshold=8.0500000000000025 50.050000000000004 3.0500000000000003 13.450000000000001 2.5000000000000004 4.2500000000000009 2.0500000000000003 0.57181054239877771 0.19090909090909094 22.750000000000004 80.65000000000002 49.95000000000001 0.11805555555555557 127.96025062656634 -189.85110563823096 -43.654149448725185 7.5000000000000009 1.1666666666666676 5.8452380952380958 0.25493189642269126 2.3541666666666674 1.1250000000000002 1.5000000000000002 5.7500000000000009 3.5000000000000004 0.12805605247465715 0.28534678254486351 0.060276089856238495 0.60946639317820794 115.96025062656638
decision_type=2 2 2 2 2 2 2 2 2 2 2 2 2 2 2 2 2 2 2 2 2 2 2 2 2 2 2 2 2 2
left_child=2 3 6 -2 18 15 -1 9 -9 -6 -3 20 -13 23 -14 -4 17 -16 -5 -20 -11 -8 -23 -7 25 26 -15 -26 -17 -30
right_child=1 10 5 4 7 13 21 8 -10 11 -12 12 14 24 16 28 -18 -19 19 -21 -22 22 -24 -25 27 -27 -28 -29 29 -31
leaf_value=0.070829262281582595 -0.010265975420459558 -0.062637031611717034 0.017943777549402577 0.041540308328717995 -0.029545883709901233 0.012111157462627895 0.017510992235132718 -0.049861409494286316 0.054024163503795665 -0.050057006427203815 -0.081149680602368365 -0.059092587085592355 -0.049926393528626364 0.020807406031977321 0.038126510836858751 0.035910025722361551 -0.031377290326361516 -0.071684091260758795 -0.068572744562300877 0.035393746025672058 0.0042663446998195383 0.053017136781227027 0.034000805442703549 -0.0023353749465059681 -0.017842433114845378 0.0034171706200933579 0.044373769204846224 0.01387701687129967 0.043156152993038946 -0.051690223748466747
leaf_weight=238.46845121309161 284.83394019538537 116.59210378234275 88.180467373691499 20.604762564005799 250.20595688233152 144.44394369563088 16.502006899565458 5.3708612658665498 7.7833383218385279 241.49654220533557 260.03800190729089 16.090737013699254 8.1524596788221952 126.18030121736228 14.327698180190056 277.27721118647605 8.0177953589009103 1.6420808087568719 3.4748625432257532 3.4856411449727602 5.7966741872951379 282.21233800239861 53.257498119026423 147.90546984318644 20.956943120341748 42.043401089496911 38.888495586812496 56.056614631786942 4.1406000535935146 4.5504981726408005
leaf_count=901 3654 3253 511 219 4134 1146 66 89 49 5653 9030 1033 173 1050 197 1424 203 37 62 32 62 1020 285 1460 221 324 272 385 19 23
internal_value=0.000238525 -0.0409265 0.0335729 -0.0260164 -0.0336663 0.0187093 0.0575035 -0.0366527 0.0116077 -0.037816 -0.0754188 -0.0448179 -0.0244841 0.0109332 -0.0071576 0.0306905 0.00737788 0.0268353 0.0268823 -0.016509 -0.0487836 0.0484751 0.0499982 0.00480237 0.0172415 0.0217022 0.0263594 0.00524551 0.034621 -0.00650365
internal_weight=2788.98 1247.91 1541.06 871.283 586.449 950.624 590.44 558.884 13.1542 545.73 376.63 295.524 48.2308 576.475 32.14 374.149 23.9876 15.9698 27.5653 6.9605 247.293 351.972 335.47 292.349 284.126 207.112 165.069 77.0136 285.968 8.6911
internal_count=36987 27880 9107 15597 11943 6835 2272 11630 138 11492 12283 7358 1643 4858 610 1977 437 234 313 94 5715 1371 1305 2606 2252 1646 1322 606 1466 42
is_linear=0
shrinkage=0.05


Tree=2
num_leaves=31
num_cat=0
split_feature=17 17 26 26 26 26 26 22 17 26 17 13 14 10 22 26 26 16 12 14 2 22 10 13 7 17 7 24 10 26
split_gain=1109.34 207.682 151.647 39.4959 26.2169 25.6046 22.2933 20.6163 16.2425 14.6711 9.69069 9.20201 11.0471 7.74075 8.15626 7.0299 6.69734 7.09233 6.4879 6.22356 5.93977 5.56276 5.45717 6.96395 5.34785 5.21028 5.04456 6.12818 5.02647 4.98449
threshold=4.5000000000000009 1.5000000000000002 4.3038461538461545 3.0958333333333337 2.1050000000000009 2.1950000000000007 8.9577380952380974 -34.129166666666656 2.5000000000000004 2.0954545454545461 2.5000000000000004 1.1250000000000002 5.5000000000000009 11.500000000000002 -10.276190476190463 1.7535714285714288 2.8950000000000005 -1.2462121212121209 37.000000000000007 -6.4999999999999991 0.23669467787114848 24.045454545454536 13.500000000000002 3.0526315789473686 1.0000000180025095e-35 5.5000000000000009 2.5000000000000004 -43.654149448725185 12.500000000000002 3.204545454545455
decision_type=2 2 2 2 2 2 2 2 2 2 2 2 2 2 2 2 2 2 2 2 2 2 2 2 2 2 2 2 2 2
left_child=1 3 5 9 10 -2 -4 -5 21 -1 20 12 -11 24 -15 26 -7 18 -18 -16 -3 -6 23 -10 -9 -8 -12 -28 -13 -25
right_child=2 4 6 7 8 16 25 13 22 11 15 28 -14 14 19 -17 17 -19 -20 -21 -22 -23 -24 29 -26 -27 27 -29 -30 -31
leaf_value=0.067961308825757058 -0.0070328013066933114 0.030515241148560763 -0.052485406525872372 -0.066244521930339653 0.0081995280905936187 -0.022719024596508989 -0.026431416553437038 0.03835370711259093 0.015017409272155585 -0.031145484878555174 0.012594448549346375 0.04271274681994372 0.059883688946917972 0.010940925505955748 -0.020361641890294407 0.0052398637558287442 0.017227988555479835 -0.039929549899491171 -0.051934958562189285 0.043622769003572648 0.0074542116421874964 0.032065357480499677 -0.00076823264735507621 -0.014291023598171686 -0.020123017159140416 -0.076003720094770549 0.0065565475605133539 0.037493149154622644 0.057834287563026089 -0.040920663334068436
leaf_weight=192.93490951601416 168.625412956113 175.91540543548763 242.74643366437522 5.4609148092567912 106.24451584470808 141.98642746917903 5.4412842125457237 6.0577025152742889 13.900459283730013 7.4878987595438939 108.51162131689489 90.888135248795152 6.0064398981630802 26.410957615822554 3.9261420257389537 153.37397344363853 10.655952125787733 175.49655739450827 4.9732689001830286 118.6746606605011 33.190585844218731 31.701478404924273 101.28545140154893 51.41153106931597 11.026680905371903 204.98048078664578 21.977398549206555 58.930868904106319 139.0045596268028 26.697554904938443
leaf_count=899 2578 1246 7555 32 1077 2872 166 80 134 37 985 392 15 140 31 1409 152 4591 90 554 194 275 1396 611 54 7771 192 394 628 437
internal_value=0.000232095 0.0271796 -0.0418446 0.0496719 0.0116978 -0.0229082 -0.0628106 0.0293466 0.000577849 0.0576636 0.0183718 0.0495005 0.00937234 0.0324895 0.0361444 0.0131972 -0.0309445 -0.0370552 -0.00477989 0.0415737 0.0268549 0.0136842 -0.00877553 -0.0175901 0.000611392 -0.0747218 0.0196402 0.0290897 0.051856 -0.023393
internal_weight=2445.93 1491.02 954.906 607.879 883.141 501.738 453.168 171.557 331.241 436.322 551.9 243.387 13.4943 166.096 149.012 342.794 333.112 191.126 15.6292 122.601 209.106 137.946 193.295 92.0095 17.0844 210.422 189.42 80.9083 229.893 78.1091
internal_count=36987 11212 25775 2862 8350 10283 15492 891 3930 1971 4420 1072 52 859 725 2980 7705 4833 242 585 1440 1352 2578 1182 134 7937 1571 586 1020 1048
is_linear=0
shrinkage=0.05


Tree=3
num_leaves=31
num_cat=0
split_feature=11 11 11 11 11 26 11 18 10 10 1 26 11 11 22 10 3 11 24 26 21 18 2 24 14 22 18 2 7 14
split_gain=923.722 187.71 126.965 30.1644 22.6456 22.5921 15.6878 17.0794 12.3427 9.78468 8.35761 7.50476 7.42921 6.44509 6.80575 6.12676 5.38483 5.19393 6.50668 4.6689 5.11102 5.35949 4.55645 4.49955 4.44863 5.39143 5.21231 4.33204 4.28355 4.83461
threshold=10.950000000000001 3.3500000000000001 50.050000000000004 5.8500000000000005 2.0500000000000003 8.3261363636363654 22.750000000000004 0.28986183719193431 8.5000000000000018 10.500000000000002 1.1666666666666667 2.4954545454545456 67.950000000000017 4.2500000000000009 24.516666666666683 12.500000000000002 0.82575757575757591 7.4500000000000011 127.96025062656634 3.9516666666666671 1.0000000180025095e-35 0.17680083188034371 0.36038961038961043 52.459999999999972 13.500000000000002 38.211111111111116 0.17564211246449235 0.31414473684210531 2.5000000000000004 -12.499999999999998
decision_type=2 2 2 2 2 2 2 2 2 2 2 2 2 2 2 2 2 2 2 2 2 2 2 2 2 2 2 2 2 2
left_child=1 4 5 13 -1 6 -2 -8 -6 17 11 -10 -4 19 -15 -12 -7 18 22 20 24 -22 -5 -23 25 -3 -27 -9 -11 -30
right_child=2 3 12 9 8 16 7 27 10 28 15 -13 -14 14 -16 -17 -18 -19 -20 -21 21 23 -24 -25 -26 26 -28 -29 29 -31
leaf_value=0.065093965226833736 -0.02089000883590203 0.034713870793262477 -0.051034143570090798 -0.028430124680336167 0.012986554293496211 0.00080507727537118101 -0.040780162671773729 0.0056023667690033576 0.041834928367376262 -0.00085658724402986437 0.037781049875255351 -0.05697184778736393 -0.069770323968502718 0.010172586379828289 0.029040251376778566 0.052603845014815132 0.046444701688237493 -0.03076231768081697 0.031062782773542848 0.049388169005069885 0.018194439812816481 0.031104892424473247 0.0535310032785297 -0.04913235921122322 -0.029229430781712418 0.016506542976131754 -0.062894202226681128 0.085405426908502238 0.073292062349791395 0.009429892271744655
leaf_weight=167.14623279031366 287.79648783081211 115.58132822439075 67.646163544850424 15.67635234445334 31.899809388443828 33.79001461918233 224.36327619549411 4.1390976138354736 3.9895904976874581 168.27845221105963 111.95014434494078 3.7078401558101177 242.83887457416859 202.94914523372427 62.517704708967358 184.77189545333385 7.9913943984138305 32.716410230379552 9.9326593438163382 19.63390910346061 68.248755959793925 2.5194416623562557 1.9013761691749085 5.700876634567976 3.1107929646968833 10.403218942694364 2.5793770942836991 2.8864968926645815 3.0228924155235282 150.99003460723907
leaf_count=901 5644 759 2178 208 181 810 6780 55 24 2281 599 27 10105 1836 491 1041 100 471 96 81 439 27 12 42 24 86 18 13 20 1638
internal_value=0.00026245 0.0257241 -0.0400352 0.0117384 0.050052 -0.0258368 -0.0286833 -0.0383763 0.0425763 0.00120108 0.045677 -0.00576014 -0.0656882 0.0199102 0.0146159 0.0470114 0.00953442 -0.0172979 -0.00128541 0.0260804 0.0238819 0.0136005 -0.0195644 -0.0245405 0.0298527 0.0312822 0.000731234 0.0383898 0.00465799 0.0106833
internal_weight=2250.68 1379.23 871.452 875.763 503.466 560.967 519.185 231.389 336.319 382.518 304.419 7.69743 310.485 493.245 265.467 296.722 41.7814 60.2268 27.5104 227.778 208.144 76.4691 17.5777 8.22032 131.675 128.564 12.9826 7.02559 322.291 154.013
internal_count=36987 11302 25685 8529 2773 13402 12492 6848 1872 4726 1691 51 12283 3803 2327 1640 910 787 316 1476 1395 508 220 69 887 863 104 68 3939 1658
is_linear=0
shrinkage=0.05


Tree=4
num_leaves=31
num_cat=0
split_feature=11 11 11 11 26 11 11 19 11 10 10 10 16 22 1 0 24 16 11 0 24 26 16 16 24 11 14 22 18 24
split_gain=757.34 153.109 106.931 30.217 19.5557 13.9549 12.0519 14.5627 8.37584 8.09835 7.24255 6.79874 9.83841 5.91501 5.63894 7.58491 5.94637 6.52252 5.61541 5.42852 4.75529 5.08329 4.53104 4.45789 4.32646 4.23273 4.39175 5.3198 4.47695 4.12577
threshold=10.950000000000001 3.0500000000000003 50.050000000000004 5.8500000000000005 11.873030303030305 2.0500000000000003 22.750000000000004 0.58145460054261766 4.2500000000000009 12.500000000000002 14.500000000000002 11.500000000000002 -0.73333333333333317 24.516666666666683 1.8333333333333337 1.8090909090909093 -43.654149448725185 -0.70833333333333304 223.35000000000005 3.0384615384615388 -343.88967748967156 2.0472222222222229 2.5000000000000009 0.075000000000000192 -40.843718985149017 4.9500000000000011 -3.4999999999999996 34.387499999999996 0.15469723018147089 -50.84035903189622
decision_type=2 2 2 2 2 2 2 2 2 2 2 2 2 2 2 2 2 2 2 2 2 2 2 2 2 2 2 2 2 2
left_child=1 5 4 8 6 -1 24 -8 11 -7 -5 12 -3 -10 15 -13 17 -16 -4 -6 -14 23 -12 -22 -2 26 -15 -28 -29 -19
right_child=2 3 18 10 19 9 7 -9 13 -11 22 14 20 25 16 -17 -18 29 -20 -21 21 -23 -24 -25 -26 -27 27 28 -30 -31
leaf_value=0.062298663523143394 -0.030399416658294751 -0.029112492648202065 -0.058536758272431037 -0.0054323286440937186 0.042279119590505898 0.032797088646664106 -0.03737180544749126 0.034836527424123319 0.0094732089080993512 0.051325293362223058 0.0074917259175976804 0.023899606373973231 0.057385545253922213 0.048453852965812783 0.062825161776459595 -0.0691274238077903 0.03725877882133688 0.010438468175408916 -0.075850528108995369 -0.0012352627877054948 0.027628749248275433 -0.013096888890819001 0.060580039545438141 -0.018263980821660159 -0.015773220031839986 0.039010990650796197 0.02912165419151036 -0.04306373190639947 0.024963212930489434 -0.058148283959101536
leaf_weight=149.92268502991647 67.405023529659957 11.278984868898986 227.22224260133225 181.27906155912206 11.082240942283535 109.07480999920517 219.27429700824723 7.212107954779639 196.8833743147552 128.39852947369218 177.58670027181506 7.0475067719817144 7.9992429092526427 6.476940821856263 5.8131474927067748 3.1797782834619284 156.16275389119983 26.807397515978664 58.989496508613229 20.28893126641924 50.985103793442249 11.877669965848325 4.112270087003707 5.9043126655742517 202.31927070626989 34.051623783074319 9.3616075301542896 7.7628815677016956 3.5131164435297251 2.3879413846880224
leaf_count=901 1543 56 9254 2473 129 597 7074 74 1836 774 2237 54 40 52 25 17 1026 231 3029 478 364 102 16 37 4104 259 69 86 25 25
internal_value=0.000316934 0.0240277 -0.0374978 0.0128256 -0.0241484 0.0503552 -0.0265688 -0.0350724 0.0202423 0.042815 0.00163863 0.0260817 0.0144918 0.0136926 0.0311484 -0.00502355 0.0330835 0.0144589 -0.0621052 0.0141367 0.0208985 0.0166542 0.00869324 0.0228657 -0.0194284 0.027274 0.0125342 0.00126107 -0.0218695 0.00482863
internal_weight=2111.66 1297.87 813.794 910.471 527.582 387.396 496.211 226.486 547.493 237.473 362.978 289.444 88.0453 258.05 201.399 10.2273 191.171 35.0085 286.212 31.3712 76.7663 68.7671 181.699 56.8894 269.724 61.1662 27.1145 20.6376 11.276 29.1953
internal_count=36987 11302 25685 9030 13402 2272 12795 7148 4304 1371 4726 1977 599 2327 1378 71 1307 281 12283 607 543 503 2253 401 5647 491 232 180 111 256
is_linear=0
shrinkage=0.05


Tree=5
num_leaves=31
num_cat=0
split_feature=11 11 11 11 26 11 10 11 18 10 18 11 18 24 11 26 14 19 22 22 18 12 12 14 26 24 10 12 19 11
split_gain=641.015 113.645 101.231 26.3734 19.5142 19.6549 13.5615 7.86576 7.18018 6.58685 6.40038 5.68164 5.49338 4.85777 5.14759 4.83914 5.81916 7.84155 4.75541 4.71033 4.64097 4.61542 6.58348 4.73288 5.70279 4.49659 6.0564 5.57498 4.4579 4.46199
threshold=9.2500000000000018 3.6500000000000008 50.050000000000004 2.2500000000000004 11.873030303030305 14.050000000000002 13.500000000000002 7.0500000000000007 0.14794532886747894 14.500000000000002 0.12067389522788881 125.75000000000001 0.20261717413616151 -33.208067940551992 28.150000000000002 3.0958333333333337 8.5000000000000018 0.30133995334091052 9.4606060606060414 -43.94444444444445 0.075103055183294049 140.50000000000003 42.500000000000007 -1.4999999999999998 2.8292857142857151 -20.282877333534866 11.500000000000002 26.500000000000004 0.3335700757575758 5.8500000000000005
decision_type=2 2 2 2 2 2 2 2 2 2 2 2 2 2 2 2 2 2 2 2 2 2 2 2 2 2 2 2 2 2
left_child=1 3 4 -1 5 9 15 8 19 -2 -6 -4 13 18 -15 16 20 -18 -7 -3 -5 22 23 24 -9 27 -27 -21 -10 -30
right_child=2 7 11 6 10 12 -8 21 28 -11 -12 -13 -14 14 -16 -17 17 -19 -20 25 -22 -23 -24 -25 -26 26 -28 -29 29 -31
leaf_value=0.057018241763676508 -0.019702078521668276 -0.020499446051477195 -0.053163874557963946 0.014218396455778127 -0.00016948615845737694 -0.034088956631101369 0.043055475072813203 -0.015311590077372622 -0.064759144226616258 0.00048580861947045687 0.047420994881239117 -0.067968241728246323 0.0015972564046133949 -0.022627166103897808 -0.037224955034971044 -0.0014696904787480855 0.033219672720837055 -0.05371248986418773 -0.056989576012492098 -0.0079207755887020226 0.034825116134206219 0.036682276706938424 -0.013307493826454232 0.018634484963490929 0.049688091069689411 0.0061504934851611169 0.023579633948175183 0.015311947126862263 0.0071469265948652539 -0.022758129142853238
leaf_weight=175.93283348158002 84.034001893829554 8.923458806704728 142.48128471628297 39.179195296019316 21.117496153397955 78.868403254629811 163.19173381244764 26.561471064109359 2.6250675776973358 77.824628815520555 10.616749630979028 118.88419002736919 12.649942300166002 159.8673573709093 97.052897167188348 18.560977727174759 5.1786559261381608 5.1976384054869413 31.813018817221746 37.326287168078125 90.291913473047316 8.0153601258061808 69.903274173848331 43.658524332568049 3.8655571639537802 64.353602359071374 221.0468700453639 83.776702157221735 65.449019248131663 15.41008061589673
leaf_count=1130 1503 124 6038 282 446 2609 1082 398 53 1508 144 6181 226 3753 3342 124 30 35 1021 442 542 70 1086 519 30 571 1960 828 596 203
internal_value=-0.000775292 0.0234636 -0.0341048 0.041454 -0.022357 -0.0245878 0.0329396 0.00971246 0.0127463 -0.00999537 0.015752 -0.0598978 -0.0307993 -0.0319141 -0.0281416 0.0225182 0.0257019 -0.0103259 -0.0406713 0.0154352 0.0285893 -0.000245308 -0.00230094 0.00808427 -0.0070538 0.0162241 0.0196496 0.00815117 -0.000634161 0.00144764
internal_weight=1983.66 1148.45 835.21 497.533 573.844 542.11 321.6 650.915 498.911 161.859 31.7342 261.365 380.252 367.602 256.92 158.408 139.847 10.3763 110.681 415.427 129.471 152.004 143.989 74.0856 30.427 406.503 285.4 121.103 83.4842 80.8591
internal_count=36876 10105 26771 3225 14552 13962 2095 6880 4777 3011 590 12219 10951 10725 7095 1013 889 65 3630 3925 824 2103 2033 947 428 3801 2531 1270 852 799
is_linear=0
shrinkage=0.05


Tree=6
num_leaves=31
num_cat=0
split_feature=11 11 11 11 26 10 11 11 15 13 12 11 12 10 14 12 18 18 13 16 14 10 24 12 12 24 24 18 14 1
split_gain=551.634 102.204 76.7103 26.7145 19.023 11.947 11.6878 9.99203 7.08379 4.7882 5.3016 4.67113 4.43919 4.33917 4.13967 4.86277 4.61065 4.32292 4.50432 4.26456 4.04115 4.01915 3.71641 5.16163 4.45965 4.10238 6.52545 4.36748 5.12558 4.3199
threshold=10.950000000000001 3.6500000000000008 61.050000000000004 2.2500000000000004 11.873030303030305 13.500000000000002 7.0500000000000007 23.650000000000002 0.22875816993464054 5.6733333333333347 133.50000000000003 49.95000000000001 62.500000000000007 11.500000000000002 8.5000000000000018 97.500000000000014 0.10708313425704731 0.1061699708310674 1.9500000000000002 -0.33333333333333331 12.500000000000002 10.500000000000002 -20.282877333534866 34.500000000000007 111.50000000000001 10.419677419354871 57.756653052624792 0.14794532886747894 -1.0000000180025095e-35 6.8333333333333348
decision_type=2 2 2 2 2 2 2 2 2 2 2 2 2 2 2 2 2 2 2 2 2 2 2 2 2 2 2 2 2 2
left_child=1 3 4 -1 7 14 13 -2 -9 10 -6 -10 -11 20 15 17 -16 18 -5 -19 -3 -8 23 -15 -25 -24 -27 -28 -29 -30
right_child=2 6 -4 5 9 -7 21 8 11 12 -12 -13 -14 22 16 -17 -18 19 -20 -21 -22 -23 25 24 -26 26 27 28 29 -31
leaf_value=0.054781089796697505 -0.020355726103034093 0.0060636495676089797 -0.060736849334748468 -0.047989018161404551 0.036162653183656294 0.039564446445304186 -0.017235099716112555 -0.03724245061451973 -0.031138139697282893 -0.053261187506685827 -0.051899465453462912 0.021813025779227072 0.011827276383279897 -0.0075102281328494397 0.023713220179007361 0.047505287017181097 -0.040257594649166659 -0.0070905570346904839 0.012985027492547048 0.033387940931666631 -0.051473684344029415 0.0014948101965849131 0.03638262915699516 0.021333486855819647 -0.02294671124846347 -0.012790761181845836 0.021681516107243264 -0.029018790921085353 0.030130643788725472 -0.015241010902239574
leaf_weight=162.88415502104908 253.94125501764938 124.82606577593833 207.93852067808621 3.182166200131177 18.072067423141569 156.01970117306337 34.161319578997791 211.67997109590215 7.9550365428440299 4.251875045738414 1.8876204170810513 8.7418872482667194 6.8237746936065378 37.525448714848608 5.4749132180586439 16.845277557149529 5.8012706851586699 7.4020147249102584 62.869007523171604 53.798543062061071 3.1282019894570103 177.27471454441547 28.445588114671409 50.666452485602349 6.4050107179209581 17.839685966726393 183.16767538851127 9.5292662326246482 15.250700868666174 7.9972067046910515
leaf_count=1130 5948 1227 10716 25 220 1082 554 7951 211 103 73 159 196 470 34 73 39 38 457 347 31 2743 262 535 58 203 1633 123 129 106
internal_value=-0.000722213 0.0204726 -0.0351167 0.0383736 -0.024739 0.0297911 0.00827815 -0.0271805 -0.0347693 0.0132048 0.0278345 -0.00341488 -0.0131598 0.0125565 0.0199771 0.0222602 -0.00919792 0.0189183 0.0100475 0.0284922 0.00465699 -0.00153135 0.0153892 0.00689339 0.016364 0.018454 0.0162725 0.0186735 0.00186411 0.0145229
internal_weight=1891.79 1170.49 721.292 474.277 513.353 311.393 696.217 482.318 228.377 31.0353 19.9597 16.6969 11.0756 484.781 155.373 144.097 11.2762 127.252 66.0512 61.2006 127.954 211.436 356.827 94.5969 57.0715 262.23 233.785 215.945 32.7772 23.2479
internal_count=36876 11299 25577 3225 14861 2095 8074 14269 8321 592 293 370 299 4777 1013 940 73 867 482 385 1258 3297 3519 1063 593 2456 2194 1991 358 235
is_linear=0
shrinkage=0.05


Tree=7
num_leaves=31
num_cat=0
split_feature=17 17 26 26 26 17 17 26 18 26 16 16 12 16 26 2 16 21 12 16 18 3 18 12 2 12 26 26 2 2
split_gain=456.405 72.2769 61.0973 25.2012 21.8891 14.2066 8.4407 6.81124 7.37672 5.84096 6.21351 5.5965 5.19753 5.13912 4.927 4.72627 4.60263 4.56859 6.77302 6.81467 4.54058 4.77289 5.08917 4.43454 4.22565 3.97572 3.97229 3.85086 3.83356 5.55718
threshold=4.5000000000000009 1.5000000000000002 6.2516666666666678 2.2958333333333338 2.7348484848484853 3.5000000000000004 7.5000000000000009 1.8690476190476193 0.15004873294346979 4.1679487179487191 -0.58333333333333359 -2.0749999999999993 77.500000000000014 -1.9249999999999994 1.8527777777777781 0.23669467787114848 2.5916666666666672 1.0000000180025095e-35 135.00000000000003 -0.83333333333333248 0.30320275579342942 0.82575757575757591 0.09527005433045703 97.500000000000014 0.17752100840336138 76.500000000000014 1.6950000000000003 1.2100000000000002 0.64583333333333337 0.40833333333333338
decision_type=2 2 2 2 2 2 2 2 2 2 2 2 2 2 2 2 2 2 2 2 2 2 2 2 2 2 2 2 2 2
left_child=1 3 4 -1 14 11 15 8 -7 23 -11 26 24 -13 -2 -4 17 27 19 -19 21 22 -9 28 -12 -10 -3 -15 29 -5
right_child=2 5 6 9 -6 7 -8 20 25 10 12 13 -14 16 -16 -17 -18 18 -20 -21 -22 -23 -24 -25 -26 -27 -28 -29 -30 -31
leaf_value=0.052610190228524562 0.00023928101057406898 0.026148068467421973 -0.038304734146679349 0.025689446531509404 -0.031677336171917238 0.01315942506859779 -0.058638155610700071 -0.0081710494589952373 -0.073334591109141839 -0.060117611733447908 0.0048459101492685239 0.056025328046517033 -0.023286052950580907 0.054937084301912388 -0.015759601960921507 0.019692110803391005 -0.063493707568561306 -0.024885559512308555 -0.045288829795820572 0.012740289494968691 0.063847652948284817 0.022724838392955485 -0.034167690724641792 0.049089822118598303 0.058664149962024563 -0.00045337455193437205 -0.0283470496603235 0.017312144035340104 -0.015632667293331709 0.060276144759514816
leaf_weight=148.84813367528841 71.816984005272388 4.5316528081893948 30.445250502569252 185.96997202839702 276.54278309852816 74.523913199082017 180.01674689480569 62.721944778590114 3.9539505788125089 3.3173878117813755 7.7793140714056808 7.4704110193997613 6.6274834639625615 6.9519378719851366 145.85197013814468 3.9709376876126035 1.8967378467787046 13.006118109449742 5.7367042942205435 161.01418795099016 1.9849795186892141 8.7450928558828291 26.899540681071812 24.905758636072278 6.8668376833084039 3.552405456546694 12.759475558996199 312.36085798451677 5.2019352987408629 12.38743739761412
leaf_count=1115 1262 35 1109 1211 9691 830 10039 1195 64 43 74 35 79 53 3527 83 23 111 75 1766 22 125 504 102 73 59 104 3372 43 52
internal_value=-0.000663622 0.0193497 -0.0320123 0.0362851 -0.0223417 0.00973767 -0.0543007 -0.00228648 0.0084008 0.0266826 0.00352867 0.013909 0.0134536 0.0148603 -0.010481 -0.0316131 0.0142465 0.014542 0.00816599 0.00992817 -0.0110226 -0.0125334 -0.0159738 0.0291748 0.0300786 -0.0388433 -0.014065 0.0181313 0.0267382 0.0278494
internal_weight=1818.66 1110.01 708.645 401.904 494.212 708.11 214.433 182.382 82.0303 253.056 24.591 525.728 21.2736 508.437 217.669 34.4162 500.967 499.07 179.757 174.02 100.352 98.3666 89.6215 228.465 14.6462 7.50636 17.2911 319.313 203.559 198.357
internal_count=36876 11165 25711 2792 14480 8373 11231 2799 953 1677 269 5574 226 5435 4789 1192 5400 5377 1952 1877 1846 1824 1699 1408 147 123 139 3425 1306 1263
is_linear=0
shrinkage=0.05


Tree=8
num_leaves=31
num_cat=0
split_feature=11 11 11 11 26 10 11 11 18 10 26 12 12 11 0 25 18 18 5 24 18 18 24 18 11 18 10 0 18 11
split_gain=416.723 75.1881 60.6691 22.1681 14.2982 10.1618 8.58042 8.00391 6.6997 5.33347 4.94599 4.40751 4.71774 6.19454 3.95051 4.22386 3.91037 4.28114 3.65252 3.61327 3.92857 3.79713 4.59208 4.02378 3.24487 3.52504 3.59621 3.18469 3.16556 4.96533
threshold=10.950000000000001 3.6500000000000008 61.050000000000004 2.2500000000000004 11.873030303030305 13.500000000000002 7.2500000000000009 24.450000000000003 0.23562458691341706 10.500000000000002 3.0958333333333337 139.50000000000003 42.500000000000007 10.550000000000002 5.8452380952380958 1.0000000180025095e-35 0.065590066160414587 0.061428011369205136 7.4365079365079376 -44.903535980148838 0.052558883396336152 0.052684957830682187 208.65159611380986 0.022284295468653015 4.8500000000000005 0.056884294819414948 16.500000000000004 7.4365079365079376 0.17680083188034371 2.7500000000000004
decision_type=2 2 2 2 2 2 2 2 2 2 2 2 2 2 2 2 2 2 2 2 2 2 2 2 2 2 2 2 2 2
left_child=1 3 4 -1 7 10 24 -2 18 -8 16 12 19 -14 -6 27 17 -5 -9 20 -11 22 -21 -24 25 -3 -27 -16 -18 -30
right_child=2 6 -4 5 14 -7 9 8 -10 11 -12 -13 13 -15 15 -17 28 -19 -20 21 -22 -23 23 -25 -26 26 -28 -29 29 -31
leaf_value=0.050732990648802871 -0.018586983538085338 0.026219116548188537 -0.05613731002183138 0.012456961216930428 0.022771139508448265 0.036049078881468632 -0.022052954115815399 -0.0261252059890641 0.020272405823085163 0.017981380772794424 -0.0066715934669334155 0.038680485004357605 -0.015352845885834991 0.028007734584785001 -0.065086552655665333 -0.081243331827427115 0.031336170240914521 -0.043841244729995149 -0.039692813679515743 0.023782766505026906 -0.030384381703876608 0.024192740598441065 0.035055681915806401 -0.04168872046273088 0.0075477370981611273 0.0091448536706895608 0.035259280629633051 0.019482580341815638 -0.01492295537023082 0.03005085173342897
leaf_weight=141.79006375465542 242.92032928345725 58.839093841612339 186.36111198237631 27.931249096989635 21.04996317130281 143.45059928996488 27.291640238137916 90.786807589160162 5.9565136235614764 6.9915677439421442 18.741707978770137 7.754465809557586 59.82544405059889 9.5519260182045382 1.4096538973972181 1.9908071451645808 70.347035131417215 3.8412408381700507 109.35659904974455 8.5667644427157956 10.509875531774012 37.356960990931839 2.1574124787002793 8.1986024132929725 270.6707438591402 132.61742335697636 14.638495016843079 5.2939089166902704 10.80308979470283 14.209533255547283
leaf_count=1130 6185 506 10716 224 323 1082 518 2938 121 100 124 91 1186 141 48 89 458 31 5025 121 201 535 40 141 3108 1257 129 132 75 101
internal_value=-0.000765705 0.0183216 -0.0319334 0.034537 -0.0225119 0.0265998 0.00764832 -0.0247359 -0.0319832 -0.00171234 0.0173074 0.00196613 -2.2577e-05 -0.00938293 0.0110603 -0.0172928 0.0208424 0.0056506 -0.0335384 0.00877908 -0.011063 0.0149494 -0.00329858 -0.025701 0.0111471 0.0158743 0.0117409 0.00169902 0.025904 0.0106264
internal_weight=1751.21 1086.08 665.126 431.115 478.765 289.324 654.97 449.02 206.1 178.205 145.874 150.913 143.159 69.3774 29.7443 8.69437 127.132 31.7725 200.143 73.7812 17.5014 56.2797 18.9228 10.356 476.766 206.095 147.256 6.70356 95.3597 25.0126
internal_count=36876 11299 25577 3225 14861 2095 8074 14269 8084 3074 1013 2556 2465 1327 592 269 889 255 7963 1138 301 837 302 181 5000 1892 1386 180 634 176
is_linear=0
shrinkage=0.05


Tree=9
num_leaves=31
num_cat=0
split_feature=17 17 17 26 26 26 10 10 17 10 22 26 18 26 14 16 16 16 22 26 12 22 26 26 12 12 10 26 1 26
split_gain=344.436 49.2079 48.6209 23.3811 15.2655 11.9005 9.09379 8.75501 8.66885 9.16177 6.67962 7.05776 6.27404 5.26027 5.61011 5.04392 4.82005 4.76187 4.60703 4.37964 5.21638 4.03987 3.89937 3.89672 3.72626 3.50568 4.51254 4.0009 3.46487 4.1519
threshold=4.5000000000000009 8.5000000000000018 1.5000000000000002 2.2958333333333338 2.204545454545455 5.6292857142857153 12.500000000000002 13.500000000000002 3.5000000000000004 14.500000000000002 -35.279220779220758 3.6763888888888894 0.23562458691341706 1.5535714285714288 8.5000000000000018 0.84523809523809545 -2.0749999999999993 -1.8333333333333324 -15.954545454545466 1.7683333333333335 125.50000000000001 43.101010101010083 1.6950000000000003 4.9964285714285728 7.5000000000000009 65.000000000000014 8.5000000000000018 3.3683333333333336 2.1666666666666674 2.3958333333333339
decision_type=2 2 2 2 2 2 2 2 2 2 2 2 2 2 2 2 2 2 2 2 2 2 2 2 2 2 2 2 2 2
left_child=2 4 3 -1 -2 12 15 23 13 21 -8 -12 -3 14 -4 25 -15 -18 -13 22 24 -10 -11 -6 -21 28 -27 -28 -5 -30
right_child=1 5 8 6 7 -7 10 -9 9 19 11 18 -14 16 -16 -17 17 -19 -20 20 -22 -23 -24 -25 -26 26 27 -29 29 -31
leaf_value=0.048831500799749718 -0.0028882216439436864 -0.034866534286969779 0.027000908755419994 0.021722585026722873 -0.026804230188253654 -0.054200879356387545 -0.028117775310626321 -0.015153001390584706 -0.0090914520724995392 0.014543936574717831 0.037392231590310486 -0.040421274359378118 0.033175479986108779 -0.020388490545650124 -0.023519034353417907 0.065217668186920291 0.04738831737532255 0.010342306508231699 0.018538489168361465 0.076083163197118553 0.052310558185106798 -0.06080628570542556 0.052639339289067499 -0.044299850115439666 -0.0056250205718504902 -0.03618285621498521 0.032567556450167533 -0.021117484363332412 -0.069516973302027774 -0.0069820693717019605
leaf_weight=131.16746946051717 120.5902220713906 103.44828017418331 82.651669303420931 9.3806748114293423 88.734875799156725 159.29125218314584 4.9383212625980368 134.1502621810796 86.70554393895145 21.344636622816328 114.42134699597955 3.6238717576488844 3.5026272515096926 12.481337149627505 5.8866116665303698 3.6575526091037309 8.8712536534294468 390.71631695021642 38.649158226326108 1.4430912733077992 4.7394104520062674 3.9483633683994404 9.8019200889393669 49.624232460409985 42.172968811515602 3.4502292904071536 23.136386843398217 4.0829359926283351 2.9398797154426601 27.319330316211563
leaf_count=1115 2462 4657 717 77 2344 10004 40 4403 1510 224 802 34 58 117 56 33 45 4639 282 12 53 68 79 1783 853 28 135 38 17 191
internal_value=-0.00068323 -0.0289414 0.0172746 0.0319122 -0.0177001 -0.045539 0.0224926 -0.0242546 0.0092709 -0.0004788 0.0291379 0.0309423 -0.0326382 0.0125848 0.023642 0.0079715 0.010209 0.0111648 0.0134841 0.0119103 0.0024918 -0.0113439 0.0265327 -0.0330793 -0.0029216 0.00499351 0.0176864 0.0245147 -0.00482707 -0.0130577
internal_weight=1696.87 659.342 1037.53 366.767 393.1 266.242 235.6 272.509 670.763 170.156 161.633 156.694 106.951 500.607 88.5383 73.967 412.069 399.588 42.273 79.502 48.3555 90.6539 31.1466 138.359 43.6161 70.3094 30.6696 27.2193 39.6399 30.2592
internal_count=36876 25711 11165 2792 10992 14719 1677 8530 8373 2799 1158 1118 4715 5574 773 519 4801 4684 316 1221 918 1578 303 4127 865 486 201 173 285 208
is_linear=0
shrinkage=0.05


Tree=10
num_leaves=31
num_cat=0
split_feature=11 11 11 11 26 1 10 21 18 11 11 16 6 19 19 1 14 25 19 2 25 11 10 18 14 16 3 26 11 26
split_gain=315.676 66.3727 46.2775 17.3093 11.2579 7.97233 6.41528 5.95128 5.77431 7.76681 5.97887 4.43872 4.17651 4.10309 4.24492 4.07315 6.59233 3.94366 4.184 4.17513 3.93634 3.91109 4.79346 4.05433 5.39287 3.66896 3.47216 3.34441 3.31056 3.16428
threshold=12.350000000000003 3.7500000000000004 64.350000000000009 2.4500000000000006 11.873030303030305 1.1666666666666667 9.5000000000000018 1.0000000180025095e-35 0.23562458691341706 22.750000000000004 49.95000000000001 0.16666666666666743 6.4722222222222232 0.33124926732054244 0.13827336013334643 4.166666666666667 1.0000000180025095e-35 1.0000000180025095e-35 0.42868081382629625 0.19677419354838713 1.0000000180025095e-35 7.2500000000000009 10.500000000000002 0.14794532886747894 11.500000000000002 -0.75595238095238093 0.19090909090909094 1.4062500000000002 223.35000000000005 2.0527777777777785
decision_type=2 2 2 2 2 2 2 2 2 2 2 2 2 2 2 2 2 2 2 2 2 2 2 2 2 2 2 2 2 2
left_child=1 3 4 -1 8 -5 15 17 9 -2 -10 29 13 14 -13 -7 27 21 19 -19 25 23 -23 -3 -25 -6 -14 -17 -4 -9
right_child=2 7 28 5 20 6 -8 11 10 -11 -12 12 26 -15 -16 16 -18 18 -20 -21 -22 22 -24 24 -26 -27 -28 -29 -30 -31
leaf_value=0.044412060669952923 -0.016316094267644549 0.017359559142485981 -0.047939987742410713 -0.03180405727738049 -0.03638965104081137 -0.016542661935542314 0.028101074663334231 0.0027667656240861435 -0.023230159225735666 -0.030616163673300868 0.051977859510453119 -0.018096821217023228 0.0096118652748406856 -0.015878235633689012 0.043560889819063517 0.048080336798378143 0.050093430873260916 -0.0049380843558312956 0.036639397413672267 -0.054839907742035336 -0.055309773530984756 -0.021180219650873355 0.007886037229126449 -0.0042548443068599756 0.072671116363854996 0.021540010079089157 -0.063003347306652843 -0.019254938587033366 -0.064305204541832597 -0.0095509829557258799
leaf_weight=161.55825626570731 177.66031468065921 218.20953984255902 122.149030214292 6.3303341199643901 3.0940844750439345 13.459791731089352 222.87685219943523 115.65674206335098 5.4117440744303149 203.96262326127908 5.1644325318920892 3.2694087508134606 4.3551528528332701 4.9218285959213963 19.096017924137414 2.2882206998765495 9.3156690858304483 23.685567368054766 4.8035692367702714 5.0928470520302644 2.166495871890219 16.907386217731982 88.072212257888168 38.802388232666999 2.4204362109303466 23.437744283888605 2.6465996485203505 9.5001258272677642 41.368763994774781 94.933744496433064
leaf_count=1357 4746 2294 7446 61 60 102 1711 1701 116 8773 78 28 39 49 142 20 58 327 38 61 105 365 1686 488 19 419 38 91 3054 1443
internal_value=3.73492e-05 0.016201 -0.0295067 0.0315237 -0.0207369 0.0236297 0.0249928 0.00606329 -0.0229489 -0.0239589 0.0134945 -6.97294e-05 0.0166129 0.0254523 0.0345477 0.00494989 0.0186575 0.00983685 -0.00655866 -0.0137691 0.00949283 0.0113478 0.0032048 0.0146428 0.000261935 0.0147844 -0.017836 -0.00618458 -0.0520803 -0.00278605
internal_weight=1652.62 1068.2 584.415 425.329 420.897 263.771 257.441 642.873 392.199 381.623 10.5762 244.879 34.289 27.2873 22.3654 34.5638 21.104 397.994 33.582 28.7784 28.6983 364.412 104.98 259.432 41.2228 26.5318 7.00175 11.7883 163.518 210.59
internal_count=36915 12118 24797 3400 14297 2043 1982 8718 13713 13519 194 3440 296 219 170 271 169 5278 426 388 584 4852 2051 2801 507 479 77 111 10500 3144
is_linear=0
shrinkage=0.05


Tree=11
num_leaves=31
num_cat=0
split_feature=11 11 11 11 26 11 10 18 11 11 1 22 10 21 11 1 24 22 26 26 24 24 22 6 12 24 26 11 12 11
split_gain=279.689 56.4681 42.661 11.5017 11.1747 6.894 5.36376 4.59396 6.02414 5.06915 4.42228 5.22357 4.37876 6.77796 4.2689 3.82057 3.62614 3.56166 4.54798 3.55128 3.52019 3.68859 3.33132 4.45583 3.24016 3.17182 3.14114 3.75866 3.13602 2.99743
threshold=12.350000000000003 3.3500000000000001 50.95000000000001 2.0500000000000003 8.3261363636363654 4.8500000000000005 9.5000000000000018 0.20261717413616151 24.850000000000005 49.95000000000001 5.8333333333333348 13.21111111111111 15.500000000000002 1.0000000180025095e-35 223.35000000000005 1.1666666666666667 -40.843718985149017 2.4142857142857115 2.3958333333333339 1.4535714285714287 357.910631443299 305.89201302224637 -30.702941176470571 7.8819444444444455 126.50000000000001 -60.174736842105325 1.9527777777777782 4.9500000000000011 26.500000000000004 5.7500000000000009
decision_type=2 2 2 2 2 2 2 2 2 2 2 2 2 2 2 2 2 2 2 2 2 2 2 2 2 2 2 2 2 2
left_child=1 3 4 -1 7 22 10 8 16 -9 11 28 25 -14 -4 -8 -2 -12 -19 -15 21 -21 23 -3 -6 29 27 -27 -5 -7
right_child=2 5 14 6 24 12 15 9 -10 -11 17 -13 13 19 -16 -17 -18 18 -20 20 -22 -23 -24 -25 -26 26 -28 -29 -30 -31
leaf_value=0.047301948756704827 -0.029208575970381557 -0.021611742053026642 -0.043936711923950399 0.010420418178408296 0.013314106114543737 0.0076457378289709723 -0.019925473531013399 -0.016801893964069933 -0.030273739108091963 0.048500080026475614 0.053406665960561199 0.024424108119902626 0.01778990197701592 0.043071953862834807 -0.062689670886907967 0.031020857823722738 -0.012793485489948884 0.037261705001009011 -0.032624588452543547 -0.0049566104553458896 0.013036200577088215 -0.038870518193845821 0.015546449948084391 0.038431924096779313 -0.041014367384678792 -0.04989050298756826 -0.0032479855129090851 0.010409113759990596 -0.038575104282060416 -0.016369895454685628
leaf_weight=92.845613364130259 43.810773816891015 12.995779982768001 150.29658751719398 4.9046900598332313 31.437363672215724 17.878554318100214 3.7509774751961222 7.7023843051865679 140.60873659927165 4.8387739986355882 8.3203663388267177 10.165559856221078 107.10117638506927 4.0799381509423247 38.024751861812547 194.35440819291398 144.96509186108597 5.7067239964380843 3.9319044854491949 36.645416506798938 19.206557069439441 10.263053752947597 237.11026259884238 4.0536004500463596 3.0069209992798269 2.6507757371291509 107.26031488506123 103.05734334886074 9.7746285200119001 47.544225377961993
leaf_count=882 1438 135 9160 41 660 216 39 163 6090 72 59 63 1484 43 3054 1509 3926 52 27 664 277 170 2234 48 234 25 1698 1458 64 930
internal_value=5.0896e-05 0.0153887 -0.0282948 0.0323505 -0.0185735 0.0074136 0.0265883 -0.021308 -0.0224388 0.00839367 0.0105379 -0.00312594 0.00373364 0.00987536 -0.0477232 0.0300562 -0.0166031 0.0294409 0.00875285 -0.00220038 -0.00499413 -0.0123766 0.0140115 -0.00733597 0.00857133 -0.000177779 0.00278026 0.00889702 -0.0222046 -0.00980697
internal_weight=1608.29 1043.6 564.691 333.755 376.37 709.847 240.909 341.926 329.385 12.5412 42.8039 24.8449 455.687 177.296 188.321 198.105 188.776 17.959 9.63863 70.195 66.115 46.9085 254.16 17.0494 34.4443 278.391 212.968 105.708 14.6793 65.4228
internal_count=36915 12118 24797 2736 12583 9382 1854 11689 11454 235 306 168 6965 2638 12214 1548 5364 138 79 1154 1111 834 2417 183 894 4327 3181 1483 105 1146
is_linear=0
shrinkage=0.05


Tree=12
num_leaves=31
num_cat=0
split_feature=11 11 11 11 26 11 24 1 10 0 11 18 22 11 26 3 3 19 7 22 3 19 3 19 14 19 16 14 24 18
split_gain=245.859 51.4561 39.5067 11.0023 10.2543 4.82005 4.8863 4.81626 6.83783 5.33803 4.64322 6.41785 4.53457 3.94687 4.44918 3.33774 3.79133 3.22233 5.27776 8.72588 6.11629 4.54242 4.85609 4.11597 3.7877 3.64145 3.21998 3.22868 3.77309 3.29231
threshold=12.350000000000003 3.3500000000000001 64.350000000000009 2.4500000000000006 11.873030303030305 5.8500000000000005 401.49915110356545 4.166666666666667 13.500000000000002 4.5108695652173916 22.750000000000004 0.23562458691341706 -25.550505050505048 6.0500000000000007 1.4845238095238098 0.49000000000000005 0.73030303030303034 0.27744783589454397 1.5000000000000002 -33.563492063492042 0.16025641025641027 0.1131169621133125 0.28192934782608697 0.24534089593702976 -7.4999999999999991 0.27510105355432546 -0.75595238095238093 7.5000000000000009 188.89201302224635 0.068893263342082248
decision_type=2 2 2 2 2 2 2 2 2 2 2 2 2 2 2 2 2 2 2 2 2 2 2 2 2 2 2 2 2 2
left_child=1 3 4 -1 10 17 13 8 9 26 -2 -12 -9 -7 15 -15 -17 18 23 20 -20 22 -21 -3 -19 -23 -5 28 29 -28
right_child=2 5 -4 7 -6 6 -8 12 -10 -11 11 -13 -14 14 -16 16 -18 24 19 21 -22 25 -24 -25 -26 -27 27 -29 -30 -31
leaf_value=0.041283468158709286 -0.01512867407045167 0.008964914801685769 -0.049242515378301016 0.046658154940800049 0.010366292260421467 -0.022849436301557172 0.020912098282047556 -0.011131224952251741 0.027447928964991659 -0.059730500551314625 -0.027994316931506821 0.022865613171180344 0.034829246508502013 0.04221379252128505 0.00031663087358777887 -0.056355211480370128 0.039270402500931223 -0.023566771287205489 0.044170494402152503 -0.055108526251336137 -0.051778505106867816 0.022944967355901888 0.01370576088082805 -0.023889933979145184 0.0075145808484336635 0.060074418874789259 -0.038097229532673915 -0.030734162392480557 0.032675988591766014 0.0080473073507573312
leaf_weight=145.52118527889252 173.46204651892185 39.551379795186222 146.76331055851188 4.2330457530915728 27.841559401422273 17.161722159478813 32.288147299550474 5.7776034362614146 50.150469652377069 3.4121686592698088 190.934526876983 6.4109209742746307 75.460170426173136 11.200700094457714 258.85512964613736 2.1509405933320513 2.0006345054134727 10.462013570591806 2.1957154981791955 3.6710025602951637 6.8191665662452579 131.42106139473617 8.4995080912485701 12.559808157384394 155.37906657112762 6.9529099818319073 5.4586556241847637 6.7003584355115882 9.9605597145855409 13.243810827843843
leaf_count=1357 4822 571 10500 21 584 217 491 56 414 22 8773 118 609 153 4637 37 25 130 19 39 85 1143 82 156 1573 24 56 32 54 115
internal_value=3.88151e-05 0.0145158 -0.0270642 0.0311327 -0.0188992 0.00693416 0.00245696 0.0226626 0.0149033 0.000275623 -0.0210965 -0.0263421 0.0315606 0.000411845 0.00186769 0.0280201 -0.0102734 0.0107727 0.0148616 0.0193736 -0.0284086 0.0222348 -0.00705076 0.00104626 0.00555383 0.0248106 0.00544657 0.000513486 0.00781803 -0.00542082
internal_weight=1566.5 1021.09 545.412 319.918 398.649 701.169 323.657 174.397 93.1591 43.0086 370.807 197.345 81.2378 291.369 274.207 15.3523 4.15158 377.512 211.671 159.559 9.01488 150.544 12.1705 52.1112 165.841 138.374 39.5964 35.3634 28.663 18.7025
internal_count=36915 12118 24797 2736 14297 9382 5560 1379 714 300 13713 8891 665 5069 4852 215 62 3822 2119 1392 104 1288 121 727 1703 1167 278 257 225 171
is_linear=0
shrinkage=0.05


Tree=13
num_leaves=31
num_cat=0
split_feature=11 11 11 11 26 11 18 2 10 19 19 2 19 26 18 18 12 24 26 14 13 11 24 24 14 11 11 18 10 18
split_gain=220.777 45.8965 37.2807 12.416 9.14478 4.61218 5.52297 4.37306 3.98989 3.81454 8.22204 5.38688 4.54078 3.4996 4.07123 4.18548 3.98109 3.5679 3.21082 3.12947 3.79851 2.92648 2.80593 2.73833 6.2121 3.33714 3.05329 2.72287 2.65308 2.62051
threshold=11.750000000000002 3.8500000000000001 61.050000000000004 2.4500000000000006 11.873030303030305 22.750000000000004 0.23562458691341706 0.69047619047619058 9.5000000000000018 0.25493189642269126 0.28733799762482576 0.16108108108108113 0.17745426616394364 1.4845238095238098 0.10207716962524656 0.079484053312643757 90.500000000000014 198.15628101485109 1.4845238095238098 5.5000000000000009 5.4142857142857155 223.35000000000005 -567.42672261260805 397.10971786833875 1.0000000180025095e-35 7.6500000000000012 9.8500000000000032 0.1029298816300714 12.500000000000002 0.078977070215041009
decision_type=2 2 2 2 2 2 2 2 2 2 2 2 2 2 2 2 2 2 2 2 2 2 2 2 2 2 2 2 2 2
left_child=1 3 4 18 5 -2 -7 8 9 12 -11 -12 -5 14 15 16 17 22 -1 -16 -21 -4 -3 -15 25 -25 -26 29 -8 -6
right_child=2 13 21 7 27 6 28 -9 -10 10 11 -13 -14 23 19 -17 -18 -19 -20 20 -22 -23 -24 24 26 -27 -28 -29 -30 -31
leaf_value=0.055527291234094368 -0.013976029300681448 0.073259942008047918 -0.043208902005031753 -0.010157052093223134 0.0077563456253468832 -0.026754947923203404 -0.038118422406598518 -0.02163569306686397 0.024406562788554114 -0.060145066268483371 0.028087962691285141 -0.035379720452559105 0.049148052733859054 0.0026617979130152056 -0.016633024595430902 0.047737817177560121 -0.042612498131640433 0.041713548382326771 0.035804835706763148 -0.015311087287727027 0.075305770706378519 -0.059991386056294116 0.0016189205100068619 0.037006057221937505 -0.010254226275478687 -0.0025976462092725822 0.039040639845653896 0.029870438608925437 0.038385831105522655 -0.041078624737059748
leaf_weight=25.227290397975594 182.85913496301509 1.4755378812551487 112.36324068391696 5.1395726976916185 13.256444194703368 180.69519926203793 1.4753737412393082 5.9176261504180721 216.95310478005558 5.3861605674028423 12.280003242194654 4.5940111503005019 8.676459960639475 463.12571304175071 13.157307284418495 13.233770029153673 2.7890310119837514 11.639401623513548 113.39950992586091 2.254771194420754 2.3742026332765818 33.786833042977378 18.540479283779867 25.721277364064008 23.408516458235685 6.7059342162683597 3.6281348410993806 10.772121039815827 4.8866790097963531 3.4650708290573666
leaf_count=235 5156 5 7806 59 324 8418 40 64 1841 40 109 33 64 6747 186 110 36 113 1122 23 17 3054 229 271 277 154 49 170 76 87
internal_value=8.69392e-05 0.0141955 -0.0254959 0.0273176 -0.017555 -0.0196228 -0.0251428 0.0208526 0.0218463 0.0064492 -0.00635959 0.0108087 0.0270865 0.0053239 0.0162219 0.0238377 0.0146551 0.0197007 0.0393939 -0.00419299 0.0311663 -0.0470887 0.00690014 0.00395871 0.0140595 0.028816 -0.00363919 0.010266 0.0206443 -0.00236335
internal_weight=1529.19 985.628 543.56 397.574 397.41 369.916 187.057 258.947 253.029 36.0762 22.2602 16.874 13.816 588.054 65.4645 47.6782 34.4444 31.6554 138.627 17.7863 4.62897 146.15 20.016 522.59 59.4639 32.4272 27.0367 27.4936 6.36205 16.7215
internal_count=36915 11784 25131 3567 14271 13690 8534 2210 2146 305 182 142 123 8217 719 493 383 347 1357 226 40 10860 234 7498 751 425 326 581 116 411
is_linear=0
shrinkage=0.05


Tree=14
num_leaves=31
num_cat=0
split_feature=11 11 11 11 18 10 17 13 24 18 15 26 18 22 21 16 18 10 1 24 26 11 13 11 10 0 21 18 18 18
split_gain=197.399 41.1416 34.1246 10.0356 7.50316 8.41539 6.04572 4.95577 4.77812 3.54513 5.34067 3.51616 4.98378 4.60974 3.49158 4.5889 3.55556 3.47189 3.32597 3.74329 3.13676 3.45731 3.10823 3.55033 3.01585 3.63613 2.97776 2.97472 2.83851 4.78561
threshold=11.750000000000002 3.7500000000000004 64.350000000000009 2.0500000000000003 0.17063717148799398 13.500000000000002 8.5000000000000018 1.1250000000000002 85.740687022900858 0.23562458691341706 0.84523809523809534 1.4845238095238098 0.10207716962524656 36.12916666666667 1.0000000180025095e-35 0.16666666666666743 0.1623310810810811 10.500000000000002 9.8333333333333339 174.156281014851 3.8845238095238099 5.7500000000000009 1.9500000000000002 3.9500000000000006 11.500000000000002 1.8090909090909093 1.0000000180025095e-35 0.031810150979762288 0.038518603058662414 0.023032714412024761
decision_type=2 2 2 2 2 2 2 2 2 2 2 2 2 2 2 2 2 2 2 2 2 2 2 2 2 2 2 2 2 2
left_child=1 3 4 -1 6 -6 -2 9 -7 10 26 12 13 28 17 18 27 22 20 -20 21 24 -13 -24 -16 -26 -5 -17 29 -3
right_child=2 11 -4 7 5 8 -8 -9 -10 -11 -12 14 -14 -15 15 16 -18 -19 19 -21 -22 -23 23 -25 25 -27 -28 -29 -30 -31
leaf_value=0.042540760385994379 -0.015290588107707254 0.037088943424662943 -0.04625400334366974 -0.019197397405111605 -0.025709388830117225 0.043979471827087779 -0.03013521663827879 0.023918196711190293 -0.014219363254403102 0.039983507325964361 0.026186763497332288 -0.050337888107182087 -0.0065736636584366077 -0.031431171811170014 0.022357408450301316 -0.024641356216942998 -0.039208374304482763 0.0094940090502306368 -0.016073512738459847 0.046636095443243861 -0.035630794254841995 -0.010699736549621162 0.035104923466207333 -0.0062793065122850591 0.048001326260915529 -0.005883859183964708 -0.085727775243586116 0.029214985640423904 0.034041022737197828 -0.039074721046430283
leaf_weight=79.049906273838133 274.21877140040306 4.4515650817193073 133.68212490214501 4.1150585599243623 11.848530971590664 13.26834100377164 91.465832377507468 273.71140301809646 4.8034428104583631 3.1847366644069544 3.9870883831754327 3.4592260913923374 17.764755081385374 3.4641143558546892 17.33482159813866 2.8889823229983511 2.5087494179606429 279.13636170281097 3.7712513147853297 6.4493846320547163 8.4173656664788705 88.430632105562836 5.8920532856136552 43.034148667939007 3.3717525117099276 43.789140835870057 2.8443779181689024 22.790251599624753 38.604657495394349 3.8428666284307837
leaf_count=882 9146 61 10500 31 301 194 4855 2412 135 19 39 37 239 40 165 29 29 3830 71 72 89 1716 46 730 26 596 17 201 347 60
internal_value=0.000130062 0.0135741 -0.024414 0.0267611 -0.0170339 0.00703917 -0.0190036 0.0224275 0.0285103 -0.00644633 -0.0199544 0.00550234 0.0161964 0.0242281 0.00413099 -0.00109095 0.0176055 0.00727738 -0.00416278 0.0234973 -0.00591495 -0.00427934 -0.00453398 -0.00129551 0.00452373 -0.00203136 -0.0463889 0.023156 0.0283393 0.0018018
internal_weight=1495.58 966.295 529.287 366.893 395.605 29.9203 365.685 287.843 18.0718 14.1313 10.9465 599.402 68.128 50.3632 531.274 199.752 28.188 331.522 171.564 10.2206 161.344 152.926 52.3854 48.9262 64.4957 47.1609 6.95944 25.6792 46.8991 8.29443
internal_count=36915 11784 25131 3400 14631 630 14001 2518 329 106 87 8384 747 508 7637 2994 259 4643 2735 143 2592 2503 813 776 787 622 48 230 468 121
is_linear=0
shrinkage=0.05


Tree=15
num_leaves=31
num_cat=0
split_feature=11 11 11 24 26 13 1 16 24 18 1 11 22 26 16 17 11 18 18 16 18 16 16 10 6 1 12 13 12 16
split_gain=181.901 41.7544 34.3418 8.6335 8.1784 5.50067 6.14299 6.02053 4.94454 4.92935 4.51768 4.44381 4.06746 7.16656 4.01555 3.76687 3.76046 3.56935 5.40864 5.15128 4.97393 3.46789 3.40321 3.45051 4.4621 3.40118 3.40819 3.27764 3.23752 3.22977
threshold=11.750000000000002 3.0500000000000003 55.250000000000007 -20.282877333534866 8.3261363636363654 6.4861111111111116 1.8333333333333337 -0.58333333333333359 -39.289905819850325 0.17063717148799398 9.1666666666666696 2.0500000000000003 -10.866071428571415 1.7055555555555559 1.9249999999999996 3.5000000000000004 7.6500000000000012 0.093070332360418048 0.10430551264509866 -1.3333333333333333 0.046988627402877327 0.52857142857142858 -0.70833333333333304 13.500000000000002 4.2071428571428582 4.8333333333333348 35.500000000000007 10.267857142857144 104.50000000000001 -0.83333333333333248
decision_type=2 2 2 2 2 2 2 2 2 2 2 2 2 2 2 2 2 2 2 2 2 2 2 2 2 2 2 2 2 2
left_child=1 11 4 27 8 6 7 -5 9 -2 -6 -1 13 28 16 -9 17 19 -19 -14 21 -21 23 24 -13 -18 -27 -3 -8 -22
right_child=2 3 -4 5 10 -7 12 15 -10 -11 -12 22 14 -15 -16 -17 25 18 -20 20 29 -23 -24 -25 -26 26 -28 -29 -30 -31
leaf_value=0.040972350641865135 -0.031488566855431423 -0.00021575966604298893 -0.044388177247189194 -0.070892972885087988 0.013517812677275618 0.0040135274854806195 0.020754094590631763 0.01098668251687962 -0.014236709187126627 0.0089630470528943313 -0.058957675497427933 0.024249775868179741 0.063950412892379169 -0.0043664098105080131 0.059573280611711757 -0.04027103579279448 0.017346850394879144 -0.015075239495415419 0.020141689292989179 0.012932659884656562 -0.02419040611472183 -0.044208023884401954 0.028972753393690806 0.027026809872598329 -0.050508488077966686 -0.040949990296806987 0.0078528539025503521 -0.036604285065447578 0.07044149166501748 0.034482505469549014
leaf_weight=78.787242876365781 83.911659978955868 209.2848628659267 145.79575919278432 3.3778586983680752 30.019130998160108 193.48530730744824 21.695078512653712 17.895745847374204 240.26921129047696 8.2736454580008267 2.3160662740410762 3.5135513618588465 9.1957526709884387 49.273986930027604 6.3225808679126194 4.4819569450337431 20.091168643906713 13.305382728576658 60.369437501765788 23.606465176679198 2.4386753644794217 2.991828801110386 141.33704064739868 8.7415908165276033 4.6212964169681072 6.5966210281476361 7.8164272997528315 6.3768665757961562 3.8619805723428717 61.391404339578003
leaf_count=920 3712 3097 11541 34 783 2903 234 188 8739 177 146 21 52 636 33 86 335 145 540 293 17 23 1249 57 36 151 120 110 20 517
internal_value=0.000239613 0.0130546 -0.0238767 0.00709063 -0.0156789 0.0106478 0.0147266 -0.0086717 -0.0180137 -0.027858 0.00832663 0.0312702 0.0168121 0.00677733 0.020319 0.000720442 0.0191247 0.0221259 0.0137817 0.0282968 0.0246711 0.00650536 0.0264388 0.00521706 -0.0182194 0.00405076 -0.0144834 -0.00129173 0.0282625 0.0322409
internal_weight=1471.45 960.86 510.585 723.859 364.79 508.198 314.712 25.7556 332.455 92.1853 32.3352 237.001 288.957 74.831 214.126 22.3777 207.803 173.299 73.6748 99.6241 90.4284 26.5983 158.213 16.8764 8.13485 34.5042 14.413 215.662 25.5571 63.8301
internal_count=36915 11817 25098 9534 13557 6327 3424 308 12628 3889 929 2283 3116 890 2226 274 2193 1587 685 902 850 316 1363 114 57 606 271 3207 254 534
is_linear=0
shrinkage=0.05


Tree=16
num_leaves=31
num_cat=0
split_feature=11 11 11 11 13 24 24 11 0 11 11 13 25 11 11 16 1 19 3 1 1 11 19 22 26 19 24 19 3 24
split_gain=162.129 36.1289 31.8904 9.14664 9.58901 7.82369 4.99198 4.54873 4.80379 4.52308 4.19642 4.14592 3.78205 3.78025 4.74279 5.15704 4.44219 4.08482 3.83401 3.71592 3.65499 3.53927 3.41152 3.34564 3.77779 3.1319 4.22501 2.99518 2.91722 2.89931
threshold=11.750000000000002 3.0500000000000003 50.95000000000001 49.95000000000001 5.6733333333333347 -35.320691895403577 -39.289905819850325 7.0500000000000007 6.7638888888888902 2.0500000000000003 20.750000000000004 1.1250000000000002 1.0000000180025095e-35 6.4500000000000011 4.8500000000000005 0.7958333333333335 8.1666666666666696 0.41399714344011435 0.13392857142857145 7.8333333333333348 9.8333333333333339 113.55000000000001 0.17372409497565214 -40.343137254901954 2.1354166666666674 0.21036531341223433 52.459999999999972 0.17372409497565214 0.095454545454545472 262.15628101485112
decision_type=2 2 2 2 2 2 2 2 2 2 2 2 2 2 2 2 2 2 2 2 2 2 2 2 2 2 2 2 2 2
left_child=1 9 3 6 -5 12 -2 13 19 -1 -8 -11 -3 14 23 16 18 28 25 -9 29 -4 -6 24 -7 27 -27 -16 -18 -10
right_child=2 5 21 4 22 7 10 8 20 11 -12 -13 -14 -15 15 -17 17 -19 -20 -21 -22 -23 -24 -25 -26 26 -28 -29 -30 -31
leaf_value=0.039741474337274291 -0.02913995040575016 -0.00012310831749973655 -0.034530762773344256 0.022078754048792632 -0.053091660910433727 0.018992789612914458 -0.007626135581604113 0.0077974984405151885 -0.0057628848228309972 -0.010670142362647024 -0.021441098243517712 0.026655951499199568 -0.028749997311634336 0.026418722572718035 0.032539597101719671 -0.038371309194800807 -0.0001485988902238228 -0.064067997773828364 0.0053551321771841895 0.071882287464338709 0.018731780005471078 -0.049881839160488883 -0.0086821264276677936 0.016347821166008785 -0.063386262828209486 -0.019942173259077781 0.05618473499858128 -0.029283493960733178 -0.066680629679170836 -0.032208128415362851
leaf_weight=74.823567825369537 75.127401825739071 172.22310133767314 75.588764274842106 31.518960587098263 6.0771752269211019 2.7360731805674723 115.25528027920518 83.08694280590862 28.14329590392299 7.8386375196278086 105.09060015238356 146.0516667929478 12.366146409418432 44.402066516689956 4.3247923268936601 7.0497043086215845 24.417529487516738 3.2502475958317509 67.747112869285047 2.3253281582146874 9.4509361851960403 74.60604013397824 14.994571174320297 214.14211856457405 2.8323818100616336 2.166945951525121 11.469499376602469 3.5815600231289864 1.7667988706380118 16.406191213056445
leaf_count=920 3029 2564 5435 672 560 38 3227 1367 617 63 4584 1300 191 515 63 65 397 46 743 14 166 6732 859 2071 32 37 88 39 16 465
internal_value=0.000169166 0.0123633 -0.0228997 -0.0145903 0.00462187 0.00682265 -0.0180098 0.00991375 0.00216231 0.0296576 -0.014215 0.0247547 -0.0020409 0.0126855 0.0109204 0.00317756 0.00564468 -0.0112003 0.0111977 0.00954219 -0.00951041 -0.0421561 -0.02149 0.0153529 -0.0229091 0.0295711 0.0440875 0.00453387 -0.00463788 -0.0155018
internal_weight=1440.86 942.603 498.259 348.064 52.5907 713.889 295.473 529.3 139.413 228.714 220.346 153.89 184.589 389.887 345.485 125.774 118.724 29.4346 89.2899 85.4123 54.0004 150.195 21.0717 219.711 5.56845 21.5428 13.6364 7.90635 26.1843 44.5495
internal_count=36915 11817 25098 12931 2091 9534 10840 6779 2629 2283 7811 1363 2755 4150 3635 1494 1429 459 970 1381 1248 12167 1419 2141 70 227 125 102 413 1082
is_linear=0
shrinkage=0.05


Tree=17
num_leaves=31
num_cat=0
split_feature=11 11 11 11 13 24 24 12 11 25 26 11 24 0 1 26 22 10 12 11 22 24 11 26 18 11 24 22 22 11
split_gain=148.376 32.2026 29.8394 8.29359 8.71361 7.61095 4.27397 4.14684 4.04516 3.52621 3.46484 3.44004 3.38921 4.49412 4.83467 5.43272 7.56882 5.12583 3.97239 3.69926 3.59775 3.62105 3.48694 3.30218 3.29238 3.18426 3.1758 3.46732 4.33646 3.16357
threshold=11.750000000000002 3.0500000000000003 50.95000000000001 49.95000000000001 5.8038461538461545 -25.897064142753688 -39.289905819850325 202.50000000000003 2.0500000000000003 1.0000000180025095e-35 1.4845238095238098 37.350000000000001 390.11796357615907 6.8819444444444455 7.8333333333333348 1.9527777777777782 -5.9583333333333419 11.500000000000002 27.500000000000004 4.9500000000000011 19.788888888888895 3.1103225103282743 4.8500000000000005 4.0516666666666667 0.30011286681715582 109.05000000000001 308.58038277511963 0.88194444444445719 31.133928571428587 4.1500000000000012
decision_type=2 2 2 2 2 2 2 2 2 2 2 2 2 2 2 2 2 2 2 2 2 2 2 2 2 2 2 2 2 2
left_child=1 8 3 6 7 9 -2 -5 -1 -3 26 -8 13 14 15 20 -17 -18 19 29 21 -12 23 -15 -23 -4 -7 -28 -29 -19
right_child=2 5 25 4 -6 10 11 -9 -10 -11 12 -13 -14 22 -16 16 17 18 -20 -21 -22 24 -24 -25 -26 -27 27 28 -30 -31
leaf_value=0.038458286067117639 -0.02783437612919374 0.00022805855203292616 -0.033640263867434204 0.024100819778839044 -0.021815511132928588 0.029620622299321997 -0.011365781629429503 -0.068482771776172388 0.023996350602639688 -0.027267468121811925 0.047108340414471844 -0.029954469153601261 0.017965238799655871 0.012237397650867832 0.060727861101771412 -0.014516009220825774 -0.021074556181696312 -0.0060423603655362706 0.022824434003188315 -0.019258184701810187 0.0021053877634348173 0.016092347655240893 -0.0075057716598951815 -0.060015924849041252 0.068994411929805016 -0.048557214326728056 0.026824250465817663 -0.054995664312711606 0.022663475618845283 0.037757851812493907
leaf_weight=71.496077377349138 73.319513260270469 186.37650057161227 69.550967018818483 30.720192739441703 19.702105355303502 38.659804492723197 186.02575551206246 1.2590219944977423 149.37670442927629 12.4389327079989 13.645734011428429 28.733184130920563 80.082052083685994 45.294865575153381 4.7090149996802202 42.238589195534587 11.138613324146716 8.151264647021895 56.056272237328812 13.400385828223078 25.594132888596505 59.794605130562559 78.667592187644914 1.6385455797426391 3.0932037439197293 73.670247385511175 7.2303435588255507 4.2229283056221902 3.1299006417393684 8.3410893278196436
leaf_count=920 3029 2841 5197 593 1398 379 6352 100 1363 208 153 1459 1004 544 23 570 180 82 489 222 301 716 1543 27 19 6970 69 60 29 75
internal_value=0.000290189 0.0120212 -0.0221715 -0.0141025 0.00434101 0.00679468 -0.0174113 0.0204558 0.0286777 -0.00149221 0.0100566 -0.0138528 0.00863505 0.00662523 0.0105521 0.00957351 0.00315229 0.010839 0.0149749 0.000254966 0.0183335 0.0237605 -0.00107092 0.00971488 0.0186944 -0.0413133 0.0221206 0.00223821 -0.0219383 0.0161098
internal_weight=1407.76 924.777 482.981 339.76 51.6813 703.904 288.078 31.9792 220.873 198.815 505.089 214.759 451.846 371.764 246.163 241.454 139.326 97.0876 85.949 29.8927 102.128 76.5335 125.601 46.9334 62.8878 143.221 53.243 14.5832 7.35283 16.4924
internal_count=36915 11817 25098 12931 2091 9534 10840 693 2283 3049 6485 7811 5948 4944 2830 2807 1618 1048 868 379 1189 888 2114 571 735 12167 537 158 89 157
is_linear=0
shrinkage=0.05


Tree=18
num_leaves=31
num_cat=0
split_feature=11 11 11 26 11 13 18 11 12 18 10 13 16 16 13 11 13 16 26 12 10 16 11 16 10 6 22 22 26 12
split_gain=134.18 30.6187 24.4165 7.53881 7.31319 3.85869 3.76205 3.68213 3.49919 3.20296 3.16353 3.2418 3.04308 2.84111 2.79231 2.56012 2.53887 3.01045 2.56411 2.31517 2.41674 2.65597 2.56656 2.27795 5.36159 2.49681 2.27419 2.39667 2.36222 2.75996
threshold=14.050000000000002 3.0500000000000003 55.250000000000007 8.3261363636363654 7.4500000000000011 6.2034482758620699 0.17783830838785772 2.0500000000000003 139.50000000000003 0.20261717413616151 14.500000000000002 4.4868421052631584 -3.4476190476190474 2.2583333333333333 1.1250000000000002 217.75000000000003 1.9500000000000002 0.4166666666666668 3.7781746031746035 15.500000000000002 10.500000000000002 1.0488095238095243 10.750000000000002 -0.5505050505050505 12.500000000000002 4.2071428571428582 -24.73863636363637 -9.3137254901960755 2.7788888888888894 69.500000000000014
decision_type=2 2 2 2 2 2 2 2 2 2 2 2 2 2 2 2 2 2 2 2 2 2 2 2 2 2 2 2 2 2
left_child=1 7 3 9 6 8 12 -1 -5 -2 -11 -12 -3 19 -9 -4 -8 18 -18 -6 22 -22 -21 24 25 -16 28 -28 29 -25
right_child=2 4 15 5 13 -7 16 14 -10 10 11 -13 -14 -15 23 -17 17 -19 -20 20 21 -23 -24 26 -26 -27 27 -29 -30 -31
leaf_value=0.037007400828838931 -0.019018060532771427 -0.052445853206743533 -0.037642041592308481 0.026003945339488778 0.01064090963316275 -0.017107493638622455 0.031077605247941276 -0.0071270939141791188 -0.051661394692076285 -0.017321958492284122 -0.020616871891104151 0.064169030259328547 0.010547698568565892 0.038367372563537901 0.013481896714135848 -0.054972823157120446 -0.0068921434292901875 -0.051145128704840226 0.050709498770621343 -0.032259843387768543 -0.0011212562942912159 -0.030952140368152966 0.00069398872222849824 -0.041125823813238836 0.032279558517429037 -0.043159472293986957 0.044246529698124197 0.025555212340982653 0.042187121061274223 0.018570765968979868
leaf_weight=67.951073586940765 257.62535711847886 1.9247689638286818 100.29133936041035 19.532272901531549 26.761987793259323 10.290777944072032 4.6033239134121677 7.3436432392336419 1.566603564802789 5.5642690297099744 1.6594219098333267 3.5164718741434626 485.82818239321932 4.2313626585528246 3.1275041624903697 27.058101516216993 38.475194260943681 3.6948946798220268 2.0341444900259367 15.329749478027226 138.85649513988756 7.8852927116677156 9.6140891651157272 3.6539479666389507 10.31011141836643 5.1485027577728033 21.298508855514228 88.052622294053435 3.0901630064472556 4.1185099817812443
leaf_count=920 11088 20 8457 333 595 475 45 63 119 156 23 52 5592 30 21 3084 488 41 14 382 3270 119 249 36 72 38 182 889 21 41
internal_value=0.000306482 0.0107405 -0.0229831 -0.0151909 0.00591821 0.00799416 0.00897472 0.0273911 0.0202372 -0.0179028 0.00885019 0.0369862 0.0102991 -0.00217341 0.0229199 -0.0413243 -0.00426044 -0.00794046 -0.00399972 -0.00303784 -0.00517005 -0.00272424 -0.0195585 0.0245096 0.00821925 -0.0217547 0.0270282 0.0291958 0.00520844 -0.00949349
internal_weight=1380.44 953.334 427.105 299.755 739.239 31.3897 536.561 214.095 21.0989 268.366 10.7402 5.17589 487.753 202.679 146.144 127.349 48.8076 44.2042 40.5093 198.448 171.686 146.742 24.9438 138.8 18.5861 8.27601 120.214 109.351 10.8626 7.77246
internal_count=36915 13128 23787 12246 10845 927 6200 2283 452 11319 231 75 5612 4645 1363 11541 588 543 502 4615 4020 3389 631 1300 131 59 1169 1071 98 77
is_linear=0
shrinkage=0.05


Tree=19
num_leaves=31
num_cat=0
split_feature=11 11 11 24 11 13 1 7 24 11 16 12 11 19 3 24 6 11 11 11 19 24 25 16 17 11 22 22 24 12
split_gain=120.309 25.7699 25.6082 7.36266 7.20704 7.97963 3.78631 4.32944 3.64345 3.60472 3.73567 3.59954 3.36076 3.28637 3.25183 3.31091 3.09985 4.09495 2.89445 2.8433 2.79387 2.78921 2.78385 2.68175 2.60436 3.7075 3.35239 2.82239 3.78136 2.46033
threshold=11.750000000000002 3.0500000000000003 50.95000000000001 -35.320691895403577 49.95000000000001 5.6733333333333347 1.8333333333333337 1.5000000000000002 -39.289905819850325 4.8500000000000005 0.33333333333333376 224.50000000000003 2.4500000000000006 0.60946639317820794 0.83974358974358987 -75.224033970276011 1.6794871794871797 4.6500000000000012 20.750000000000004 109.05000000000001 0.17372409497565214 105.71966138187521 1.0000000180025095e-35 -2.0208333333333326 5.5000000000000009 7.4500000000000011 47.67948717948719 -54.36931818181818 -39.289905819850325 196.50000000000003
decision_type=2 2 2 2 2 2 2 2 2 2 2 2 2 2 2 2 2 2 2 2 2 2 2 2 2 2 2 2 2 2
left_child=1 12 4 22 8 -6 16 9 -2 -8 29 13 -1 -9 23 -16 17 -5 -10 -4 -7 -15 24 -14 25 26 27 -3 -29 -11
right_child=2 3 19 6 5 20 7 11 18 10 -12 -13 14 21 15 -17 -18 -19 -20 -21 -22 -23 -24 -25 -26 -27 -28 28 -30 -31
leaf_value=0.032189999414456071 -0.026177972930753263 0.067937446890133951 -0.031837628236116043 0.020579875058552532 0.020129332242353568 -0.050909700215048925 0.011736711156431405 0.013249119334184906 -0.0073572839924672855 -0.0043170291641694758 -0.06903458788590891 0.066744320134466309 -0.025124357390491001 0.0087623398682795898 0.039001597638790284 -0.009233638155494368 -0.050372004222894097 -0.024664220702126913 -0.019276393394081409 -0.046560778500289508 -0.0089124052848599689 -0.064099062904849166 -0.027220562892234179 0.026078714960565547 0.027732271167275564 -0.017967576487130849 -0.037234950505686655 0.0038356539978164094 -0.044655858545619126 0.050629384797120563
leaf_weight=112.14317173301242 70.224395987694152 1.6541889570653427 64.403094903740566 9.9726165202446335 30.735125709259592 5.4995583122290581 60.235100308433175 344.52758600586094 108.03332195791882 71.142510732635856 2.1887016221880904 3.1025940813124171 2.6520872972905627 2.708017971366643 4.5971749080345061 15.73245803080499 3.9907390251755706 10.031914183869956 96.372906552278437 66.806798799545504 14.146831051963089 2.5506429607048631 10.738047436345367 71.483507848810405 7.5527800575364372 30.592290594941005 5.3848530324175945 118.22193374834023 4.1618070895783594 2.0973623348399988
leaf_count=1399 3029 9 5197 104 672 560 785 3985 3227 1514 34 13 23 30 40 165 49 172 4584 6970 859 33 191 656 138 780 82 1477 78 60
internal_value=0.000216363 0.0108441 -0.0206901 0.00621071 -0.0131634 0.00422009 0.00925517 0.0102076 -0.0163525 0.00261625 -0.00466709 0.013126 0.0263372 0.0126504 0.0193891 0.00167388 -0.010136 -0.00210923 -0.0129769 -0.0393341 -0.0206686 -0.0265781 -0.00254071 0.024247 -0.000959179 -0.00231343 0.00138682 0.0030635 0.00218664 -0.00274353
internal_weight=1353.68 897.462 456.222 690.854 325.012 50.3815 512.548 488.553 274.631 135.664 75.4286 352.889 206.608 349.786 94.4652 20.3296 23.9953 20.0045 204.406 131.21 19.6464 5.25866 178.306 74.1356 167.568 160.015 129.423 124.038 122.384 73.2399
internal_count=36915 11817 25098 9534 12931 2091 6779 6454 10840 2393 1608 4061 2283 4048 884 205 325 276 7811 12167 1419 63 2755 679 2564 2426 1646 1564 1555 1574
is_linear=0
shrinkage=0.05


Tree=20
num_leaves=31
num_cat=0
split_feature=11 11 11 11 18 16 23 16 18 23 11 7 18 16 14 19 16 16 12 16 11 19 11 21 24 24 18 19 14 12
split_gain=108.832 24.9626 19.929 5.66075 5.13821 3.94227 2.92844 2.72731 2.56192 4.24306 3.08716 3.1852 3.25707 3.89188 2.93481 2.71387 5.33364 2.54147 2.53635 3.52666 3.03581 3.73129 2.97232 2.81023 2.61034 2.42812 2.38919 4.97626 3.70972 2.38347
threshold=14.050000000000002 3.6500000000000008 67.950000000000017 1.8500000000000003 0.12269383135257499 -2.1999999999999993 61.818181818181763 0.92499999999999993 0.17461290129730381 241.42857142857147 7.4500000000000011 2.5000000000000004 0.096820145207241984 2.0000000000000009 -2.4999999999999996 0.21821789321789323 0.92499999999999993 -2.1547619047619042 41.500000000000007 0.99999999999999989 9.2500000000000018 0.1530778435152563 9.8500000000000032 1.0000000180025095e-35 -196.10798697775371 405.64197292069633 0.052558883396336152 0.17569033241484436 1.5000000000000002 21.500000000000004
decision_type=2 2 2 2 2 2 2 2 2 2 2 2 2 2 2 2 2 2 2 2 2 2 2 2 2 2 2 2 2 2
left_child=1 3 4 -1 6 26 -2 -6 9 10 17 14 15 -14 -12 -13 -17 -7 20 22 -16 -22 -20 -24 -25 -5 27 28 -3 -19
right_child=2 5 -4 25 7 8 -8 -9 -10 -11 11 12 13 -15 18 16 -18 29 19 -21 21 -23 23 24 -26 -27 -28 -29 -30 -31
leaf_value=0.038518905244390486 -0.017956785827509553 0.01653091352319563 -0.040797785341167923 0.017411175239728655 -0.0037123889134152242 0.06673534793062133 0.033921524465523649 0.032998128562117923 -0.0055667976546699485 -0.045554807389069953 -0.024543660123563071 0.0053362448405522012 -0.017384644786134683 0.061984729755525485 0.031594784700669405 0.031994339733618871 -0.060084788927067437 0.0013960534369049063 -0.018399783766150677 -0.077331217009660891 0.037144623351170358 -0.022262566389705137 0.020407393173117683 0.073222211753985009 -0.020689001810921297 0.034406448947192018 -0.035438984239654456 0.068258815916156568 -0.069629917279943304 0.010854204007999874
leaf_weight=42.988709259545431 264.75041356996371 2.6420596288517144 97.788954646151979 235.76088281348348 35.177242079924326 1.8887790888547886 2.7484658504836252 5.9092303509823969 53.659837048966438 3.9813205997925243 16.89044505963102 46.82588934735395 17.943820649059493 1.6899856515228737 10.807211425388234 23.231507181655619 1.6868799906224001 87.617637402843684 22.695775638334453 1.7594856992363919 3.7692621515598139 8.8469366079661977 14.937522889580578 0.80178353725932616 9.5947613737080228 23.072981283068657 9.8928195461630803 2.0501261688768864 2.3698656456544995 277.8080672272481
leaf_count=642 12324 29 10040 2409 1196 8 69 80 773 78 564 983 398 10 182 422 27 1179 591 32 79 240 400 8 313 194 124 17 27 3292
internal_value=0.000440239 0.00991362 -0.0211283 0.0217168 -0.0148952 0.00419898 -0.0174238 0.00156747 0.00486382 0.00587635 0.00624947 0.000914308 0.00749197 -0.0105529 -0.00575642 0.0124302 0.0257609 0.00888545 -0.00142214 -0.00780533 0.0121461 -0.00451385 -0.00525838 0.00651448 -0.0134466 0.0189262 -0.0195808 0.00263398 -0.0242098 0.00858644
internal_weight=1331.59 925.214 406.374 301.823 308.585 623.392 267.499 41.0865 606.437 552.777 548.796 181.481 91.3781 19.6338 90.1032 71.7443 24.9184 367.314 73.2127 49.7893 23.4234 12.6162 48.0298 25.3341 10.3965 258.834 16.9549 7.06205 5.01193 365.426
internal_count=36730 13021 23709 3245 13669 9776 12393 1276 9579 8806 8728 4249 1840 408 2409 1432 449 4479 1845 1344 501 319 1312 721 321 2603 197 73 56 4471
is_linear=0
shrinkage=0.05


Tree=21
num_leaves=31
num_cat=0
split_feature=11 11 11 26 11 18 24 10 17 18 19 22 24 11 24 24 24 16 24 16 11 22 10 26 24 19 1 0 22 12
split_gain=100.572 21.4655 18.0418 5.60147 5.35734 3.69593 4.54501 2.80571 2.7521 2.70353 3.18059 2.69752 3.2439 2.90997 2.65471 3.64389 5.80348 3.30001 5.3736 3.21181 2.94171 3.2756 2.83309 3.53279 3.03655 2.9799 2.78245 3.51824 4.33901 3.95099
threshold=14.050000000000002 3.6500000000000008 67.950000000000017 1.4535714285714287 1.8500000000000003 0.21525096525096529 -56.897064142753699 15.500000000000002 8.5000000000000018 0.17246887738239511 0.17896784763465087 -10.276190476190463 127.96025062656634 4.4500000000000011 -36.649703729522535 10.419677419354871 -9.1914023913287206 1.591666666666667 258.96025062656639 0.65476190476190477 5.8500000000000005 -11.414285714285709 15.500000000000002 2.5348484848484851 354.10293585724634 0.26001745200698084 3.5833333333333335 4.8452380952380958 -16.898989898989921 20.500000000000004
decision_type=2 2 2 2 2 2 2 2 2 2 2 2 2 2 2 2 2 2 2 2 2 2 2 2 2 2 2 2 2 2
left_child=1 4 5 9 -1 8 -7 -8 -2 10 11 -3 -13 -14 20 16 -16 19 -19 26 -5 -22 23 25 -24 -21 -17 28 -28 -30
right_child=2 3 -4 14 -6 6 7 -9 -10 -11 -12 12 13 -15 15 17 -18 18 -20 22 21 -23 24 -25 -26 -27 27 -29 29 -31
leaf_value=0.037393951317012834 -0.012771783685435138 0.025790860304926611 -0.039677598901966787 0.0047613091246915271 0.017912817794055486 0.044676605913511025 -0.032794295583819036 0.037819883925484327 -0.023592644190841314 -0.023954404367476787 0.02840849099726335 -0.060349522975729923 0.064237581200099522 -0.027331640118411285 0.0052018994210999321 -0.0049284839237330111 0.037100165238634263 -0.020394157856625197 0.046788636401932301 -0.045162572111758933 -0.026613525048622633 -0.0035515704990226127 -0.061249448109989058 0.055486778701274268 -0.0037896225682571825 0.011970146515293335 -0.01372279824042417 0.0027669065992129761 -0.0078571241936155074 0.034194309604369123
leaf_weight=40.94996412540786 208.65542404034204 5.2647594884037971 94.370120595616754 65.127855525817722 255.36352549213916 5.7407517496030778 5.4777635516074934 1.8927524680038912 81.79383065008733 3.4196639931760719 41.662990476703271 3.0222254982218129 1.4629030325450005 2.1321655749343336 43.678356185904704 82.079186803428456 21.170460790512152 4.2726267087273291 9.8106548693031055 4.2247202098369616 20.811530332313851 59.181614991743118 5.5585578130558115 2.2595463041216126 3.921311916783452 4.9639361426234245 8.4720369777642173 184.79184727231041 6.924074806738644 28.899807675275952
leaf_count=642 8150 50 10040 769 2603 92 140 42 5245 60 414 51 15 37 775 1129 322 42 60 67 543 1321 69 22 40 41 148 3345 105 351
internal_value=0.000381908 0.00955535 -0.020583 0.00421508 0.0206051 -0.0146469 0.0113202 -0.0146605 -0.0158191 0.0191479 0.0219007 -0.000918143 -0.022168 0.00992965 0.00268555 0.00473819 0.0156154 0.0027006 0.0264065 0.00169529 -0.00312816 -0.00955152 -0.017265 -0.000524558 -0.0374814 -0.0142981 0.0029705 0.0058006 0.0184565 0.0260666
internal_weight=1307.36 909.426 397.931 613.113 296.313 303.561 13.1113 7.37052 290.449 56.9647 53.545 11.8821 6.61729 3.59507 556.148 411.027 64.8488 346.178 14.0833 332.095 145.121 79.9931 20.9281 11.4482 9.47987 9.18866 311.167 229.088 44.2959 35.8239
internal_count=36730 13021 23709 9776 3245 13669 274 182 13395 627 567 153 103 52 9149 6516 1097 5419 102 5317 2633 1864 239 130 109 108 5078 3949 604 456
is_linear=0
shrinkage=0.05


Tree=22
num_leaves=31
num_cat=0
split_feature=11 11 11 26 11 22 11 18 16 10 10 13 24 24 24 13 16 12 12 3 13 22 13 24 24 10 11 18 22 6
split_gain=92.2325 18.123 16.7284 5.63332 5.05988 3.37742 3.66127 2.84933 2.81743 2.76952 2.61948 2.54199 2.49589 3.27566 4.70791 3.61012 5.26145 3.97661 3.20379 2.85588 6.38051 4.76598 2.83953 2.66612 3.10514 4.8406 2.91083 3.39798 2.82056 3.0729
threshold=14.050000000000002 3.6500000000000008 74.350000000000009 1.4535714285714287 1.8500000000000003 1.0000000180025095e-35 30.250000000000004 0.21525096525096529 -2.1999999999999993 13.500000000000002 12.500000000000002 10.414285714285716 -36.649703729522535 6.661577608142438 -9.1914023913287206 3.6125000000000003 -0.27922077922077898 126.50000000000001 21.500000000000004 0.13392857142857145 4.0384615384615392 -33.563492063492042 3.8452380952380958 350.53594220349186 336.910631443299 15.500000000000002 8.4500000000000011 0.15469723018147089 -7.9583333333333419 4.5916666666666677
decision_type=2 2 2 2 2 2 2 2 2 2 2 2 2 2 2 2 2 2 2 2 2 2 2 2 2 2 2 2 2 2
left_child=1 4 5 -3 -1 7 9 -2 -5 -7 -9 -11 -10 14 19 16 18 -18 -15 -14 -21 -22 -17 24 28 -26 -25 -28 -24 -30
right_child=2 3 -4 8 -6 6 -8 10 12 11 -12 -13 13 15 -16 22 17 -19 -20 20 21 -23 23 26 25 -27 27 -29 29 -31
leaf_value=0.036354761397469973 -0.011519260980946548 0.019332367694684237 -0.039502309289548558 -0.019439616886371205 0.016993250980755603 -0.025639158770915067 -0.031843358210312624 -0.023385451777584394 -0.0023610022601775905 -0.01052993002227065 0.032830176500430748 0.026387340496570322 0.024847630781608426 0.00071297528705028222 0.037365125590072198 0.038035807615952093 -0.0051883531539617771 0.034902446415846645 -0.06700987293458395 0.022362986645009877 0.066010973162072592 -0.03523157606415718 0.013162759388252249 0.019068573671433612 0.014446136006191258 -0.060147443274371284 -0.0078578057001471129 0.076231755482934316 0.016755832935520045 -0.0050151853157712097
leaf_weight=38.970771720167249 170.95406448789436 57.168312713503838 84.549215085629839 13.83380435593426 251.61782906483859 31.052709771320224 46.346091932442505 2.9526847109664214 138.49401748506352 41.201732873450965 6.9495457082230132 5.2579408886376759 14.522979929111896 2.6160599095746866 18.268535960116424 6.9240456118714055 66.98472716496326 6.8145877469796678 5.2530310973525047 13.204026185441764 1.2786386311054219 12.789934779517351 52.226948886411265 57.045734805520624 3.9260278197471035 4.876059144269675 19.673626392381269 1.2795012795831997 19.876817118842155 87.813217579387128
leaf_count=642 8145 627 9431 180 2603 1120 2966 71 2573 1662 131 183 347 37 273 65 998 66 64 199 13 197 876 760 69 81 537 19 247 1548
internal_value=0.000494322 0.00932729 -0.0198249 0.00439702 0.0195898 -0.0143651 -0.020726 -0.0100088 0.00283809 -0.0140787 0.0160676 -0.00635192 0.00341536 0.00543873 0.0161918 0.00351254 -0.00563051 -0.00148639 -0.0444956 0.00693704 -0.00260056 -0.02603 0.00645645 0.00557019 0.00203615 -0.0268762 0.0132147 -0.00272288 0.00362753 -0.000996814
internal_weight=1284.72 895.459 389.264 604.871 290.589 304.715 123.858 180.856 547.702 77.5124 9.90223 46.4597 533.869 395.375 60.0641 335.31 81.6684 73.7993 7.86909 41.7956 27.2726 14.0686 253.642 246.718 168.719 8.80209 77.9989 20.9531 159.917 107.69
internal_count=36730 13021 23709 9776 3245 14278 5931 8347 9149 2965 202 1845 8969 6396 1029 5367 1165 1064 101 756 409 210 4202 4137 2821 150 1316 556 2671 1795
is_linear=0
shrinkage=0.05


Tree=23
num_leaves=31
num_cat=0
split_feature=11 11 11 11 26 3 24 24 24 14 12 0 0 12 16 18 16 14 26 18 24 16 1 22 18 18 16 16 22 11
split_gain=84.4375 16.3421 15.5777 4.69528 3.62296 3.19431 2.63592 3.84625 3.70355 3.27066 2.94494 2.89674 4.81883 2.84187 2.81545 5.95856 4.85938 2.80213 2.79481 3.00613 2.74258 2.7404 2.58779 2.57108 2.45531 2.43228 2.40131 2.39799 2.39405 2.79484
threshold=14.050000000000002 3.6500000000000008 62.050000000000004 1.8500000000000003 1.4845238095238098 0.36474501108647456 -36.649703729522535 6.661577608142438 -9.1914023913287206 -1.0000000180025095e-35 111.50000000000001 4.0238095238095246 4.8819444444444455 35.500000000000007 1.591666666666667 0.096131842985389918 2.0666666666666673 -4.4999999999999991 2.1050000000000009 0.071490900024931456 -121.843718985149 0.66666666666666641 2.8333333333333335 -17.24038461538461 0.041435447772633908 0.039960079840319372 -2.0208333333333326 1.0833333333333337 25.348484848484848 32.45000000000001
decision_type=2 2 2 2 2 2 2 2 2 2 2 2 2 2 2 2 2 2 2 2 2 2 2 2 2 2 2 2 2 2
left_child=1 3 5 -1 -3 28 9 8 17 20 11 13 -13 22 27 16 -16 -8 -14 23 21 24 -11 -20 -6 -24 -19 -9 29 -2
right_child=2 4 -4 -5 6 -7 7 14 -10 10 -12 12 18 -15 15 -17 -18 26 19 -21 -22 -23 25 -25 -26 -27 -28 -29 -30 -31
leaf_value=0.035344147745524093 -0.0090582161715235792 0.015227095266848636 -0.036835778397629533 0.016327532628919197 0.024561167633570653 -0.0042072556929489144 -0.023771809387248845 0.0025445762418181525 0.035535857327590063 0.031390646891658373 -0.0251466845762401 -0.042555898726182345 0.01434275602781615 0.035586349378469329 0.025704626403448116 0.056455860242670658 -0.061855104328606504 -0.05578460232891376 -0.051863534279099767 -0.02504028604239952 -0.026050525758931381 0.043818508907656262 0.037632230236541338 0.020496161123957034 -0.017486099497326903 -0.032868039400412274 0.016113323388083946 -0.029133025669150422 -0.029551289730960002 -0.021596614699828317
leaf_weight=37.323465835535899 106.16078747157007 67.104756797198206 94.451678789686412 249.04868546989746 4.454340224619961 70.98193008598173 5.8036776864901176 312.33831166347954 18.137465026928112 4.4649940333329159 8.7869127877056581 6.1655215350911012 29.666627550963312 13.128387615084646 3.9633184093981964 7.2021589959040284 2.6401190031319857 1.2018225155770768 1.4156460161320854 12.835469978163017 23.136820059968159 2.893156172707676 1.5725927429739384 9.2425148559268582 15.741951183415948 5.5097534216474742 34.467345350654796 6.0907404930330804 29.985485171899199 76.449336110388685
leaf_count=642 4382 766 10655 2603 94 2198 136 5188 277 64 124 111 523 138 31 45 24 19 54 268 527 29 17 188 341 119 609 84 1553 4921
internal_value=0.000529565 0.00898428 -0.0192488 0.018806 0.00428054 -0.0133911 0.00289682 0.00499536 0.0166902 -0.00301843 0.00239478 0.00527573 -0.000712444 0.0196726 0.00289705 0.0250025 -0.00930261 0.00844833 0.00414056 -0.00874229 -0.0138842 -0.00169288 0.00157997 0.0108851 -0.00821247 -0.0172139 0.0136908 0.00193866 -0.0164575 -0.0143074
internal_weight=1262.37 884.337 378.029 286.372 597.964 283.578 530.86 391.845 59.6103 139.015 92.7884 84.0015 59.3258 24.6757 332.235 13.8056 6.60344 41.4728 53.1603 23.4936 46.2263 23.0894 11.5473 10.6582 20.1963 7.08235 35.6692 318.429 212.596 182.61
internal_count=36730 13021 23709 3245 9776 13054 9010 6413 1041 2597 1606 1482 1144 338 5372 100 55 764 1033 510 991 464 200 242 435 136 628 5272 10856 9303
is_linear=0
shrinkage=0.05


Tree=24
num_leaves=31
num_cat=0
split_feature=17 26 26 17 17 26 22 3 26 16 6 16 3 10 16 21 6 24 24 18 16 18 22 18 12 13 18 26 18 14
split_gain=68.7024 10.7569 10.5855 7.63094 7.18751 4.50012 4.23619 4.27143 4.01794 3.92745 3.78786 3.32697 4.47078 2.85193 2.96293 3.24061 2.84548 2.95148 3.88962 3.14261 4.33363 3.01743 3.26584 3.38503 3.88555 3.64732 3.41431 2.8289 3.06216 2.72469
threshold=6.5000000000000009 6.4035714285714294 1.9050000000000005 2.5000000000000004 2.5000000000000004 2.3050000000000006 -25.118055555555539 0.73030303030303034 2.3763888888888896 0.49999999999999983 3.2111111111111117 -0.65151515151515127 0.80909090909090919 14.500000000000002 1.9249999999999996 1.0000000180025095e-35 2.7638888888888893 408.15628101485112 374.61915336571815 0.044791318357297022 -0.20416666666666658 0.028622631848438305 -14.645833333333341 0.14564162093710428 51.000000000000007 3.8452380952380958 0.092139588100686509 3.2954545454545463 0.23562458691341706 11.500000000000002
decision_type=2 2 2 2 2 2 2 2 2 2 2 2 2 2 2 2 2 2 2 2 2 2 2 2 2 2 2 2 2 2
left_child=2 27 4 6 -1 13 -4 16 -7 11 -11 -9 -13 -5 15 -15 -8 18 21 -20 -21 -18 23 24 26 -25 -23 -2 -29 -14
right_child=1 -3 3 5 -6 8 7 9 -10 10 -12 12 29 14 -16 -17 17 -19 19 20 -22 22 -24 25 -26 -27 -28 28 -30 -31
leaf_value=0.022824609183677434 -0.0076556454799566369 -0.035521582878643258 -0.010157859698479911 -0.0044499967317512268 0.0082392728467568285 -0.039101080785572839 0.043316873524986615 -0.039933784312852924 -0.0066621825927803136 -0.081348293400447039 -0.00072971594050089074 0.034773102422554762 -0.0038522136651134367 0.018268531264240901 0.056649267588297504 -0.0068184068710804057 0.036636541062804215 0.028327377304093428 0.026330952774747812 -0.086756045382328811 -0.011002709884151871 -0.018265560419101452 0.0074427592394202121 0.049991952029125222 0.056125956638664688 -0.039009355873766978 0.056573518663190638 -0.02210241206592789 0.022312145772336114 0.041097175820511422
leaf_weight=131.89483989612199 81.739028108888306 92.341328074442572 29.875212894519791 48.939890508539975 234.89698758686427 10.172106022946535 7.4464646672131485 4.3318182062357655 155.03441014647251 2.8651047504972658 2.9646502556279302 10.717165066860614 48.159756810840918 35.117528053466231 3.4777364553883663 20.322039107093588 11.427751973184057 24.344142007903429 3.2510155948111779 2.5330508295446625 7.4130489224771727 4.3564572026953163 150.89824335102458 1.7590349353849877 11.107286130078135 3.3308464046567678 2.3439924642443657 93.643912889478088 4.0485406161751589 3.6251707607880226
leaf_count=1809 3253 10426 378 1081 3365 262 66 59 5169 29 20 81 637 635 16 501 200 213 35 18 97 56 1725 7 68 52 22 6349 79 22
internal_value=0.000569952 -0.0216552 0.00678028 0.00272148 0.013484 -0.00347317 0.00780497 0.0095768 -0.00865951 -0.000992091 -0.0403507 0.00244106 0.00537793 0.00447082 0.0118809 0.00907261 0.0129128 0.0118964 0.00988052 -0.0163459 -0.0302954 0.0117491 0.0101127 0.0277079 0.0379858 -0.00825099 0.00791511 -0.0145191 -0.0202618 -0.00070556
internal_weight=1244.38 271.773 972.606 605.814 366.792 273.064 332.75 302.875 165.207 72.6637 5.82976 66.8339 62.5021 107.857 58.9173 55.4396 230.211 222.765 198.421 13.1971 9.9461 185.224 173.796 22.8976 17.8077 5.08988 6.70045 179.431 97.6925 51.7849
internal_count=36730 20107 16623 11449 5174 7664 3785 3407 5431 848 49 799 740 2233 1152 1136 2559 2493 2280 150 115 2130 1930 205 146 59 78 9681 6428 659
is_linear=0
shrinkage=0.05


Tree=25
num_leaves=31
num_cat=0
split_feature=11 11 11 11 17 3 11 16 2 3 12 18 22 12 18 19 22 13 12 1 11 18 7 11 12 1 0 18 19 16
split_gain=66.3024 15.0621 12.5579 3.86691 3.6827 5.70855 3.60113 3.59174 4.38649 4.87287 3.23927 3.46186 2.9881 2.65505 2.46691 2.43098 2.14506 3.34704 2.51009 2.21844 2.07883 2.00627 1.95124 3.1045 1.94019 1.93828 2.45613 3.64246 3.91544 3.73047
threshold=12.350000000000003 67.950000000000017 2.4500000000000006 5.5500000000000007 4.5000000000000009 0.82575757575757591 24.050000000000004 -2.1180555555555549 0.19677419354838713 0.32916666666666672 153.50000000000003 0.10207716962524656 -54.36931818181818 125.50000000000001 0.09527005433045703 0.57181054239877771 -37.94444444444445 5.6733333333333347 111.50000000000001 4.5833333333333348 4.2500000000000009 0.093829314720812199 3.5000000000000004 2.0500000000000003 174.50000000000003 2.8333333333333335 4.1742424242424248 0.079969834087481165 0.20677496085392241 0.16666666666666632
decision_type=2 2 2 2 2 2 2 2 2 2 2 2 2 2 2 2 2 2 2 2 2 2 2 2 2 2 2 2 2 2
left_child=2 4 22 7 5 -2 -6 8 9 -4 12 24 -9 16 -11 -8 17 19 -18 21 -20 -14 -1 -24 -12 -5 27 28 29 -27
right_child=1 -3 3 25 6 -7 15 10 -10 14 11 -13 13 -15 -16 -17 18 -19 20 -21 -22 -23 23 -25 -26 26 -28 -29 -30 -31
leaf_value=0.027106624152493698 -0.0060069671507722716 -0.035613236079674648 -0.048184829492539716 -0.0094369832877113438 -0.0075517450034679971 0.044091322968686217 -0.020404385382538956 0.0583141290940569 -0.079332386746505723 0.045583735736420092 -0.028766487243850926 -0.047817069289616654 0.015609364023234013 0.034317523235489568 -0.012831120737527483 0.016252738476275418 0.010917846497561553 0.026911888850919875 0.0002547607699731591 -0.080133849886350958 -0.055888871442161862 -0.04504230793868149 0.037830872350312697 -0.044931992288320163 0.026893394666281791 -0.0035495291345442499 0.0010011238882805223 -0.0012251913527055909 0.045668580939960193 0.050470390321809548
leaf_weight=90.036997568560764 32.664166399219539 82.323252965143183 3.9448003005236369 33.360927346395329 127.3216746947146 6.8846569765009908 135.04806393281615 3.2817784026265135 2.2795875305309883 4.2331225611269474 2.4245794527232629 4.9182517558801919 2.6181530961766821 11.28953014500439 3.1539822537451982 4.6794834604079361 374.93595355167054 3.6489684607367963 4.9501516027376047 1.7884786706417797 2.4721859488636255 2.8451473575551063 2.1183612649328998 2.4361367933452129 4.4196609212085605 13.508760951808659 227.88424906996079 25.503152180463076 12.63785307202488 4.1863271035253993
leaf_count=1337 1001 10137 39 584 4746 103 8772 28 28 36 18 62 36 74 21 85 4271 50 38 19 26 35 34 24 58 301 4477 402 156 40
internal_value=0.000459436 -0.0166241 0.00832349 0.00615905 -0.0115254 0.00271414 -0.0136343 0.00923004 -0.0160476 -0.00331693 0.01005 -0.0158184 0.0107961 0.0104107 0.0206431 -0.0191767 0.00972434 -0.0121461 0.0103479 -0.0317994 -0.0184452 -0.0159765 0.0254915 -0.00643782 0.00717582 0.0019634 0.0033039 0.0127022 0.024412 0.00923057
internal_weight=1233.8 388.921 844.877 750.286 306.598 39.5488 267.049 433.204 13.6115 11.3319 419.593 11.7625 407.83 404.549 7.3871 139.728 393.259 10.9007 382.358 7.25178 7.42234 5.4633 94.5915 4.5545 6.84424 317.081 283.72 55.8361 30.3329 17.6951
internal_count=37038 24844 12194 10799 14707 1104 13603 4839 124 96 4715 138 4577 4549 57 8857 4475 140 4335 90 64 71 1395 58 76 5960 5376 899 497 341
is_linear=0
shrinkage=0.05


Tree=26
num_leaves=31
num_cat=0
split_feature=11 11 11 11 26 3 11 12 13 18 14 26 16 7 11 0 6 0 18 17 13 11 11 18 16 26 14 7 16 11
split_gain=61.8891 13.8461 10.7522 4.55093 4.10766 3.99904 3.54801 3.05172 2.6784 4.13013 2.43888 3.32311 2.51896 2.30551 4.78056 3.21252 2.2797 3.41535 2.26309 3.18222 2.01744 1.99922 2.15038 1.99497 3.50179 3.03706 2.43259 2.48855 2.34849 2.37498
threshold=12.350000000000003 67.950000000000017 2.0500000000000003 5.5500000000000007 11.873030303030305 0.78174603174603186 24.450000000000003 185.50000000000003 3.2071428571428577 0.17783830838785772 2.5000000000000004 2.3050000000000006 2.7416666666666676 3.5000000000000004 2.7500000000000004 9.3541666666666696 3.2111111111111117 4.1742424242424248 0.23562458691341706 8.5000000000000018 9.6333333333333346 9.0500000000000025 10.950000000000001 0.09527005433045703 -1.3333333333333333 1.4845238095238098 -4.4999999999999991 3.5000000000000004 1.591666666666667 7.8500000000000005
decision_type=2 2 2 2 2 2 2 2 2 2 2 2 2 2 2 2 2 2 2 2 2 2 2 2 2 2 2 2 2 2
left_child=2 4 -1 7 6 8 -2 13 -6 -10 16 12 21 15 -15 20 -5 -18 -8 -20 -4 -12 -23 24 -19 -25 27 -27 29 -28
right_child=1 -3 3 10 5 -7 18 -9 9 -11 11 -13 -14 14 -16 -17 17 23 19 -21 -22 22 -24 25 -26 26 28 -29 -30 -31
leaf_value=0.030772048214264675 -0.0074035491862764619 -0.034597982342596457 0.010878044193122594 -0.0087999210749224611 -0.048205183506030487 0.043240899966537606 -0.020027248192867882 -0.024160978092658658 -0.0083752105377909881 0.058262023617359895 -0.0061605176182333438 -0.022780983474510189 0.063877676940843425 -0.051954017675200637 0.0056839125096098952 0.038154977055505052 0.0218967888850021 0.023559033928583929 -0.055393135914860447 0.033798407581582125 -0.02234613786688041 0.023312135695453276 -0.017861057503407298 0.048776963826442102 -0.0032087971164284803 -0.030822535006232523 0.018619716677496519 0.048497736318075392 0.05058592168765888 -0.0073670268623528216
leaf_weight=49.618666378315538 143.13684214535169 80.005640827177558 423.53672978631221 26.773773870198056 2.8065045729745242 6.2297230651311102 129.88707114598947 6.4913137571420512 11.404656499456904 2.9207508055842473 50.428640015888959 20.083373002009466 1.5243975669145573 4.3678782070055631 20.397342815063894 10.780909206718205 31.30900353693869 13.946336444467304 1.3110458504525002 4.2158728290814906 4.6189481150358906 13.276415804168211 4.1664148853160432 5.0360580584965637 98.596072592074051 6.2714434824883929 23.706860082224011 1.173913152888417 3.7275824360549441 13.975130226463078
leaf_count=918 5337 10137 4749 561 62 84 8658 100 408 41 837 455 8 43 256 113 489 158 56 61 55 221 131 53 2146 163 328 17 22 371
internal_value=0.000564859 -0.016104 0.0081999 0.00677168 -0.0112032 0.0089353 -0.0128922 0.00988435 -0.00353934 0.00521119 0.0021106 -0.00486957 0.000314046 0.0103609 -0.00448177 0.0111984 0.00489249 0.00674641 -0.0186939 0.0126412 0.0105196 -0.0011136 0.0134775 0.00389636 0.000108292 0.0118071 0.00799619 -0.0183161 0.0127271 0.00898201
internal_weight=1215.73 381.918 833.807 784.189 301.912 23.3616 278.551 470.193 17.1319 14.3254 313.995 89.4792 69.3959 463.702 24.7652 438.937 224.516 197.742 135.414 5.52692 428.156 67.8715 17.4428 166.433 112.542 53.891 48.8549 7.44536 41.4096 37.682
internal_count=37038 24844 12194 11276 14707 595 14112 5316 511 449 5960 1652 1197 5216 299 4917 4308 3747 8775 117 4804 1189 352 3258 2304 954 901 180 721 699
is_linear=0
shrinkage=0.05


Tree=27
num_leaves=31
num_cat=0
split_feature=11 11 11 26 11 11 18 12 7 11 1 13 22 19 18 12 12 4 22 7 22 12 14 1 15 11 15 2 2 22
split_gain=56.2549 13.0049 9.555 3.98426 3.65123 3.63301 3.42906 2.71574 2.36419 5.63713 2.94559 3.35841 3.09307 2.23979 2.23109 2.17172 2.45831 3.07981 2.0792 3.03409 2.06907 2.06224 1.94699 1.93517 2.36833 3.48414 2.72199 2.51671 3.34314 2.3132
threshold=12.350000000000003 67.950000000000017 2.0500000000000003 8.3261363636363654 28.150000000000002 5.5500000000000007 0.23562458691341706 185.50000000000003 3.5000000000000004 2.7500000000000004 9.8333333333333339 9.6333333333333346 -50.720779220779228 0.33124926732054244 0.15823221180364042 139.50000000000003 112.50000000000001 3.4880952380952386 -37.94444444444445 2.5000000000000004 36.12916666666667 49.500000000000007 20.500000000000004 2.8333333333333335 0.61250000000000016 9.0500000000000025 0.11805555555555557 0.16108108108108113 0.095454545454545472 38.211111111111116
decision_type=2 2 2 2 2 2 2 2 2 2 2 2 2 2 2 2 2 2 2 2 2 2 2 2 2 2 2 2 2 2
left_child=2 3 -1 4 20 7 -6 8 10 -10 11 12 -4 -11 -15 16 17 21 19 -14 22 -5 -2 -7 26 -26 27 28 29 -25
right_child=1 -3 5 15 6 23 -8 -9 9 13 -12 -13 18 14 -16 -17 -18 -19 -20 -21 -22 -23 -24 24 25 -27 -28 -29 -30 -31
leaf_value=0.029578608182655331 -0.0069480702407029278 -0.033748021096617363 0.051762443019709073 0.052922413703228026 -0.02194914612225814 -0.0093456383747599538 0.020659096876933691 -0.023261843871670729 -0.053520871772142903 0.017559097033538865 0.038712673929664196 -0.030296598107026115 0.01045446529818396 -0.045428825970401876 0.015379375784731326 -0.039106588994736582 0.051100572860033638 -0.0068787704262808329 0.010528644059640064 -0.048947593335102235 -0.028844046747894592 0.0014715740831425454 0.059115169350655861 0.0043304386945189561 0.001006653705378936 0.073449301507855128 -0.019985175275645348 0.016696433084946422 -0.04512816463269731 -0.015041832037702535
leaf_weight=47.530807182192802 148.17544268554775 77.699696702271467 4.4831593483686438 4.4977934250055212 101.03674856636644 32.07034042943269 4.9535276928218073 6.3308099161367855 4.8705383031629053 13.897201342042537 9.099960078019647 5.1176514420658341 5.2386117230635119 3.4360035238787523 2.6889311675913632 2.4457277793044332 3.2256993012852027 17.605288113976712 409.48672583838925 3.6455867802724242 11.080932127078993 3.4349274157721084 1.1237370900344092 204.11011506686918 3.7681165151298037 2.9663869249634445 12.399866458494214 33.893344322219491 3.6887531531974664 16.668004709063098
leaf_count=918 5865 10137 41 67 7140 584 97 100 43 176 99 61 72 39 41 232 41 664 4596 48 511 62 28 4313 54 21 166 408 38 376
internal_value=0.000517916 -0.0155327 0.00781561 -0.0107765 -0.0127569 0.0064858 -0.0199578 0.00926403 0.00970977 -0.00527837 0.0105634 0.00996485 0.0104521 0.00645699 -0.0187332 0.00612562 0.00997163 0.00477665 0.0100095 -0.0139209 -0.00799801 0.0306438 -0.00645083 0.00228301 0.00362695 0.0329159 0.00289846 0.00399675 0.00207916 0.0028679
internal_weight=1200.67 375.28 825.391 297.58 266.37 777.86 105.99 468.295 461.964 24.8927 437.072 427.972 422.854 20.0221 6.12493 31.2094 28.7637 25.538 418.371 8.8842 160.38 7.93272 149.299 309.565 277.495 6.7345 270.76 258.36 224.467 220.778
