tree
version=v4
num_class=1
num_tree_per_iteration=1
label_index=0
max_feature_idx=27
objective=lambdarank
feature_names=avg_position_all avg_position_recent3 win_rate place_rate avg_position_on_turf avg_position_on_dirt avg_position_at_distance running_style_encoded race_distance race_surface_encoded num_horses odds rotation_days avg_position_condition weight_change jockey_match_win_rate avg_position_trend odds_rank jockey_win_rate_all jockey_place_rate_all age sex_encoded weight_diff_vs_avg distance_aptitude speed_index comeback_flag odds_divergence rest_flag
feature_infos=[1:18] [1:18] [0:1] [0:1] [1:18] [1:18] [1:18] [0:4] [1200:3930] none [1:18] [1:999.89999999999998] [1:1953] [1:18] [-39:42] [0:1] [-5.7575757575757578:8.2916666666666661] [1:18] [0:1] [0:1] none [0:1] [-112.46153846153845:122.83333333333331] [0:1930] [-1933.2080679405522:581.10971786833875] [0:1] [0.94999999999999996:207.59999999999999] [0:1]
tree_sizes=3456 3440 3416 3440 3438 3413 3441 3426 3441 3441 3436 3410 3400 3404 3441 3442 3451 3461 3437 3437 3430 3436 3454 3430 3454 3425 3439 3461 3443 3453 3429 3484 3429 3435 3446 3438 3439 3451 3436 3451 3439 3424 3427 3406 3421 3448 3430 3474 3452 3417 3433 3433 3411 3454 3456 3468 3461 3451 3454 3454 3447 3450 3452 3422 3412 3447 3469 3442 3449 3436 3426 3447 3461 3439 3443 3443 3444 3458 3430 3434 3435 3448 3451 3446 3409 3441 3481 3463 3457 3467 3445 3439 3421 3461 3423 3448 3422 3460 3438 3467 3467 3444 3423 3428 3416 3454 3458 3439 3455 3433 3463 3422 3415 3455 3438 3439 3442 3465 3456 3461 3427 3458 3422 3456 3457 3426 3458 3441 3439 3454 3433 3457 3471 3437 3487 3422 3424 3441 3447 3445 3432 3435 3450 3442 3453 3451 3455 3440 3456 3439 3462 3431 3437 3441 3442 3464 3489 3446 3450 3434 3438 3451 3448 3455 3468 3463 3444 3434 3441 3439 3431 3468 3443 3452 3458 3451 3438 3453 3451 3436 3460 3476 3459 3439 3455 3472 3464 3452 3445 3445 3443 3463 3466 3460 3433 3462 3457 3456 3445 3454 3445 3458 3465 3450 3462 3456 3444 3462 3461 3434 3474 3431 3461 3467 3458 3482 3449 3437 3461 3455 3456 3484 3455 3456 3456 3437 3443 3445 3469 3452 3449 3450 3447 3458 3451 3432 3456 3456 3470 3466 3460 3464 3479 3462 3460 3471 3444 3453 3473 3471 3484 3460 3443 3443 3446 3468 3510 3472 3453 3435 3465 3456 3469 3472 3466 3456 3474 3449 3463 3457 3470 3456 3475 3457 3455 3487 3434 3445 3447 3450 3471 3483 3462 3424 3460 3451 3465 3459 3458 3471 3457 3479 3468 3471 3463 3477 3467 3449 3462 3447 3489 3461 3460 3456 3446 3474 3469 3467 3483 3470 3471 3477 3476 3485 3454 3465 3455 3455 3475 3446 3466 3454 3460 3470 3472 3464 3473 3484 3498 3481 3450 3456 3450 3468 3466 3473 3456 3466 3472 3458 3449 3459 3475 3468 3475 3460 3462 3467 3470 3493 3465 3460 3456 3460 3460 3477 3466 3470 3470 3479 3490 3478 3485 3467 3482 3483 3479 3441 3485 3482 3457 3462 3452 3447 3446 3493 3445 3476 3499 3473 3471 3469 3482 3440 3486 3453 3433 3441 3478 3475 3469 3434 3483 3490 3481 3470 3469 3480 3503 3477 3468 3464 3436 3471 3480 3470 3462 3491 3474 3481 3487 3500 3476 3486 3479 3479 3479 3481 3463 3480 3481 3460 3472 3478 3471 3480 3483 3473 3487 3473 3495 3467 3483 3458 3467 3488 3484 3469 3470 3485 3439 3470 3469 3492 3498 3506 3470 3510 3489 3497 3473 3506 3470 3470 3476 3449 3450 3469 3463 3468 3455 3468 3504 3483 3494 3477 3446 3473 3478 3481 3489 3476 3488 3500 3495 3487 3457 3465 3460 3465 3477 3462 3444 3441 3474 3463 3453 3493 3468 3467 3483 3474 3490 3484 3486 3471 3456 3499 3486 3469

Tree=0
num_leaves=31
num_cat=0
split_feature=17 26 17 26 26 26 17 10 26 26 26 17 17 12 26 13 16 17 3 26 26 26 16 26 10 17 13 24 12 10
split_gain=728.254 101.273 98.9694 29.7999 18.8164 13.7284 13.2512 7.63539 6.26058 5.89594 5.33168 4.21647 4.18329 4.15894 4.06811 4.06307 3.64646 3.4492 3.97438 3.46927 3.33848 3.33003 3.22515 3.18155 3.17376 2.9007 2.96146 2.79804 2.74268 2.73219
threshold=5.5000000000000009 4.2550505050505061 2.5000000000000004 2.4522727272727276 11.925833333333335 3.0585714285714292 1.5000000000000002 11.500000000000002 3.9160256410256413 1.8527777777777781 2.6958333333333337 4.5000000000000009 3.5000000000000004 85.500000000000014 2.276388888888889 1.6904761904761907 2.2060606060606065 7.5000000000000009 0.3905180840664712 5.6292857142857153 1.4062500000000002 2.1683333333333334 -2.0208333333333326 1.7535714285714288 13.500000000000002 12.500000000000002 4.6904761904761916 -39.208067940552063 119.50000000000001 14.500000000000002
decision_type=2 2 2 2 2 2 2 2 2 2 2 2 2 2 2 2 2 2 2 2 2 2 2 2 2 2 2 2 2 2
left_child=2 5 6 7 17 9 10 12 11 28 -1 24 -4 -11 -8 -10 22 18 -3 -19 -14 -15 -12 -9 -5 26 -7 -13 -2 -25
right_child=1 4 3 8 -6 25 14 23 15 13 16 27 20 21 -16 -17 -18 19 -20 -21 -22 -23 -24 29 -26 -27 -28 -29 -30 -31
leaf_value=0.081180593161432724 0.02476466904204697 -0.051869327744082108 0.030422197214248943 -0.0020874806834569664 -0.088853301212449234 -0.0071277149513198261 0.057046324762520306 0.047644588796995686 0.059168146776497926 -0.0037297293626173487 -0.036896739801648336 -0.04379763596413614 0.045745750150579766 0.0026852651712165245 0.035665126231099763 -0.034388441664255157 -0.029281861266965709 -0.050714989381787201 -0.0010893287298027971 -0.068181339068838692 -0.0075470553290438239 -0.041292041429024921 0.064551794065175458 0.016346225900417302 0.02976444267946703 -0.076565975310003087 -0.037482812773953669 -0.0038539001724600072 -0.076481770968022583 0.038076898197469816
leaf_weight=90.659710354928393 16.89540455990937 27.929222733786446 20.209432946634479 15.454416549066083 80.925055669620633 9.550269403960554 71.475809816503897 48.040669619105756 1.2275348317489285 52.07344057993032 0.79622562788426776 5.9268488406669375 3.4067265121266272 5.8591715221991789 32.300375194929074 21.251475245066104 1.0960383285419073 40.38234348212427 4.4699111216323208 96.051652549234859 21.389372866833583 16.223746394851332 48.74001799384132 22.001737668761052 15.832707151188513 4.0138276931611463 50.639531400454871 16.845097971498035 0.69646386348176648 42.223341617383994
leaf_count=1297 487 1178 491 415 4636 355 1432 1147 34 1869 23 246 69 231 906 956 30 2060 143 4735 605 834 1013 697 518 433 2205 523 28 1284
internal_value=-2.09563e-06 -0.0492906 0.0417556 0.0184843 -0.0690304 -0.017677 0.0639578 0.0309369 -0.00710345 -0.00526719 0.073922 0.00211786 0.0135368 -0.0114407 0.0503914 -0.0292795 0.0609252 -0.059529 -0.0448635 -0.0630116 -0.000225177 -0.0296237 0.0629212 0.0379123 0.014031 -0.0354109 -0.0326664 -0.01425 0.0207563 0.0306326
internal_weight=884.588 405.71 478.878 233.809 249.758 155.952 245.068 157.271 76.5381 91.7482 141.292 54.0591 45.0055 74.1564 103.776 22.479 50.6323 168.833 32.3991 136.434 24.7961 22.0829 49.5362 112.266 31.2871 64.2036 60.1898 22.7719 17.5919 64.2251
internal_count=30880 19194 11686 6985 12752 6442 4701 4293 2692 3449 2363 1702 1165 2934 2338 990 1066 8116 1321 6795 674 1065 1036 3128 933 2993 2560 769 515 1981
is_linear=0
shrinkage=0.05


Tree=1
num_leaves=31
num_cat=0
split_feature=11 11 11 11 17 11 11 11 11 3 24 11 1 24 17 24 16 11 18 11 17 18 0 16 1 12 11 7 24 18
split_gain=1452.14 279.7 184.961 54.1407 56.3217 34.0402 12.399 12.1115 13.7584 19.8092 10.4206 10.0449 9.89881 6.85594 6.76309 6.14324 6.55506 6.10287 10.7504 6.09146 6.0723 5.96852 6.16542 5.49783 5.80643 5.43394 5.47508 6.61377 5.3642 5.09358
threshold=7.5500000000000007 50.050000000000004 2.6500000000000008 14.050000000000002 3.5000000000000004 3.6500000000000008 1.4500000000000002 24.250000000000004 49.95000000000001 0.36602870813397131 -23.88967748967168 124.85000000000001 2.5833333333333335 195.0277685400732 1.5000000000000002 -39.208067940552063 -0.71130952380952317 4.8500000000000005 0.14915106916923723 2.4500000000000006 12.500000000000002 0.1717926542525878 3.6754385964912282 -0.75595238095238082 4.166666666666667 34.500000000000007 5.7500000000000009 3.5000000000000004 -31.897064142753702 0.085793680948230269
decision_type=2 2 2 2 2 2 2 2 2 2 2 2 2 2 2 2 2 2 2 2 2 2 2 2 2 2 2 2 2 2
left_child=2 3 6 29 21 12 -1 15 -9 13 25 -3 14 -10 -4 -6 -17 23 -19 -8 -11 22 -5 24 -12 26 -7 -28 -14 -2
right_child=1 11 5 4 7 10 19 8 9 20 17 -13 28 -15 -16 16 -18 18 -20 -21 -22 -23 -24 -25 -26 -27 27 -29 -30 -31
leaf_value=0.082667385963303905 -0.0043404694684727628 -0.067412842874901679 0.0046517562274643902 0.047369394995427805 -0.043992916593149842 0.0061456379908462876 0.061774659531449776 -0.050259727297544014 -0.05885689703953359 0.026604028042824704 -0.027139800775455095 -0.083898328072951847 0.028539070709621556 0.02366575151800801 0.039198210961854794 0.006880619351663373 -0.027793761257350141 0.019473868811665938 -0.010946613302557537 0.044748961639029382 -0.069620546848118817 0.064239260852745339 -0.002005035092052234 0.029510866533132785 0.0411890184110748 0.013714218689419189 -0.032904647565995447 0.031775211354296028 0.044598639484553643 -0.016705282140424854
leaf_weight=64.237333821132779 242.21252659149468 207.92376729659736 36.997486477717757 9.9018694421392883 54.884208000730723 51.317356573417783 309.14390977099538 221.86768986843526 22.034587414105776 17.824123804268314 8.9265949428081495 166.31240061298013 70.653969759121537 2.8414262223523101 22.958060888573527 14.932186288759111 156.30805917223915 217.74595847446471 33.512153817340732 63.290867652744055 1.8056251763482567 8.3008864792645891 17.491430669411784 181.35631257109344 4.7708326913416377 110.4879851276055 22.533943314105276 4.7929668743163338 196.91043061204255 126.93956179078668
leaf_count=161 2469 4997 141 107 952 374 980 4331 1062 270 48 5195 309 173 121 142 2402 1570 278 241 58 72 303 1013 22 805 226 40 726 1292
internal_value=0.00025018 -0.038427 0.0353887 -0.0232831 -0.0335505 0.0231489 0.0623804 -0.037946 -0.0451703 -0.0197987 0.0163999 -0.0747391 0.0362431 -0.0494309 0.0178802 -0.0294358 -0.0247701 0.020568 0.0154165 0.0588813 0.0177529 0.0270973 0.0158424 0.0272039 -0.00334078 0.00656398 -0.00348145 -0.0215602 0.0403579 -0.00859233
internal_weight=2671.22 1271.58 1399.64 897.344 528.192 962.964 436.672 492.498 266.373 44.5058 635.444 374.236 327.52 24.876 59.9555 226.124 171.24 446.312 251.258 372.435 19.6297 35.6942 27.3933 195.054 13.6974 189.132 78.6443 27.3269 267.564 369.152
internal_count=30880 23825 7055 13633 9872 5673 1382 9390 5894 1563 4376 10192 1297 1235 262 3496 2544 2931 1848 1221 328 482 410 1083 70 1445 640 266 1035 3761
is_linear=0
shrinkage=0.05


Tree=2
num_leaves=31
num_cat=0
split_feature=17 26 17 26 26 17 26 26 17 10 26 10 26 1 26 10 26 10 22 26 12 12 24 3 10 22 17 7 1 10
split_gain=1009.46 170.834 164.159 49.9851 34.8148 29.4025 20.4895 14.7913 13.5703 11.1589 7.79773 7.7933 8.5568 7.28887 7.25916 6.60205 6.4692 6.99085 6.46588 5.81626 5.79459 7.08303 5.64959 5.5968 5.42859 5.10549 5.01198 4.42465 4.16959 4.09186
threshold=4.5000000000000009 3.3348484848484854 1.5000000000000002 2.4954545454545456 10.625833333333334 2.5000000000000004 1.8881944444444445 2.204545454545455 6.5000000000000009 14.500000000000002 1.4937500000000001 11.500000000000002 8.3322916666666682 2.5833333333333335 1.8881944444444445 13.500000000000002 1.4535714285714287 9.5000000000000018 16.690476190476208 1.2100000000000002 112.50000000000001 98.500000000000014 461.82721602972407 0.46989966555183954 8.5000000000000018 -37.36931818181818 3.5000000000000004 3.5000000000000004 7.416666666666667 10.500000000000002
decision_type=2 2 2 2 2 2 2 2 2 2 2 2 2 2 2 2 2 2 2 2 2 2 2 2 2 2 2 2 2 2
left_child=2 6 3 10 8 14 -2 16 11 22 -1 -3 -13 -5 15 19 25 18 -18 -4 21 24 -9 -10 -15 -7 -11 -26 -17 -16
right_child=1 4 5 13 -6 7 -8 9 23 26 -12 12 -14 20 29 28 17 -19 -20 -21 -22 -23 -24 -25 27 -27 -28 -29 -30 -31
leaf_value=0.079513607874239736 0.0042872133021433596 -0.047240053466942405 0.059422508244869734 0.014794163195945363 -0.077379924002351955 0.08511295042058814 -0.021521204783980459 -0.02177847762462241 -0.056859466731108171 0.0187554329367427 0.057880714588629159 -0.028814827817551149 0.025335875877093308 -0.013732141620862864 0.0014485922898168483 0.050849893613266577 -0.0014990956255221946 0.010436732905597068 -0.054610863267481824 0.018792126938023124 0.066642919452747681 -0.026929269249743849 0.049307285015061902 -0.034944044985948365 0.038182328809502154 0.022503158765005121 -0.0082371748842971024 0.0055526841866527302 0.014938664985174186 0.020454926511361368
leaf_weight=50.093686431646347 108.06350188143551 41.593648876354564 9.9108960814774019 49.528786069597118 160.67099466826767 3.4820254407823077 266.70697562627902 87.475800307205645 279.50222850736463 39.759458590124268 247.31294426694512 32.644973755348474 9.3947880232008156 5.5213860673829904 33.515212104655802 48.94536311365664 22.091194046661261 232.28758100885898 7.7375198677182189 79.159121073782444 14.386354208108967 4.6849815850146106 2.8873179126530877 32.522478684739326 200.28041385521647 50.175762464292347 30.305290014832281 10.957925606518982 9.6819200422614795 182.6193749877275
leaf_count=161 1153 585 33 277 5329 10 4762 1030 8090 428 940 666 229 52 220 234 188 2090 69 424 39 18 20 726 832 351 453 44 91 1336
internal_value=0.000302134 -0.0401736 0.02679 0.0471806 -0.0577519 0.0126441 -0.0140795 0.00446761 -0.0497812 -0.00789544 0.0615245 -0.0318954 -0.0167136 0.0322313 0.023346 0.0318895 0.0107486 0.00751061 -0.0152762 0.0233131 0.0358934 0.0338958 -0.0195071 -0.0545752 0.0352104 0.0265661 0.00708025 0.0364897 0.0449194 0.0175077
internal_weight=2353.9 931.1 1422.8 582.766 556.329 840.034 374.77 476.202 395.658 160.428 297.407 83.6334 42.0398 285.36 363.832 147.697 315.774 262.116 29.8287 89.07 235.831 221.445 90.3631 312.025 216.76 53.6578 70.0647 211.238 58.6273 216.135
internal_count=30880 21540 9340 2363 15625 6977 5915 4639 10296 1931 1101 1480 895 1262 2338 782 2708 2347 257 457 985 946 1050 8816 928 361 881 876 325 1556
is_linear=0
shrinkage=0.05


Tree=3
num_leaves=31
num_cat=0
split_feature=11 11 11 11 26 11 11 2 18 10 4 10 11 24 22 10 19 11 18 24 4 19 18 10 26 15 26 18 26 10
split_gain=843.501 172.531 102.724 42.2209 33.6262 22.5385 12.9012 8.29749 8.26301 8.20867 7.82405 8.53232 7.52883 7.40772 7.57696 7.03398 6.49302 6.20818 5.94546 5.18547 4.45503 4.15468 5.98474 4.81401 4.61161 3.91101 5.08959 3.77202 7.44482 4.57202
threshold=12.850000000000003 3.6500000000000008 50.050000000000004 2.4500000000000006 8.3322916666666682 7.5500000000000007 24.250000000000004 0.30384615384615393 0.23562458691341706 10.500000000000002 4.0238095238095246 9.5000000000000018 124.85000000000001 -35.320691895403577 -39.861904761904746 10.500000000000002 0.22771002710027102 1.4500000000000002 0.29671764581795174 -39.208067940552063 3.5192307692307696 0.21061161818647106 0.063510737628384703 7.5000000000000009 1.9950000000000001 1.0000000180025095e-35 3.604166666666667 0.29671764581795174 2.8950000000000005 8.5000000000000018
decision_type=2 2 2 2 2 2 2 2 2 2 2 2 2 2 2 2 2 2 2 2 2 2 2 2 2 2 2 2 2 2
left_child=1 3 4 17 6 13 19 16 25 -7 11 -5 -4 18 -15 -16 20 -1 -3 -2 -6 -19 24 -24 -23 -8 -27 29 -29 -12
right_child=2 5 12 10 7 9 8 -9 -10 -11 27 -13 -14 14 15 -17 -18 21 -20 -21 -22 22 23 -25 -26 26 -28 28 -30 -31
leaf_value=0.075655303449685102 -0.036883182025513613 0.0057209845473460844 -0.058085270353919284 -0.014826951453551921 0.061669169812756323 -0.022544515674450608 -0.044662968064884491 0.049397350214968605 0.023577576287971413 0.0002781347952547455 0.01489225992582361 0.026625858353005395 -0.074057515406711835 -0.020112076613033901 0.0025833250513599094 0.021101748566023926 0.019071567673817433 0.068312963157256781 -0.062213098999664963 -0.019196491106015193 -0.039851862195816573 0.04916307020265271 0.021028634625378014 0.055808085259464658 -0.021138632772351819 0.030852177355939561 -0.039783739210808453 0.038992709854841816 -0.05277893590238586 0.042862593301605537
leaf_weight=43.103505602106452 55.053874107077718 145.94919300917536 167.42366686789319 13.761490272358058 1.2096930520783669 48.806498488411307 177.58465870570217 12.423336613865102 4.7974185141938497 204.39225930115208 16.177492808550596 126.74304101616144 131.90812370693311 13.19519675336778 60.103929795324802 349.20930547872558 18.420004860046902 46.373806867748499 3.293372716754674 167.60543771507218 10.128858693526125 4.4822851680219156 10.604322038590906 161.1238880623132 4.864166472107172 4.0228947806172055 6.9661575242062099 6.6450181622058135 3.3110888171941042 150.79359598271549
leaf_count=161 1133 1243 4997 84 21 535 5168 165 100 2667 75 605 5195 119 481 2504 331 198 29 2961 345 25 43 690 24 58 149 42 22 710
internal_value=0.000225348 0.0230486 -0.0423435 0.043744 -0.027462 0.00829799 -0.031775 0.0150758 -0.0412232 -0.00412115 0.0313745 0.0225658 -0.0651238 0.0137978 0.0171803 0.0183825 0.000747525 0.0582568 0.00422187 -0.0235696 -0.0290207 0.0549596 0.0515398 0.0536604 0.012576 -0.0428717 -0.0139252 0.0383699 0.00847234 0.0401526
internal_weight=2170.48 1412.93 757.544 587.984 458.212 824.95 416.03 42.1819 193.371 253.199 317.432 140.505 299.332 571.751 422.508 409.313 29.7586 270.552 149.243 222.659 11.3386 227.448 181.075 171.728 9.34645 188.574 10.9891 176.927 9.95611 166.971
internal_count=30880 10257 20623 2679 10431 7578 9569 862 5475 3202 1538 689 10192 4376 3104 2985 697 1141 1272 4094 366 980 782 733 49 5375 207 849 64 785
is_linear=0
shrinkage=0.05


Tree=4
num_leaves=31
num_cat=0
split_feature=11 11 11 11 26 11 11 18 2 1 10 11 24 26 19 18 26 11 24 22 24 11 0 12 12 16 22 14 24 22
split_gain=674.962 140.592 86.3539 34.7788 25.4927 19.0388 12.3821 10.1572 7.00397 6.52788 5.9097 5.73832 5.6178 5.31191 4.76211 9.10378 4.99293 4.75543 4.4638 4.44258 4.67591 4.92441 4.3178 5.40883 5.34912 4.31264 4.37326 5.90015 6.54977 4.9443
threshold=12.850000000000003 3.6500000000000008 56.250000000000007 2.4500000000000006 8.3322916666666682 7.5500000000000007 26.550000000000004 0.23562458691341706 0.30384615384615393 2.5833333333333335 10.500000000000002 1.4500000000000002 -59.889677489671733 2.6958333333333337 0.21061161818647106 0.063510737628384703 2.0954545454545461 124.85000000000001 -37.891377624970481 -15.585714285714287 -79.903993855606771 5.7500000000000009 4.4083333333333341 48.500000000000007 70.500000000000014 1.6666666666666676 -21.13392857142858 6.5000000000000009 467.53594220349186 13.861904761904755
decision_type=2 2 2 2 2 2 2 2 2 2 2 2 2 2 2 2 2 2 2 2 2 2 2 2 2 2 2 2 2 2
left_child=1 3 4 11 6 12 -2 18 22 13 -7 -1 19 -5 -13 16 -16 -4 -8 20 21 -3 24 -24 -6 26 -14 28 -28 -29
right_child=2 5 17 9 8 10 7 -9 -10 -11 -12 14 25 -15 15 -17 -18 -19 -20 -21 -22 -23 23 -25 -26 -27 27 29 -30 -31
leaf_value=0.072251419028369429 -0.022561243610693088 0.041187388259658342 -0.056338620466853839 0.028110708843033495 0.046338667207330562 -0.020429853188425207 -0.053748804115094875 0.030548236628319011 0.042646819447198531 0.032542814136364923 -0.00041604371100068227 0.066248944627823866 0.0021934673514391258 -0.0031451205096341196 0.03121063755600096 0.050329329549981761 -0.039799640746183348 -0.07010524246326609 -0.036572240884801079 -0.0032226830288327154 -0.038570105189179756 -0.008349385434991554 -0.050431524235512129 0.0034588695929317912 -0.038147875029629498 0.054569531089821224 0.017210265221688659 0.015401646714307214 0.051138055085472957 -0.019836080387733851
leaf_weight=38.003512756898999 231.36773524736054 17.658805312588818 131.20024384907447 28.980249581858516 7.3610217174864392 45.578711590729654 55.930190517668962 4.9445822476409367 12.122064683731876 248.97110656742007 193.36874399706721 41.683353397995234 61.675278563983738 25.602468353696167 5.9218494854867441 157.02619202807546 4.2534803859889507 120.20094766956754 116.8426480958442 83.00702020060271 3.0438414271920911 7.0079098399728528 7.1677474635362186 13.287459271974511 2.5130844219820574 6.8318981872871509 321.8874225798063 20.592025836929679 14.882805693894623 19.270629307255149
leaf_count=161 4681 116 4278 162 77 535 1973 99 165 1235 2667 198 518 141 30 733 19 5195 3510 751 31 79 147 425 73 30 2488 151 62 150
internal_value=0.000272617 0.0210209 -0.0394344 0.0404442 -0.026358 0.00756931 -0.0301851 -0.0401105 0.0105221 0.0291097 -0.00423363 0.0543802 0.0126431 0.0134499 0.0511288 0.0473594 0.001527 -0.0629208 -0.0421327 0.0025642 0.0198988 0.0271138 -0.00231755 -0.015425 0.0248358 0.0151499 0.0145355 0.0165566 0.0187096 -0.00163317
internal_weight=2048.19 1345.25 702.938 550.442 451.537 794.805 409.085 177.717 42.4514 303.554 238.947 246.888 555.858 54.5827 208.885 167.202 10.1753 251.401 172.773 110.718 27.7106 24.6667 30.3293 20.4552 9.87411 445.14 438.308 376.633 336.77 39.8627
internal_count=30880 10257 20623 2679 11150 7578 10263 5582 887 1538 3202 1141 4376 303 980 782 49 9473 5483 977 226 195 722 572 150 3399 3369 2851 2550 301
is_linear=0
shrinkage=0.05


Tree=5
num_leaves=31
num_cat=0
split_feature=11 11 11 11 26 11 10 10 22 12 26 12 24 0 11 12 1 0 19 18 18 11 11 3 13 14 24 13 18 18
split_gain=565.435 120.145 75.6838 32.8261 14.5562 10.4619 6.58704 5.79569 5.9537 7.25455 5.86575 6.77846 6.10493 8.31233 5.66379 5.53897 5.38307 5.80952 5.36711 5.2147 5.28814 5.11602 5.07144 4.89227 4.79036 7.31702 5.67063 4.74503 4.66901 4.66187
threshold=11.15 2.4500000000000006 50.050000000000004 4.8500000000000005 11.719537815126051 14.050000000000002 15.500000000000002 11.500000000000002 1.6961538461538341 90.500000000000014 3.6866071428571434 28.500000000000004 365.34585055127485 6.1742424242424248 1.4500000000000002 133.50000000000003 5.8333333333333348 8.9444444444444464 0.60632348041315642 0.055110075526273512 0.037763273365511198 77.450000000000017 26.550000000000004 0.59175084175084181 2.2678571428571432 -8.4999999999999982 176.89201302224635 3.5147058823529416 0.060117935947983682 0.14915106916923723
decision_type=2 2 2 2 2 2 2 2 2 2 2 2 2 2 2 2 2 2 2 2 2 2 2 2 2 2 2 2 2 2
left_child=1 14 4 7 5 -2 -5 8 9 19 11 24 13 28 -1 16 -6 -18 22 20 -3 -4 -7 -20 26 -26 -9 -27 -12 -8
right_child=2 3 21 6 15 18 29 10 -10 -11 12 -13 -14 -15 -16 -17 17 -19 23 -21 -22 -23 -24 -25 25 27 -28 -29 -30 -31
leaf_value=0.070366194865058282 -0.010552782994036993 0.027872463449774877 -0.04709356379929347 -0.001881355809861337 0.037246074555652146 -0.02564763930611166 0.012372812420075603 -0.031953340373255285 0.0027589402932015708 -0.026364851899703102 0.045325436758905879 0.032113602944548854 0.038858799645728387 -0.048445222527699762 0.048490440016461273 -0.047335061982531929 -0.050243886039938374 0.026781004860015525 -0.025331263967699854 0.038239140279293288 -0.034695018614966079 -0.062771126923909987 -0.038002008667277321 0.076125644870195172 -0.047994953106561308 0.036964314536127411 0.020495164171769265 0.015954187385457414 -0.00592713315892349 -0.01743081136476789
leaf_weight=34.747772693634033 81.812715405598283 8.5264548547565919 72.697050100192428 302.78408352797851 15.201869722775887 184.33173132361844 171.10401434684172 9.855044583790006 76.942577287554741 6.5212889537215224 6.6425951533019605 196.46692488901317 10.123041825368999 8.3029649816453439 199.27383987233043 3.6482492268551132 4.7168724198709224 5.0894386186555494 2.5369006753026033 41.784534487873316 5.591943096369504 183.10766482492909 151.20759226154769 2.2349785296537448 3.6639428101479998 42.825742627494037 10.802537718787788 72.144010304473341 13.42285745218396 14.210571832954882
leaf_count=166 1383 59 2476 3183 195 4044 1754 78 489 34 28 1165 45 59 999 169 111 102 56 254 37 7757 5069 12 20 241 83 436 62 206
internal_value=-0.0009164 0.0194831 -0.0365928 0.0119476 -0.0242657 -0.0266067 0.00266276 0.0207711 0.0120674 0.0235407 0.0240123 0.0261317 0.0055246 -0.00637045 0.0517386 0.0102185 0.0186146 -0.0102683 -0.0304662 0.0293624 0.00309105 -0.0583157 -0.031215 0.0221875 0.0176944 0.0215636 -0.00452627 0.0237804 0.0110398 0.0100874
internal_weight=1942.32 1235.74 706.585 1001.72 450.78 422.124 488.099 513.616 139.367 62.4242 374.25 335.758 38.4915 28.3684 234.022 28.6564 25.0082 9.80631 340.311 55.9029 14.1184 255.805 335.539 4.77188 139.291 118.634 20.6576 114.97 20.0655 185.315
internal_count=30772 9398 21374 8233 11141 10564 5143 3090 873 384 2217 2023 194 149 1165 577 408 213 9181 350 96 10233 9113 68 858 697 161 677 90 1960
is_linear=0
shrinkage=0.05


Tree=6
num_leaves=31
num_cat=0
split_feature=11 11 11 11 26 11 18 11 24 11 10 16 16 18 24 14 16 10 16 11 17 18 11 12 24 10 24 12 26 13
split_gain=489.861 101.731 67.1312 31.1149 13.691 8.49465 7.5832 7.7934 5.28674 5.04781 4.97087 6.14112 4.83769 4.67377 4.84861 4.63552 4.34195 4.7462 5.62389 4.3902 4.28104 4.23213 4.17255 4.02533 3.99583 5.7802 3.80856 6.01042 5.05355 4.79262
threshold=11.15 2.4500000000000006 50.050000000000004 4.2500000000000009 16.576363636363642 14.050000000000002 0.047387455531786651 4.9500000000000011 394.31049485804698 1.4500000000000002 14.500000000000002 0.56349206349206382 -0.41666666666666735 0.21294035577258461 -56.897064142753699 -1.4999999999999998 1.8333333333333337 16.500000000000004 -0.59999999999999976 7.3500000000000005 2.5000000000000004 0.07369469490459217 179.45000000000002 119.50000000000001 -37.891377624970481 10.500000000000002 -28.172783970275997 13.500000000000002 3.6866071428571434 11.29166666666667
decision_type=2 2 2 2 2 2 2 2 2 2 2 2 2 2 2 2 2 2 2 2 2 2 2 2 2 2 2 2 2 2
left_child=1 9 4 8 5 -2 7 -5 20 -1 -9 -12 -10 14 -7 -15 17 19 -19 -8 26 -22 -4 -6 -21 -26 27 -3 29 -28
right_child=2 3 22 6 23 13 16 10 12 -11 11 -13 -14 15 -16 -17 -18 18 -20 24 21 -23 -24 -25 25 -27 28 -29 -30 -31
leaf_value=0.067652346123262375 -0.010455159330150269 -0.047531663697362267 -0.052118194400954145 0.038477243473125991 0.021402212449493349 -0.04071254929235972 0.0020458247444848717 -0.002276093527215159 0.0030150499696314174 0.046045516715184157 0.021064221614396396 -0.060126148295279347 0.04320009307117189 -0.063304558668415972 -0.02637562303942257 0.024778244065437473 0.043699878637783685 -0.033622067791815965 0.02423526849691689 -0.023227034581485104 0.0036714076627271442 0.052379636864065229 -0.066784965398710081 -0.046932370891940578 -0.032827035296853026 0.0023061672120867887 0.025417208457681154 0.012902657462731525 -0.0047414964934382542 -0.025535502346887312
leaf_weight=31.56011897791177 77.591075805015862 4.2993752546608439 170.69385851314291 26.298238119110465 20.634207098511983 77.692065831288346 260.61237306054682 57.122595903463662 8.9494616575539094 188.35495244525373 61.752764194272459 2.4203344713896504 45.907706927508116 1.8841872364282606 244.74466321124055 7.2068406420294178 5.7780381357297292 4.8086534570902577 33.188317182706669 36.765115804970264 5.9270929628983167 18.011697143316269 67.735087483306415 2.4063897503947365 14.022499279119073 70.89869780279696 198.23187618516386 95.482920288108289 16.25657064653933 4.7250798530876628
leaf_count=166 1385 33 6706 190 316 2594 2312 703 35 999 656 26 219 43 6534 147 34 34 327 524 46 99 3527 122 182 918 1163 603 101 28
internal_value=-0.000802936 0.0184379 -0.0349865 0.0114863 -0.0232358 -0.0253478 0.00403487 0.0138022 0.0222322 0.0491463 0.00845234 0.0180021 0.0366443 -0.0288333 -0.0298301 0.00652239 0.000651437 5.96264e-05 0.0169132 -0.00161547 0.0199268 0.0403198 -0.0562849 0.0142653 -0.00945675 -0.00349516 0.0183964 0.0102987 0.0220824 0.024231
internal_weight=1861.96 1191.37 670.588 971.459 432.159 409.119 573.668 147.594 397.792 219.915 121.296 64.1731 54.8572 331.528 322.437 9.09103 426.074 420.296 37.997 382.299 342.935 23.9388 238.429 23.0406 121.686 84.9212 318.996 99.7823 219.214 202.957
internal_count=30772 9398 21374 8233 11141 10703 5906 1575 2327 1165 1385 682 254 9318 9128 190 4331 4297 361 3936 2073 145 10233 438 1624 1100 1928 636 1292 1191
is_linear=0
shrinkage=0.05


Tree=7
num_leaves=31
num_cat=0
split_feature=17 17 26 26 26 26 26 18 26 2 18 0 17 19 19 19 17 1 1 17 26 6 2 16 12 19 3 12 18 25
split_gain=405.365 69.6817 66.3093 28.3392 17.1496 14.7126 9.90431 8.1697 5.91085 9.10135 5.59331 5.36187 5.27882 4.89419 5.22735 4.87159 4.71838 5.2349 4.58833 4.33119 4.07678 3.88967 3.88901 3.88044 3.86684 3.79095 3.98538 3.70483 4.22129 3.6988
threshold=4.5000000000000009 1.5000000000000002 3.3041666666666676 2.4954545454545456 8.3348484848484876 2.204545454545455 1.8354166666666669 0.29671764581795174 1.3535714285714289 0.23669467787114848 0.15039122195733237 3.3541666666666674 3.5000000000000004 0.39566781357522679 0.2408071976821024 0.42868081382629625 3.5000000000000004 9.1666666666666696 3.1666666666666674 10.500000000000002 1.4937500000000001 3.0526315789473686 0.324561403508772 -0.51190476190476197 126.50000000000001 0.097172262190247813 0.65686274509803932 112.50000000000001 0.17713815789473689 1.0000000180025095e-35
decision_type=2 2 2 2 2 2 2 2 2 2 2 2 2 2 2 2 2 2 2 2 2 2 2 2 2 2 2 2 2 2
left_child=1 3 6 20 7 8 23 19 9 10 -3 13 15 14 -5 24 -10 -18 25 -4 -1 -16 -9 -2 -7 -14 -27 28 29 -13
right_child=2 5 4 11 -6 12 -8 22 16 -11 -12 27 18 -15 21 -17 17 -19 -20 -21 -22 -23 -24 -25 -26 26 -28 -29 -30 -31
leaf_value=0.065229352552117467 0.032350496481141904 0.04532097548999256 -0.033871216482360175 0.021082729365509895 -0.057776747001101275 0.005903231605808492 -0.01843157657437049 -0.022610771366755024 0.014302558941595983 -0.032942960110043759 0.004384955493969841 0.03078827045126567 0.088105559245817644 0.036274400725552734 -0.0040451398146900443 -0.034369417979213959 -0.001138032872769599 0.039138615600841017 -0.020395674913653253 -0.049911431878283896 0.044847813404424862 -0.061347815721538072 0.078473015602329332 -0.0015353882462642212 -0.033037123666792179 -0.059484393975278708 0.023978446165290161 0.057824782137763042 0.0023778896135126393 -0.0026683372343928946
leaf_weight=28.78883402608335 9.726931347511707 36.517613471485674 184.07169554648863 23.530190111778211 152.24039221156272 156.10243455335149 204.20787317193754 1.6556644906813738 316.16633517295122 5.3313240101560941 10.815953616052864 111.23808761459077 1.5882816527155208 14.145888543454928 27.927330439968504 8.5677504933846631 98.409303948748857 8.7879803832620365 52.486572210895247 54.558969366873498 166.03904392011464 3.3127280732151112 2.2372931307181716 64.284291369374841 6.6466981253179247 1.9037091862410305 5.751461464795284 9.1164192617870849 18.060746871167794 8.92382199608255
leaf_count=166 78 205 5802 148 7127 1613 4745 47 2534 29 66 625 9 73 181 95 1101 67 947 2753 957 20 10 892 153 28 76 34 127 64
internal_value=-0.000776715 0.01765 -0.0314474 0.0340284 -0.0446233 0.00815473 -0.0127522 -0.0363664 0.0131941 0.0289911 0.0359669 0.0215677 -0.0021388 0.0100559 0.0032843 0.00237836 0.011229 0.00216383 -0.0146751 -0.0375385 0.0478595 -0.0101216 0.0354824 0.00291807 0.0043129 0.0178079 0.00322267 0.0269522 0.0249161 0.0283036
internal_weight=1793.14 1120.16 672.983 411.083 394.764 709.075 278.219 242.524 476.029 52.6649 47.3336 216.255 233.047 68.9161 54.7702 171.317 423.364 107.197 61.73 238.631 194.828 31.2401 3.89296 74.0112 162.749 9.24345 7.65517 147.339 138.223 120.162
internal_count=30772 9318 21454 2395 15739 6923 5715 8612 4002 300 271 1272 2921 422 349 1861 3702 1168 1060 8555 1123 201 57 970 1766 113 104 850 816 689
is_linear=0
shrinkage=0.05


Tree=8
num_leaves=31
num_cat=0
split_feature=11 11 11 11 26 1 11 18 2 12 18 11 2 11 21 12 24 10 18 26 11 7 12 26 0 24 1 13 18 3
split_gain=378.327 83.3785 49.6786 27.2842 10.5855 5.13003 5.05349 5.24618 4.31246 4.97415 4.25739 5.90661 5.42139 4.03568 3.94481 4.02726 3.89525 3.74569 5.8034 5.55226 3.71069 3.63164 3.53105 3.39226 4.91119 8.45926 4.15006 3.88286 3.54603 3.38142
threshold=12.850000000000003 2.4500000000000006 50.050000000000004 4.8500000000000005 11.719537815126051 3.8333333333333335 7.7500000000000009 0.14915106916923723 0.37980769230769235 135.00000000000003 0.21294035577258461 26.550000000000004 0.324561403508772 124.85000000000001 1.0000000180025095e-35 62.500000000000007 168.80859760867136 11.500000000000002 0.11579771023803642 1.3535714285714289 1.4500000000000002 1.5000000000000002 26.500000000000004 3.6866071428571434 4.9333333333333345 365.34585055127485 3.5833333333333335 11.450000000000001 0.11014791237595957 0.10555555555555557
decision_type=2 2 2 2 2 2 2 2 2 2 2 2 2 2 2 2 2 2 2 2 2 2 2 2 2 2 2 2 2 2
left_child=1 20 4 17 10 -6 7 8 9 21 11 -2 -12 -4 15 -9 -7 18 19 -3 -1 -5 -19 27 26 -26 -25 28 -24 -23
right_child=2 3 13 6 5 16 -8 14 -10 -11 12 -13 -14 -15 -16 -17 -18 22 -20 -21 -22 29 23 24 25 -27 -28 -29 -30 -31
leaf_value=0.06323886678497885 -0.020269894282926193 0.033452620007023391 -0.046782809847994385 0.0012553298724517162 0.032247475196828516 0.00023836280340821427 -0.0047144229794036053 -0.023697387025388442 -0.016080123721227035 -0.03475637100880892 -0.022732677658431334 -0.033946687557476964 0.055160096480550105 -0.060632799698781992 -0.037449533299930039 0.017245096028608933 -0.064318697647182815 0.013811597226397838 0.025354746249055655 -0.0025653753976421037 0.043142801096868223 0.025165649108473548 0.033324619466462695 -0.00012757034158675975 -0.045752498439356651 0.052705495915314163 0.058018569593301997 -0.019891943377733909 0.020060887865550495 0.010036304680627797
leaf_weight=26.671071154996753 191.73625749023631 12.682745295576749 119.12162080500275 68.240401577670127 11.767207289842192 13.101726956228957 193.08861462096684 10.942065815906973 17.175463650375605 6.0949738724157205 5.5912510861235187 134.19243802243727 3.7201790534891188 94.181167379021645 10.888161828741429 13.314956431277094 2.8437899909040416 111.15512678772211 45.638239638879895 68.429858779534698 165.56015383359045 54.550724308937788 117.43744269013405 6.3260049726814049 7.7763095423579198 3.0322474390268326 5.9596691932529211 4.3894745483994475 88.263363346457481 114.34476207336411
leaf_count=166 4568 73 5028 863 169 319 3001 140 170 69 154 4989 29 5205 140 134 89 738 303 497 999 518 750 33 63 18 20 35 560 932
internal_value=-0.000671637 0.0158744 -0.0337479 0.0098541 -0.0224935 0.00720524 0.00157643 0.00568634 0.00813361 0.00984344 -0.0249486 -0.0259009 0.00838768 -0.0528981 -0.0124466 -0.00122359 -0.011275 0.0184401 0.0110916 0.00306639 0.045931 0.0109898 0.0211451 0.0246409 0.00645161 -0.018131 0.0280786 0.0266404 0.0276333 0.0149229
internal_weight=1728.22 1151.96 576.256 959.731 362.953 27.7127 488.64 295.552 260.406 243.231 335.24 325.929 9.31143 213.303 35.1452 24.257 15.9455 471.09 126.751 81.1126 192.231 237.136 344.34 233.185 23.0942 10.8086 12.2857 210.09 205.701 168.895
internal_count=30772 10222 20550 9057 10317 577 5967 2966 2552 2382 9740 9557 183 10233 414 274 408 3090 873 570 1165 2313 2217 1479 134 81 53 1345 1310 1450
is_linear=0
shrinkage=0.05


Tree=9
num_leaves=31
num_cat=0
split_feature=17 26 17 26 17 26 26 18 26 24 24 22 24 10 16 12 10 17 0 22 24 24 16 16 26 0 24 22 18 2
split_gain=316.179 53.8229 51.4947 22.6449 14.5775 12.1834 8.18785 6.42122 6.24006 5.94445 5.10946 5.00585 7.63302 5.76459 6.73951 4.95803 4.9064 4.85393 4.36107 4.34257 4.25429 4.23514 4.04586 4.49227 3.98148 3.97712 3.89403 3.79863 3.85712 3.68563
threshold=4.5000000000000009 3.3041666666666676 1.5000000000000002 2.4954545454545456 10.500000000000002 2.204545454545455 1.8881944444444445 0.29671764581795174 1.3535714285714289 -15.243346947375185 -147.84371898514897 10.055555555555545 -99.191402391328708 12.500000000000002 0.49999999999999983 125.50000000000001 12.500000000000002 3.5000000000000004 1.8090909090909093 -37.36931818181818 -165.01041666666663 467.53594220349186 1.4677083333333336 0.93333333333333346 1.4062500000000002 1.8090909090909093 147.96639501980761 -37.36931818181818 0.12526150627615065 0.23669467787114848
decision_type=2 2 2 2 2 2 2 2 2 2 2 2 2 2 2 2 2 2 2 2 2 2 2 2 2 2 2 2 2 2
left_child=2 6 3 26 7 8 -2 16 29 10 24 19 20 -14 -15 25 -3 21 -19 -5 -13 27 23 -11 -10 -12 -1 -7 -29 -4
right_child=1 4 5 11 -6 17 -8 -9 9 22 15 12 13 14 -16 -17 -18 18 -20 -21 -22 -23 -24 -25 -26 -27 -28 28 -30 -31
leaf_value=0.038193481559349901 0.0018371283850602219 -0.041918592870065607 0.032960502546829466 -0.021900228457233301 -0.053935019616958881 -0.035567515714281746 -0.017276378224386248 0.028927547610448318 -0.054960821988079882 0.014999624750216668 -0.075039658693142108 -0.0061924994730088107 -0.0091539638018187219 0.028579692239799344 -0.03930266898864819 -0.076438985304895055 -0.02705028120729764 0.056378048567449872 -0.016918289146216865 0.028241005750455156 -0.074396187834518152 0.04795277895112128 0.059355832432830907 -0.038357410835874906 0.019226375384149327 -0.0010474118122819382 0.053503778666538687 0.0068070847158597783 -0.013608397584505764 -0.018542678882110197
leaf_weight=100.87923185992986 80.355215799063444 110.22647705377312 47.107366227544844 4.4863062258809796 137.59351497895841 6.6985962055623522 185.09984946745681 4.0719086948083705 1.8877095561474551 250.73895777296275 1.853301997296511 6.3446218371391296 17.410559754818678 51.906765554100275 3.9334886446595183 2.3265212271362534 111.72572217433481 2.1069263846729873 55.154777228905004 115.20047035205062 3.5745411440730077 5.0141353420913211 5.0498929610475889 4.0078333467245093 43.118264390155673 90.432366739958525 70.593739485368133 121.40013780580193 28.582950983487535 3.7501654196530572
leaf_count=686 1138 3291 271 37 7973 86 4577 53 15 2272 23 42 99 297 13 23 4422 26 1034 762 22 34 23 33 418 895 437 1396 345 29
internal_value=-0.000608557 -0.0286077 0.0162697 0.0311206 -0.0411038 0.00796294 -0.0114906 -0.0332927 0.0126674 0.010567 0.00224634 0.019814 0.0103918 0.0159658 0.0237979 -0.00435069 -0.0344342 -0.00171146 -0.0142214 0.0263615 -0.0307709 0.0027187 0.0150387 0.0141602 0.0161147 -0.00253334 0.0444966 0.00127111 0.00291641 0.0291627
internal_weight=1672.63 629.073 1043.56 374.33 363.618 669.23 265.455 226.024 450.272 399.415 139.618 202.857 83.17 73.2508 55.8403 94.6122 221.952 218.958 57.2617 119.687 9.91916 161.696 259.797 254.747 45.006 92.2857 171.473 156.682 149.983 50.8575
internal_count=30772 21454 9318 2395 15739 6923 5715 7766 4002 3702 1374 1272 473 409 310 941 7713 2921 1060 799 64 1861 2328 2305 433 918 1123 1827 1741 300
is_linear=0
shrinkage=0.05


Tree=10
num_leaves=31
num_cat=0
split_feature=11 11 11 11 26 11 3 10 18 12 16 18 18 10 16 16 14 19 19 11 11 18 3 14 18 18 12 16 26 18
split_gain=310.487 57.3999 47.9403 15.8707 8.32945 9.02193 9.0058 4.78631 5.62304 4.65216 4.17687 7.26341 3.81948 3.79363 4.44428 3.74641 5.25398 3.5312 3.40004 3.38545 3.24724 3.3407 3.3684 3.16782 3.15594 4.0036 3.03864 2.90234 2.81882 2.789
threshold=11.15 2.4500000000000006 64.250000000000014 5.1500000000000012 8.3322916666666682 24.250000000000004 0.36602870813397131 14.500000000000002 0.04913649855846388 133.50000000000003 1.341666666666667 0.11127844712182063 0.21294035577258461 9.5000000000000018 -0.26428571428571374 0.33333333333333331 1.5000000000000002 0.19153415453527436 0.22771002710027102 3.6500000000000008 7.3500000000000005 0.04298975134408603 0.80909090909090919 13.500000000000002 0.075500199509775989 0.18047096403156854 20.500000000000004 -0.91666666666666674 2.434848484848485 0.11890001890001892
decision_type=2 2 2 2 2 2 2 2 2 2 2 2 2 2 2 2 2 2 2 2 2 2 2 2 2 2 2 2 2 2
left_child=1 23 4 13 5 -2 18 10 -9 -8 20 -12 -7 14 -3 -15 28 27 -6 -18 21 -5 29 -1 -22 -26 -16 -10 -17 -23
right_child=2 3 -4 7 6 12 9 8 17 -11 11 -13 -14 15 26 16 19 -19 -20 -21 24 22 -24 -25 25 -27 -28 -29 -30 -31
leaf_value=0.044399658883810644 -0.015535928267584057 -0.044932792596226123 -0.052552344707988946 -0.016226288767476827 -0.046979275977242406 -0.03225435736717925 0.034478031388598389 0.022144987580020342 -0.061448171065688222 -0.052146980053045314 -0.013123667992942931 0.079996629865240323 0.010133404910506669 0.017455851700658942 -0.018174123226229334 0.031143087716218393 0.029931163350427621 0.0073882411253102208 -0.001091874433096558 -0.019872715699015442 -0.0010644048615611086 0.015222806486892679 -0.022275180664779418 -0.00034148378975388947 -0.027082811965155669 0.018716815101887906 0.013958106610552337 -0.0076036543511418019 0.064885333236811421 -0.0056557940691840478
leaf_weight=162.80425882525742 212.5226101053413 4.0432432331144801 158.97764019446913 19.660859391093254 8.1727305359672773 167.66701627714792 17.068229656957559 59.908026210963726 2.8784975074231651 1.704715926607604 4.230797703843562 4.1463420735672116 5.488472785727935 395.99324390757829 8.6184612046927196 12.702184235677125 8.2465745471417886 104.41048561967909 7.9768591852189266 5.8205123338848344 41.816005902830511 60.448281356133521 9.1547633167356235 4.0548044331371775 34.357732392381877 5.5411893539130679 50.292851538397372 19.168978858273476 12.072088420391081 21.750376031734049
leaf_count=1129 4941 31 8771 274 401 6669 247 697 20 80 34 18 123 2865 72 60 28 1259 234 38 654 541 128 26 506 68 359 277 34 233
internal_value=0.000224249 0.0164123 -0.0291623 0.011342 -0.0203214 -0.0224387 0.00306176 0.00375392 0.00952663 0.0266119 -0.00159567 0.0329671 -0.0309108 0.0172485 0.00577696 0.0189094 0.0337281 0.00354882 -0.0243138 0.00932391 -0.00309797 0.00247022 0.00649404 0.0433124 -0.0106627 -0.0207221 0.00925731 -0.0146335 0.0475851 0.00969817
internal_weight=1631.7 1052.12 579.578 885.261 420.601 385.678 34.9225 387.472 186.366 18.7729 201.106 8.37714 173.155 497.789 62.9546 434.835 38.8414 126.458 16.1496 14.0671 192.729 111.014 91.3534 166.859 81.7149 39.8989 58.9113 22.0475 24.7743 82.1987
internal_count=30817 9351 21466 8196 12695 11733 962 4709 2253 327 2456 52 6792 3487 462 3025 160 1556 635 66 2404 1176 902 1155 1228 574 431 297 94 774
is_linear=0
shrinkage=0.05


Tree=11
num_leaves=31
num_cat=0
split_feature=11 11 11 11 26 11 1 24 14 11 2 15 0 24 2 11 12 12 24 14 18 26 0 12 22 22 26 26 26 12
split_gain=273.555 53.5193 38.3331 18.0737 8.2626 5.52069 5.15227 5.05436 4.96654 4.27099 6.01834 3.79656 4.27858 4.17913 3.8104 3.67065 4.22008 4.09725 3.50517 3.35127 4.27535 3.9533 3.89934 3.28983 3.18641 4.4568 5.06626 3.47442 3.73131 3.39166
threshold=12.850000000000003 2.4500000000000006 64.250000000000014 7.5500000000000007 9.9966666666666679 27.950000000000003 5.8333333333333348 365.34585055127485 -2.4999999999999996 3.6500000000000008 0.27922077922077926 0.45000000000000007 5.0500000000000007 467.53594220349186 0.13714733542319751 3.0500000000000003 41.500000000000007 43.500000000000007 415.11032251032833 -7.4999999999999991 0.065664103723805226 1.7354166666666668 6.3095238095238102 26.500000000000004 -39.861904761904746 -35.422619047619058 2.0954545454545461 1.935416666666667 1.7535714285714288 34.500000000000007
decision_type=2 2 2 2 2 2 2 2 2 2 2 2 2 2 2 2 2 2 2 2 2 2 2 2 2 2 2 2 2 2
left_child=1 -1 4 7 5 -2 -6 9 19 10 -3 12 18 14 -14 17 -17 -12 -10 20 -9 -22 -21 -13 27 26 -26 28 -11 -27
right_child=2 3 -4 -5 6 -7 -8 8 11 24 15 23 13 -15 -16 16 -18 -19 -20 22 21 -23 -24 -25 25 29 -28 -29 -30 -31
leaf_value=0.041673165338366923 -0.01727324842650697 0.020713002527071714 -0.050711353190948119 -0.0035550963749136862 0.023313140725837095 -0.030129894548648974 -0.021429583970355257 0.048812667091295087 0.043739503605173896 -0.030006019426411259 -0.035122350454022441 0.023979750919994186 0.0085656474934502104 0.046053982014674588 -0.049071697795832245 0.011008067193960209 -0.051104094227123746 0.035459549589841051 0.01322862611573335 0.061139628109434421 0.030129108870183621 -0.068003185325000409 0.01535740245285536 -0.039676717522424923 0.065886879466360182 0.0026852484231406205 -0.011712426718610496 -0.045576752511085658 0.045169023563033872 0.012551338552897957
leaf_weight=157.98500863276422 191.28152212779969 179.12727151252329 150.87378280167468 190.37601840635762 16.473555775781282 148.18375316548918 10.557836051739285 4.0136659741401655 25.016723811626434 3.2595520475879294 2.9026848096400517 3.3323847516439837 39.254799298942089 7.0022578760981551 3.0934660136699668 4.5120407510548812 6.9423372251912951 7.0498175844550133 15.092048474587498 17.726884277537469 1.8745813425630329 2.267993152141571 6.3051584772765628 5.192059276625514 6.9772283248603326 144.33696349477395 3.0110671445727348 5.5613179178908467 3.3441222310066223 219.69959858106449
leaf_count=1155 4965 1164 8771 3158 322 6149 418 33 149 40 25 17 333 36 16 29 46 37 121 92 17 27 50 38 39 1400 31 82 31 2026
internal_value=0.000329148 0.0148161 -0.0294992 0.0101394 -0.0207669 -0.0228854 0.00583767 0.0137761 0.0226893 0.0117986 0.0177186 0.0170916 0.0201297 0.0102719 0.00435534 -0.00733777 -0.0266372 0.0148741 0.0322589 0.0397291 0.0120357 -0.0235967 0.049128 -0.0147921 0.00872453 0.00954361 0.0424938 -0.0164589 0.00806287 0.00863953
internal_weight=1582.63 1065.26 517.37 907.272 366.497 339.465 27.0314 716.896 130.172 586.724 200.534 97.9837 89.4593 49.3505 42.3483 21.4069 11.4544 9.9525 40.1088 32.1883 8.15624 4.14257 24.032 8.52444 386.19 374.025 9.9883 12.165 6.60367 364.037
internal_count=30817 10192 20625 9037 11854 11114 740 5879 929 4950 1301 710 655 385 349 137 75 62 270 219 77 44 142 55 3649 3496 70 153 71 3426
is_linear=0
shrinkage=0.05


Tree=12
num_leaves=31
num_cat=0
split_feature=11 11 11 11 15 24 11 17 11 7 22 11 16 10 0 19 3 19 3 19 10 22 26 24 24 22 11 22 22 24
split_gain=244.631 44.6853 39.2139 12.0343 7.66508 5.74701 5.12205 4.74054 4.63637 4.32935 6.14561 4.20421 3.78071 3.64737 3.63276 3.56056 5.1634 4.11125 3.9129 3.53859 3.44691 4.63584 3.44337 3.30637 4.38457 3.28624 3.25181 3.20348 3.67451 4.84224
threshold=11.15 2.4500000000000006 56.250000000000007 7.5500000000000007 0.13392857142857145 365.34585055127485 24.250000000000004 1.5000000000000002 49.95000000000001 2.5000000000000004 -24.881944444444454 4.0500000000000007 -0.71130952380952317 14.500000000000002 4.1742424242424248 0.50233644859813087 0.49000000000000005 0.42868081382629625 0.65686274509803932 0.089647914274779958 11.500000000000002 6.3693181818181879 17.371282051282055 176.89201302224635 268.79263157894735 -39.861904761904746 16.650000000000002 14.759615384615389 18.045454545454536 72.50090909090909
decision_type=2 2 2 2 2 2 2 2 2 2 2 2 2 2 2 2 2 2 2 2 2 2 2 2 2 2 2 2 2 2
left_child=1 -1 4 5 6 11 -2 14 23 12 -11 15 13 -7 -8 17 -17 19 -18 20 -3 -22 -4 -6 -25 -13 -26 -21 29 -29
right_child=2 3 22 -5 8 9 7 -9 -10 10 -12 25 -14 -15 -16 16 18 -19 -20 27 21 -23 -24 24 26 -27 -28 28 -30 -31
leaf_value=0.040044135704506406 -0.014648171017086065 -0.054115445663157603 -0.04352313374407233 -0.0026196249804933984 -0.031212849987682503 -0.050818623721697903 0.059877733009839729 -0.028257398595980993 0.027552003380134756 -0.022372388453686165 0.042218980093245123 -0.022243332452840128 0.019849388047349686 0.01457720778959562 -0.029033368026932571 -0.02170537894289663 0.054442174684395384 0.04969297323660965 -0.0038334685145650889 0.021893878596084465 -0.042724923442122892 0.067268090191682575 -0.060948711629718072 0.053543116508319277 0.021703920444536822 0.008107092940705881 -0.055447075481482672 0.013187579955189245 0.012827061937026846 -0.067256900798897623
leaf_weight=150.67638980736956 190.48648058343679 3.4545858576893798 122.65762928104959 144.92479387624189 9.6570795222651231 3.9021662808954698 2.7408269045990883 156.14683704172785 13.543187434261197 4.0789338462054721 37.901114183478057 9.1827580528333765 77.606926202308387 4.7005784921348095 1.9779251431173177 14.431855237577112 5.357519179582594 9.6576513387262803 6.2300948798656464 143.02662554569542 1.834090316668153 2.0053025064989924 36.871865508262999 3.6140554570592922 2.6917136600241065 310.35186846228316 2.772621113806963 4.04203145392239 66.348530828021467 3.4822357445955276
leaf_count=1155 4703 31 6941 2317 234 28 49 6509 214 31 228 136 617 25 46 124 27 43 50 944 21 20 2607 46 39 3036 78 36 455 27
internal_value=0.000309957 0.0149433 -0.0267172 0.0105069 -0.0180538 0.0131954 -0.020196 -0.0267653 0.0052639 0.0227753 0.035943 0.0110759 0.0163632 -0.015086 0.0226095 0.0157987 -0.00174703 0.0177509 0.0231102 0.0163749 -0.0178798 0.0147241 -0.0475507 -0.0108473 0.0108163 0.00723489 -0.0174427 0.0175269 0.00907177 -0.0240422
internal_weight=1546.36 1003.2 543.16 852.52 383.631 707.595 351.352 160.866 32.2787 128.19 41.98 579.405 86.2097 8.60274 4.71875 259.871 26.0195 233.851 11.5876 224.193 7.29398 3.83939 159.529 18.7355 9.07839 319.535 5.46433 216.899 73.8728 7.52427
internal_count=30817 9351 21466 8196 11918 5879 11307 6604 611 929 259 4950 670 53 95 1778 201 1577 77 1534 72 41 9548 397 163 3172 117 1462 518 63
is_linear=0
shrinkage=0.05


Tree=13
num_leaves=31
num_cat=0
split_feature=11 11 11 11 26 24 11 18 24 11 0 18 0 12 10 11 18 11 11 24 26 11 24 26 22 18 18 2 11 22
split_gain=219.589 40.1272 36.622 10.2162 6.3038 6.19764 5.92213 4.61311 3.24165 3.65024 4.22014 3.33105 3.19108 3.4633 3.17752 5.19174 3.13081 3.82563 3.33671 3.24199 3.05848 2.81144 2.71046 3.56873 3.93377 6.18564 5.47542 4.33092 5.2434 3.39721
threshold=11.15 2.4500000000000006 56.250000000000007 7.5500000000000007 8.3322916666666682 390.11032251032833 26.550000000000004 0.21294035577258461 387.95082496389335 3.0500000000000003 4.0238095238095246 0.3069477911646587 5.6833333333333345 133.50000000000003 12.500000000000002 5.8500000000000005 0.079763340499536831 10.65 10.850000000000003 363.70749947335167 17.371282051282055 1.4500000000000002 -35.320691895403577 1.4937500000000001 -13.483333333333318 0.038518603058662414 0.10313369333987892 0.16108108108108113 6.2500000000000009 -32.32051282051281
decision_type=2 2 2 2 2 2 2 2 2 2 2 2 2 2 2 2 2 2 2 2 2 2 2 2 2 2 2 2 2 2
left_child=1 21 4 5 6 8 -2 -8 9 10 -3 22 13 -6 15 -7 17 -5 -19 -20 -4 -1 29 24 -24 -26 27 28 -27 -11
right_child=2 3 20 16 12 14 7 -9 -10 11 -12 -13 -14 -15 -16 -17 -18 18 19 -21 -22 -23 23 -25 25 26 -28 -29 -30 -31
leaf_value=0.056368470357296446 -0.014334108460686782 0.0080649674846806248 -0.042756085928441129 -0.00046637526954546065 0.02431374776893671 0.019098104058462965 -0.029809974047132794 0.018413942640540054 -0.040540573843973679 0.031222034328503342 0.029074295140665188 -0.021685381599562209 -0.015751816294220688 -0.047567342105192853 0.030893873362895938 -0.042575416250707265 -0.011606695613660682 0.059134787376248138 -0.018691650144434496 0.060261568642083513 -0.05973718057088824 0.035800682614382365 0.050079971137100103 0.010192080897579047 -0.043741220221194158 0.002966639423297909 -0.0098077665693526439 0.073624131668689322 0.065314643782646883 0.0022497390291422899
leaf_weight=19.158966440707445 215.41475050034933 42.941916764713824 117.13830081338529 75.063013701001182 16.82803745238926 27.074615458026532 123.86598535711528 5.165998716998728 3.0817167498171321 10.87291540764272 53.910022485069931 8.6042956127785128 12.160115539329125 1.8610365106433153 62.789989225566387 3.9044668274000278 54.901446245610714 5.3979219859465939 4.2843369552865624 1.8667128244414923 34.275130094960332 125.1143437679857 11.815671102609484 291.20901641901582 3.7774746911600223 10.21705914009363 8.4730728268623334 6.0218918099999419 5.0334553625434628 145.73880016198382
leaf_count=164 5493 289 6941 1238 275 162 5417 115 24 105 333 105 503 115 488 56 920 63 79 17 2607 991 77 2617 51 84 78 23 21 1366
internal_value=0.000199407 0.0141784 -0.0258433 0.00998046 -0.0174689 0.0124723 -0.0194082 -0.0278793 0.010609 0.0108723 0.0197592 0.00915692 0.00418436 0.0171559 0.0244288 0.011325 -0.00226563 0.00365547 0.0304455 0.00526897 -0.0466001 0.038532 0.00969503 0.0122237 0.0252725 0.0165287 0.0241826 0.0377214 0.0235447 0.00426117
internal_weight=1507.96 981.253 526.709 836.98 375.296 695.466 344.447 129.032 601.697 598.616 96.8519 501.764 30.8492 18.6891 93.7691 30.9791 141.513 86.612 11.549 6.15105 151.413 144.273 493.159 336.548 45.3386 33.523 29.7455 21.2724 15.2505 156.612
internal_count=30817 9351 21466 8196 11918 5879 11025 5532 5173 5149 622 4527 893 390 706 218 2317 1397 159 96 9548 1155 4422 2951 334 257 206 128 105 1471
is_linear=0
shrinkage=0.05


Tree=14
num_leaves=31
num_cat=0
split_feature=11 11 11 11 26 24 3 11 14 12 1 13 18 18 24 24 22 18 18 18 26 11 22 16 12 21 12 22 26 0
split_gain=196.558 37.9992 30.0494 11.5802 6.03027 5.57802 5.11573 4.40485 3.36942 3.63829 3.45182 3.08025 3.10544 2.84572 2.74065 2.73094 4.49237 4.52594 4.9567 6.05142 5.53889 5.13064 4.69676 4.98602 3.91709 5.05747 6.62764 4.8712 4.21919 4.52748
threshold=12.850000000000003 2.4500000000000006 64.250000000000014 7.5500000000000007 8.3322916666666682 390.11032251032833 0.36602870813397131 27.950000000000003 -2.4999999999999996 71.500000000000014 2.8333333333333335 2.2678571428571432 0.065664103723805226 0.23562458691341706 -53.885712894429282 -13.861203090507727 53.029411764705891 0.040574838798189058 0.048102632661456195 0.05549851699749031 1.8045454545454547 4.5500000000000007 -32.32051282051281 0.46666666666666662 62.500000000000007 1.0000000180025095e-35 111.50000000000001 -12.866071428571415 2.5958333333333337 8.9444444444444464
decision_type=2 2 2 2 2 2 2 2 2 2 2 2 2 2 2 2 2 2 2 2 2 2 2 2 2 2 2 2 2 2
left_child=1 -1 4 5 7 15 -6 14 9 -7 11 12 -10 -9 -2 16 17 -3 20 -20 -19 22 -21 -24 -23 26 27 -26 29 -27
right_child=2 3 -4 -5 6 8 -8 13 10 -11 -12 -13 -14 -15 -16 -17 -18 18 19 21 -22 24 23 -25 25 28 -28 -29 -30 -31
leaf_value=0.037080840500666692 -0.02754787428440535 -0.012195707838004484 -0.046875265786442001 -0.002648203550764654 -0.019578998399185827 0.051795915772304246 0.020494989475818744 -0.029176611660949675 0.043599506007074865 0.0091168205272565608 0.022370325788881741 -0.040224133162264725 -0.026062962423701836 0.011443678115072714 -0.012524034865547094 0.012685461042847849 -0.041573806349519626 0.067460892525248242 -0.028438968967168805 0.055126690280054007 0.0078906472787731129 -0.010518874422300194 0.01061537420395048 0.056978652838558491 -0.022911638213092847 0.035179258612470538 -0.045102473798750244 0.046194566702989784 -0.083586767725330371 -0.040795753657471234
leaf_weight=137.77577500324696 38.58895203715656 27.682676374912262 130.05982763855718 175.78409062954597 14.790254829407784 16.968834049068395 17.254635803285055 125.92156869905011 3.7253855047747475 7.0757312402129164 57.970249966718256 4.4596946127712727 2.8038629358634353 4.4645437049039165 142.26377079682425 359.88882915745489 4.9100432246923438 7.4841519780457011 11.258365301415322 7.4043120057322076 8.1530745625495893 42.39759423956275 86.096089276019484 6.2176903970539561 3.003756025806072 4.0936520360410196 2.9044450633227816 16.880832380615178 1.9379187375307081 3.7637927494943142
leaf_count=1155 1188 319 8771 3158 635 115 327 5837 28 54 443 32 34 92 3775 3056 50 45 127 46 73 467 656 25 38 34 29 137 15 56
internal_value=0.000139014 0.0126969 -0.0264082 0.0088035 -0.0186539 0.0117333 0.00199892 -0.0207803 0.0231195 0.0392365 0.0174998 -0.00819363 0.0136843 -0.0277857 -0.0157297 0.0099508 0.00574831 0.00676173 0.00936492 0.0070914 0.0364016 0.00938112 0.0168113 0.0137381 -0.000500258 0.0125356 0.0254501 0.0357554 -0.0175103 -0.00121351
internal_weight=1473.98 1000.64 473.344 862.865 343.284 687.081 32.0449 311.239 93.0038 24.0446 68.9592 10.9889 6.52925 130.386 180.853 594.077 234.188 229.278 201.596 185.958 15.6372 174.7 99.7181 92.3138 74.982 32.5844 22.789 19.8846 9.79536 7.85744
internal_count=30817 10192 20625 9037 11854 5879 962 10892 706 169 537 94 62 5929 4963 5173 2117 2067 1748 1630 118 1503 727 681 776 309 204 175 105 90
is_linear=0
shrinkage=0.05


Tree=15
num_leaves=31
num_cat=0
split_feature=11 11 11 26 11 11 22 4 24 16 16 11 4 18 26 24 22 18 18 11 12 15 18 13 12 11 26 10 4 24
split_gain=175.311 36.3597 25.2118 11.1564 8.52036 6.92674 6.07852 5.34917 5.19775 5.11658 4.37879 3.57171 3.3795 5.1628 3.08568 3.06165 4.94601 4.72002 3.05038 3.71672 3.01763 2.99811 2.87813 2.83447 2.79971 2.79019 2.73633 2.61141 4.8266 2.53849
threshold=14.050000000000002 3.3500000000000001 50.050000000000004 8.3322916666666682 2.4500000000000006 7.7500000000000009 -37.36931818181818 3.8090909090909095 -45.654149448725214 1.6666666666666665 2.333333333333333 183.00000000000003 2.8944444444444448 0.10313369333987892 1.4937500000000001 363.70749947335167 51.354166666666664 0.11014791237595957 0.12181139347223897 41.050000000000004 27.500000000000004 0.76388888888888895 0.10643223010244289 10.366666666666669 48.500000000000007 1.4500000000000002 1.4937500000000001 8.5000000000000018 2.7638888888888893 101.14583333333331
decision_type=2 2 2 2 2 2 2 2 2 2 2 2 2 2 2 2 2 2 2 2 2 2 2 2 2 2 2 2 2 2
left_child=1 4 3 10 25 9 -6 21 14 15 18 -4 13 20 -7 16 -3 22 19 -2 -8 -5 -17 -14 -9 -1 -10 28 -27 -28
right_child=2 5 11 7 6 8 12 24 26 -11 -12 -13 23 -15 -16 17 -18 -19 -20 -21 -22 -23 -24 -25 -26 27 29 -29 -30 -31
leaf_value=0.054245890524637567 -0.020540129500715733 0.0072086404355082949 -0.037633904495369686 0.049403234233817241 -0.039824482655474211 0.04186973232660153 -0.040673882152053371 -0.03197657434591783 -0.047323838080179544 0.049035708288025018 0.030758003002943086 -0.054920887441131529 0.025041573652537771 0.02746259452386722 -0.019694827532320536 0.020338290946099593 -0.024165065295079554 -0.004046869913745442 -0.0060930768911775096 -0.03830370660665168 0.0035400526602841816 -0.034031364959307794 0.066734609250760898 -0.020055570087833433 0.0089296928046949508 0.05619462706830243 0.012138165350071489 0.035907029704260227 -0.0046477628743620087 -0.0020227280677431775
leaf_weight=17.78255435731262 192.50763963023201 408.85186920082197 111.89275351096876 9.5272647998353932 4.2898218957707277 2.1313954796642056 6.3868889594450655 6.1249597274581928 2.7232766707893452 7.7261342573910943 4.1036660744575775 40.765921071171761 131.39799049310386 14.091854341328142 45.143423167988658 66.106996548827738 12.960357448086141 21.648328084032983 29.211786252388265 34.764576954519725 9.7507967576384527 1.2138843490974984 3.5206117816269389 3.5792015753686419 13.191874294905572 4.6798905674368134 50.701677994569764 101.02490769792348 10.740852735005317 84.208824342582375
leaf_count=161 6121 3967 6758 165 29 27 56 192 61 38 70 3416 861 101 940 572 140 199 838 1981 67 32 16 24 496 30 890 847 86 1653
internal_value=0.000412876 0.0119232 -0.0257973 -0.0171556 0.0263881 0.00569791 0.0189356 0.0116878 -0.00261553 0.00864949 -0.0204826 -0.0422502 0.0204614 0.00535032 -0.0169192 0.00804135 0.00624467 0.0163443 -0.0213024 -0.0232573 -0.0139587 0.0399741 0.0226842 0.0238457 -0.00404082 0.0357987 0.00229753 0.0329816 0.0138167 0.00329918
internal_weight=1452.75 1009.45 443.304 290.646 303.725 705.723 169.497 30.058 184.909 520.814 260.588 152.659 165.207 30.2295 47.2748 513.088 421.812 91.2759 256.484 227.272 16.1377 10.7411 69.6276 134.977 19.3168 134.228 137.634 116.446 15.4207 134.911
internal_count=30834 10765 20069 9895 2262 8503 1138 885 3571 4932 9010 10174 1109 224 967 4894 4107 787 8940 8102 123 197 588 885 688 1124 2604 963 116 2543
is_linear=0
shrinkage=0.05


Tree=16
num_leaves=31
num_cat=0
split_feature=11 11 11 26 11 11 1 24 24 11 22 24 19 16 16 22 26 24 14 25 11 11 21 16 19 22 19 16 19 11
split_gain=157.962 32.7668 23.0708 10.0507 6.97122 6.67124 5.53523 5.08987 4.07963 3.3463 3.1924 3.1855 3.85616 3.30397 3.06781 2.99378 3.17967 2.92357 4.34533 2.98706 2.87919 3.84813 4.32469 3.20935 3.73391 2.87378 3.58279 2.93282 2.85654 3.37225
threshold=14.050000000000002 3.2500000000000004 50.050000000000004 8.3322916666666682 2.4500000000000006 7.5500000000000007 5.8333333333333348 -39.208067940552063 -31.897064142753702 183.00000000000003 -37.36931818181818 -53.885712894429282 0.61116886116886138 1.9761904761904765 1.8333333333333337 -7.6515151515151549 1.5354166666666669 363.70749947335167 -2.4999999999999996 1.0000000180025095e-35 4.1500000000000012 3.9500000000000006 1.0000000180025095e-35 -1.3333333333333333 0.35788177339901484 -28.436507936507947 0.29698646720567262 0.4166666666666668 0.21061161818647106 1.4500000000000002
decision_type=2 2 2 2 2 2 2 2 2 2 2 2 2 2 2 2 2 2 2 2 2 2 2 2 2 2 2 2 2 2
left_child=1 4 3 11 28 14 -5 15 -9 -4 -6 12 -2 -13 17 -7 -17 -3 -19 20 21 22 -20 -22 -25 27 -27 -10 -1 -30
right_child=2 5 9 6 10 7 -8 8 25 -11 -12 13 -14 -15 -16 16 -18 18 19 -21 23 -23 -24 24 -26 26 -28 -29 29 -31
leaf_value=0.049761986155848086 -0.03182623833408587 0.0065098407374028751 -0.036570733397816295 0.029106857467384284 -0.028132728468775348 -0.031853855950902003 -0.014954462173131062 0.041636754181434726 0.010172181208898651 -0.053725522263179462 0.019726204248803052 -0.017776725075295187 0.05289070339005332 0.022933874488763419 0.046194044937138634 0.043673165236300056 -0.01133401151465159 0.034833329940744291 0.036150297644525133 -0.03228710603156644 -0.049506623564265745 0.06470657106493001 -0.019108875854317586 0.015043617219200564 -0.026157125222811401 0.0027338309576233647 -0.018652043567103132 0.063852950142282761 0.053389717987465002 0.027263635588882069
leaf_weight=24.734303435310721 58.700404312388855 427.50234693731181 108.06122741382569 17.369833219199794 3.5708994623273602 18.171724133659154 12.088541232384157 6.4467173435259602 13.099478852003815 38.574901950953063 143.89150214102119 185.13768643695221 1.3746999586583104 5.1216824075527247 5.3835362177342168 2.8601593161001793 32.245985589455813 23.591307510621846 9.3425478450953978 3.9417437640950075 2.5079415179789057 5.3132354794070116 5.7014316879212847 35.765103530604392 6.4982728268951169 91.517914063762873 24.916160113178194 3.1577716097235671 14.321996107697485 89.759863262996078
leaf_count=218 2504 4081 6758 364 28 383 521 90 249 3416 977 6398 15 93 28 35 686 188 56 34 26 25 45 341 68 1767 512 22 132 774
internal_value=0.000439169 0.011358 -0.0250187 -0.0165994 0.0259905 0.00572732 0.0110259 -0.00223808 0.00279407 -0.0410836 0.0185673 -0.0198502 -0.0298877 -0.0166808 0.00864364 -0.0153798 -0.00685248 0.00825501 0.0163065 0.00997857 0.0125366 0.0281271 0.0152079 0.0054477 0.00870873 0.000906921 -0.00184261 0.020599 0.0344883 0.0308587
internal_weight=1420.67 994.242 426.429 279.793 276.279 717.963 29.4584 192.416 139.138 146.636 147.462 250.334 60.0751 190.259 525.547 53.2779 35.1061 520.164 92.6616 69.0703 65.1285 20.3572 15.044 44.7713 42.2634 132.691 116.434 16.2573 128.816 104.082
internal_count=30834 10765 20069 9895 2129 8636 885 3744 2640 10174 1005 9010 2519 6491 4892 1104 721 4864 783 595 561 126 101 435 409 2550 2279 271 1124 906
is_linear=0
shrinkage=0.05


Tree=17
num_leaves=31
num_cat=0
split_feature=11 11 11 11 26 1 24 24 24 12 14 26 19 19 11 24 11 2 18 19 1 2 19 18 24 18 22 0 21 0
split_gain=141.396 28.9809 22.9789 7.69501 6.9494 6.32007 4.90644 3.50847 4.4067 3.54173 5.81103 3.59193 3.40399 3.31953 3.29086 3.60287 3.24262 3.16622 4.75316 3.20327 4.50798 2.95587 3.08131 2.88916 6.29532 5.96241 5.09201 4.83779 4.15408 4.94549
threshold=12.850000000000003 2.4500000000000006 77.450000000000017 6.9500000000000011 8.3322916666666682 4.8333333333333348 -53.885712894429282 -49.885712894429297 -70.84371898514901 37.000000000000007 10.500000000000002 1.7954545454545456 0.61116886116886138 0.16178850180849041 24.250000000000004 85.101382488479246 3.2500000000000004 0.23669467787114848 0.12526150627615065 0.60093734960843515 3.8333333333333335 0.30384615384615393 0.18075692600912127 0.099250673551863497 -111.54032258064517 0.082863968610574962 -7.4365079365079501 1.1250000000000002 1.0000000180025095e-35 5.2111111111111121
decision_type=2 2 2 2 2 2 2 2 2 2 2 2 2 2 2 2 2 2 2 2 2 2 2 2 2 2 2 2 2 2
left_child=1 -1 4 16 6 -6 12 8 -5 -9 21 -12 -2 -13 -8 -16 17 19 -19 -3 -21 22 -11 24 25 28 -27 -25 29 -18
right_child=2 3 -4 7 5 -7 14 9 -10 10 11 13 -14 -15 15 -17 23 18 -20 20 -22 -23 -24 27 -26 26 -28 -29 -30 -31
leaf_value=0.033843972993893655 -0.032376769321869163 0.02240472800251047 -0.044276602388690613 -0.0050826449778335302 0.029867842398934669 -0.013541629381972883 -0.010010363440565185 0.011623594613351223 -0.043769512363629748 0.0094245756018455449 0.076017897861100608 -0.064216889726378235 0.050512312837667196 0.03131062663760667 -0.010926355102250129 -0.029254555439355696 0.016483178890777442 -0.022692604729202318 0.024598782368405969 0.034552041796449814 -0.039196146067318527 -0.035009265851859608 -0.011873967622237828 -0.041950500665853908 0.014420213325651089 0.07697272654539257 -0.0078125552501338239 0.0051021649747883396 -0.050566716876240404 -0.030526296089468635
leaf_weight=122.49306326685473 69.711269561157678 115.4030113723129 100.02937853930052 42.967405045870692 14.193323859042719 20.488579954340821 117.38368336972781 70.756100405938923 8.8825104148127121 26.669880160596222 3.3748572496697289 1.173446458764374 1.2610112471738819 4.0416309987194836 44.420862889106502 67.644768243466388 11.227003518491989 11.391591915860774 9.9576108641922456 3.4894121717661601 5.1017417460680008 8.6687239785678667 46.745835378998891 5.6391380149871102 258.08013712381944 3.4516646880656481 3.6366662522777906 174.73251491156407 7.2170643359422675 11.15213710349053
leaf_count=1124 3177 827 7734 787 304 842 3120 1108 173 502 23 24 15 65 1879 3548 98 72 55 19 32 145 890 65 2340 25 41 1594 71 135
internal_value=0.000382647 0.0111347 -0.0232461 0.00779829 -0.0169684 0.00422339 -0.0194149 -0.000394703 -0.0117102 0.00323972 -0.00330249 0.0358257 -0.030904 0.00981595 -0.0158611 -0.0219896 0.0106145 0.0171498 -0.000635143 0.020212 -0.00924233 -0.00739716 -0.0041368 0.00861536 0.0116653 -0.00771572 0.0334737 0.00363111 -0.0175806 -0.00694293
internal_weight=1391.39 956.253 435.133 833.76 335.103 34.6819 300.422 213.28 51.8499 161.43 90.6744 8.58993 70.9723 5.21508 229.449 112.066 620.48 145.343 21.3492 123.994 8.59115 82.0844 73.4157 475.136 294.765 36.6845 7.08833 180.372 29.5962 22.3791
internal_count=30834 10215 20619 9091 12885 1146 11739 3717 960 2757 1649 112 3192 89 8547 5427 5374 1005 127 878 51 1537 1392 4369 2710 370 66 1659 304 233
is_linear=0
shrinkage=0.05


Tree=18
num_leaves=31
num_cat=0
split_feature=11 11 11 26 11 1 26 2 11 1 13 11 18 17 12 12 22 22 12 19 11 16 22 12 13 11 19 11 26 18
split_gain=128.008 26.4073 20.4192 8.72799 7.03612 4.57111 3.90059 3.72355 5.58909 3.58905 4.36484 3.01325 2.97637 3.36727 3.00088 3.48803 3.109 3.04149 2.81323 2.79403 2.75639 3.10392 2.69571 2.572 3.76797 2.34562 2.89058 2.18066 2.16818 2.16734
threshold=14.050000000000002 2.4500000000000006 50.050000000000004 8.3322916666666682 3.6500000000000008 5.8333333333333348 1.935416666666667 0.27922077922077926 3.0500000000000003 13.16666666666667 12.100000000000001 183.00000000000003 0.31396997701823876 3.5000000000000004 135.00000000000003 118.50000000000001 -36.645833333333336 51.354166666666664 107.00000000000001 0.39566781357522679 37.650000000000013 2.333333333333333 62.276190476190472 146.50000000000003 10.633333333333335 1.4500000000000002 0.61116886116886138 48.95000000000001 1.2100000000000002 0.17571662571662575
decision_type=2 2 2 2 2 2 2 2 2 2 2 2 2 2 2 2 2 2 2 2 2 2 2 2 2 2 2 2 2 2
left_child=1 25 3 19 7 -5 9 23 29 10 -6 -4 13 14 15 16 -8 18 -18 20 21 -2 -19 24 28 -1 -27 -21 -3 -9
right_child=2 4 11 5 6 -7 12 8 -10 -11 -12 -13 -14 -15 -16 -17 17 22 -20 27 -22 -23 -24 -25 -26 26 -28 -29 -30 -31
leaf_value=0.051230508908129857 -0.01777227883891409 0.055729963685100026 -0.034605937333759156 0.027304879214695668 0.0089654330287678684 -0.013743616205645626 -0.022746818737203574 0.0058731983691987545 -0.025690784733892087 0.060648733885395129 -0.056789480658293749 -0.051635540538970959 -0.044758675027844086 -0.0062647243199799273 -0.026415927891712723 0.046330969097664473 0.0077504147153082516 -0.050200518241710082 -0.043248612439298381 -0.0086848494573088918 -0.030865328559658092 0.034025291273045113 0.0090185175163644393 0.052237793401172676 -0.03652610210977484 0.031890934394708893 -0.004644827896284621 0.035410450601474783 0.016586284133173573 0.052975473966255196
leaf_weight=14.668834048788993 179.64738541166298 3.6088024657219639 100.21403134078719 17.109985919771137 272.66363140568137 11.235893477642092 9.8441353440284711 6.5366943776607531 12.962081832811235 3.3209277028217903 2.5473623918369404 35.064298143493943 3.5126947290264061 99.184118675068021 7.526613916270434 5.1552773341536513 210.47818027529866 4.4504133183509103 2.7392854690551749 10.435599386226384 44.110936208962812 2.9395463725086293 3.3821768071502447 5.1455540005117646 3.3028689213097087 97.594867658801377 5.7315733917057505 3.8338153092045095 179.38634754624218 3.8989094961434603
leaf_count=161 5963 24 6758 364 3216 521 142 46 85 27 43 3416 53 2178 96 28 2212 46 23 267 2629 45 35 30 27 912 51 106 1309 21
internal_value=0.00040936 0.0103719 -0.0231713 -0.0152103 0.00725934 0.0110339 0.00457539 0.0150649 -0.00376397 0.00898028 0.0083568 -0.03902 0.00103222 0.0015015 0.00466391 0.00565491 0.00474672 0.0059711 0.00709521 -0.0182975 -0.0196483 -0.0169384 -0.0246293 0.0173661 0.0164029 0.0325205 0.0298643 0.00316239 0.0173582 0.0234714
internal_weight=1362.23 957.641 404.591 269.313 839.646 28.3459 624.805 214.841 23.3977 278.532 275.211 135.278 346.273 342.76 243.576 236.049 230.894 221.05 213.217 240.967 226.698 182.587 7.83259 191.444 186.298 117.995 103.326 14.2694 182.995 10.4356
internal_count=30834 10765 20069 9895 9641 885 8099 1542 152 3286 3259 10174 4813 4760 2582 2486 2458 2316 2235 9010 8637 6008 81 1390 1360 1124 963 373 1333 67
is_linear=0
shrinkage=0.05


Tree=19
num_leaves=31
num_cat=0
split_feature=11 11 11 26 11 4 24 26 14 22 22 22 16 24 16 13 26 11 19 13 26 24 6 7 10 12 3 11 1 10
split_gain=116.253 23.1763 19.5822 7.73937 6.4696 4.5846 3.38835 5.92869 3.75232 3.02637 5.20227 3.96276 3.00672 2.93804 2.94606 2.84261 2.8677 2.83017 2.78034 4.05484 4.18233 3.80243 3.77959 3.41788 4.66043 3.29148 2.94379 4.81887 3.60333 2.74375
threshold=13.450000000000001 2.4500000000000006 50.050000000000004 8.3322916666666682 3.6500000000000008 3.8090909090909095 363.70749947335167 1.7535714285714288 -2.4999999999999996 5.6360294117646967 -1.0000000180025095e-35 9.2111111111111104 0.84523809523809545 -53.885712894429282 2.333333333333333 4.6055555555555561 1.7354166666666668 222.80000000000004 0.27187095254915822 6.4058823529411777 1.6366666666666669 -1.0000000180025095e-35 5.7530487804878057 2.5000000000000004 10.500000000000002 90.500000000000014 0.35595776772247367 4.8500000000000005 3.4166666666666674 14.500000000000002
decision_type=2 2 2 2 2 2 2 2 2 2 2 2 2 2 2 2 2 2 2 2 2 2 2 2 2 2 2 2 2 2
left_child=1 -1 3 13 -3 -5 7 18 15 10 -10 -11 -7 -2 -15 16 -8 -4 19 22 23 29 -6 24 -21 26 -20 -28 -29 -22
right_child=2 4 17 5 6 12 8 -9 9 11 -12 -13 -14 14 -16 -17 -18 -19 25 20 21 -23 -24 -25 -26 -27 27 28 -30 -31
leaf_value=0.031263985985426387 -0.027072289024517998 0.014757446618792323 -0.034452094855288919 0.038099187683402314 0.018991384781079885 0.0049377945820485297 -0.056639337817371085 -0.00073681108951369439 0.0046556369232457614 0.048807336094240004 -0.046388462968780964 0.0092265767746590992 -0.048878796752267306 -0.01501069500795094 0.033242614465035833 0.038997652583572462 0.017862144020067344 -0.053495993698470815 0.015237274791922851 -0.04315623596172867 -0.04301866180307809 0.045035302165580653 0.052910610744087996 -0.044648348351326306 0.018822944161938783 -0.037612399220992673 0.019012293012163811 -0.0083548725028826203 -0.065053299760053598 0.027008000912571412
leaf_weight=113.88498854264617 57.88738845368789 210.34792710049078 106.46784502733499 9.7945017127785849 44.63682501995936 15.097407032153571 1.5581883788108841 349.48805443802848 33.96725956001319 7.6878644353710106 5.8515317840501657 35.63674035994336 3.1341742526274166 183.32983342437365 3.2187373989145263 19.328459019772708 7.550988441798836 23.886195207887795 34.481661158148199 4.2244332665577558 2.7879251679405579 8.6302980408072436 10.064657559618352 5.5314823668450108 10.754216727800666 4.6381866652518502 9.1004877556115407 7.6275138063356263 4.4295725263655186 2.8073713360354304
leaf_count=1124 2592 1542 7608 197 433 588 20 4920 415 62 86 412 101 6637 51 206 77 2566 380 56 42 93 71 78 165 48 72 97 60 35
internal_value=0.00045218 0.0101264 -0.0220036 -0.0143783 0.00719475 0.0105086 0.00459023 0.00282956 0.0124673 0.00710489 -0.0028455 0.0162501 -0.00431377 -0.0172317 -0.0141781 0.0281453 0.00511814 -0.0379417 0.0111548 0.0167485 0.00338846 0.0242209 0.0252323 -0.0110607 0.00134294 0.00285495 0.00622838 -0.0084539 -0.0291849 -0.00788364
internal_weight=1337.83 935.017 402.816 272.462 821.132 28.0261 610.784 499.203 111.581 83.1434 39.8188 43.3246 18.2316 244.436 186.549 28.4376 9.10918 130.354 149.715 89.4372 34.7357 14.2256 54.7015 20.5101 14.9786 60.2774 55.6392 21.1576 12.0571 5.5953
internal_count=30834 10494 20340 10166 9370 886 7828 6550 1278 975 501 474 689 9280 6688 303 97 10174 1630 973 469 170 504 299 221 657 609 229 157 77
is_linear=0
shrinkage=0.05


Tree=20
num_leaves=31
num_cat=0
split_feature=11 11 11 24 11 11 15 11 18 14 19 19 1 12 19 24 18 11 12 24 24 13 24 0 11 11 18 0 12 24
split_gain=112.231 27.8202 16.8395 7.30849 5.09876 4.50963 5.84578 3.83188 3.5661 4.14078 3.38729 3.3324 4.56416 4.33175 3.2794 5.20221 5.79358 5.33642 3.16881 3.64868 3.13293 3.2813 3.03482 5.20711 4.5902 3.29568 3.35288 3.02302 3.60112 3.00968
threshold=7.5500000000000007 50.050000000000004 2.4500000000000006 -23.88967748967168 5.7500000000000009 14.050000000000002 0.13392857142857145 124.85000000000001 0.085793680948230269 1.0000000180025095e-35 0.61116886116886138 0.21150941203811296 4.5833333333333348 10.500000000000002 0.28458411507192 -125.45909090909097 0.11232290844045252 3.5500000000000003 90.500000000000014 -139.33842239185762 -169.46405779650823 6.2678571428571432 17.495391705069213 2.8090909090909095 6.9500000000000011 3.9500000000000006 0.10010020040080163 4.2071428571428582 62.500000000000007 394.31049485804698
decision_type=2 2 2 2 2 2 2 2 2 2 2 2 2 2 2 2 2 2 2 2 2 2 2 2 2 2 2 2 2 2
left_child=2 5 -1 4 11 8 -7 -3 -2 -10 -8 12 27 -13 -15 16 -16 -17 -6 -20 -14 -22 23 25 -25 -5 -27 28 -4 -24
right_child=1 7 3 22 18 6 10 -9 9 -11 -12 13 20 14 15 17 -18 -19 19 -21 21 -23 29 24 -26 26 -28 -29 -30 -31
leaf_value=0.031257185979189264 0.00069926671277640738 -0.029778075630522038 -0.012941980262087758 -0.041658830348169612 -0.020275843869551839 -0.017045604171624981 0.0037220818440626413 -0.04757445419294027 -0.0039532616215536579 -0.031428113602963208 0.078163402919651015 -0.071495412797034072 -0.062757062688152856 0.022895595002674973 -0.027208766688136411 0.01412722898215555 0.033107280036825802 -0.025994620219818611 0.055702896045228448 -0.021648744324085801 -0.04408396333497705 0.0066603127590479719 0.0093735001236942613 0.032076076841345273 -0.026783305669974139 0.040392424649320365 -0.03979682489520836 0.046488208606118353 0.034891327701979995 0.02020023650542678
leaf_weight=110.23110644845292 117.75869780196808 71.136722875759006 14.487098008394247 4.5262584667652828 33.424324015155435 237.12625639837643 22.514413613491346 52.622686844784766 35.93795164662879 22.175576568581164 1.6394162960350502 1.5713260583579529 4.2305663470178869 41.776817178353667 4.9253118801862028 14.804028312675653 20.771245405077934 18.827714063227177 3.2024347996339202 2.9097194317728272 5.2638610946014515 8.069500992074607 294.00237040827051 56.980742377229035 3.5168173145502797 4.0913607496768236 1.9130630539730189 4.254071168601512 5.4019238464534274 82.118566049728543
leaf_count=1135 2433 4898 135 42 520 9302 515 5238 761 487 6 17 55 362 56 133 165 210 29 30 49 106 2690 420 40 34 23 28 31 661
internal_value=0.000457643 -0.016417 0.013226 0.0100764 0.00168653 -0.0104922 -0.0146587 -0.0373451 -0.00430235 -0.0144374 0.00877471 0.00604293 -0.00587555 0.0108842 0.0121645 0.00460806 0.0215464 -0.00833378 -0.0142226 0.0188793 -0.0252679 -0.013373 0.0135273 0.0230063 0.0286545 -0.00944217 0.0148434 0.00823228 4.97037e-05 0.0117373
internal_weight=1302.21 560.912 741.3 631.069 183.92 437.152 261.28 123.759 175.872 58.1135 24.1538 144.383 41.707 102.676 101.105 59.3283 25.6966 33.6317 39.5365 6.11215 17.5639 13.3334 447.149 71.0282 60.4976 10.5307 6.00442 24.1431 19.889 376.121
internal_count=30611 23640 6971 5836 1926 13504 9823 10136 3681 1248 521 1347 404 943 926 564 221 343 579 59 210 155 3910 559 460 99 57 194 166 3351
is_linear=0
shrinkage=0.05


Tree=21
num_leaves=31
num_cat=0
split_feature=11 11 11 24 24 22 22 11 15 11 16 17 26 24 22 16 22 18 10 19 12 22 22 10 12 22 19 26 11 15
split_gain=101.907 25.3571 15.1932 6.72996 5.57994 6.76639 5.46939 4.09624 4.86339 3.63252 3.46276 3.19052 3.05332 4.64378 5.95179 3.83503 4.08854 3.82789 3.25762 3.02313 3.23448 2.92656 3.46754 3.22738 2.94711 2.86626 3.17975 2.75393 2.74261 2.75174
threshold=7.7500000000000009 50.050000000000004 2.4500000000000006 -16.889677489671723 9.8085976086713362 33.101010101010083 -23.954545454545464 14.050000000000002 0.13392857142857145 124.85000000000001 1.4083333333333334 10.500000000000002 1.5535714285714288 394.31049485804698 -37.36931818181818 -0.75595238095238082 2.5634920634920495 0.0369748943574447 10.500000000000002 0.61116886116886138 65.000000000000014 -0.24264705882353607 5.6360294117646967 17.500000000000004 90.500000000000014 11.679487179487184 0.2683375179340029 2.0472222222222229 3.8500000000000001 0.15476190476190479
decision_type=2 2 2 2 2 2 2 2 2 2 2 2 2 2 2 2 2 2 2 2 2 2 2 2 2 2 2 2 2 2
left_child=2 7 -1 6 5 -5 28 10 11 -3 -2 -9 -6 14 27 16 -16 -17 -15 20 -10 -20 -23 24 -24 -18 -27 -14 -4 -30
right_child=1 9 3 4 12 -7 -8 8 19 -11 -12 -13 13 18 15 17 25 -19 21 -21 -22 22 23 -25 -26 26 -28 -29 29 -31
leaf_value=0.030094607208824366 -0.002969484139972231 -0.028880680274792056 0.042302164055036555 0.035259695281414462 0.020315383282248377 -0.025376088668017594 -0.0013115614112859809 -0.014882984265694846 0.016514763527071912 -0.046561596818807172 -0.056082623846170569 -0.039979837240750021 0.0037587753027796401 -0.011530414564490568 -0.043917349173677754 0.02492389853590906 0.042940304297715094 0.006151889499546679 0.037069220905490925 0.069505002749987485 -0.022688742523100405 -0.026232994164048919 0.030792699115857761 -0.029109366068330096 -0.025643040133186801 0.020115265420952391 -0.056994116536560217 -0.058505633484811553 0.016984855890803688 -0.048384416760912652
leaf_weight=106.31156958499923 159.91944820503704 69.135175785864703 10.791305935941638 44.315107565838844 73.163184487726539 5.1338629126548758 170.72962951427326 220.87877242692048 14.364129856621735 50.101107449852861 3.1287706574657923 13.433969569392501 2.7083295919001094 7.1565922731533638 7.3451044447720077 31.766420034691691 3.3579301498830301 187.14598341379315 25.546394714154303 1.7983886897563923 8.3023166610801109 4.4743021735921493 26.394832639023669 2.9433264937251797 2.5354908411391071 2.8583391141146421 2.5118534564971924 5.1580659970641136 15.334042395930739 1.7987512256950129
leaf_count=1135 3455 4898 78 348 617 39 1849 8236 345 5238 56 1066 34 66 56 333 18 1752 194 6 170 52 215 24 22 19 23 63 188 16
internal_value=0.000538967 -0.0159508 0.0126042 0.00966748 0.013153 0.0289644 0.0020437 -0.010196 -0.014107 -0.0363099 -0.00398868 -0.0163219 0.0111225 0.00896613 0.00571293 0.00714509 -0.016428 0.0088759 0.0204076 0.00710604 0.00215522 0.0241005 0.0149857 0.0207718 0.0258466 0.00670544 -0.0159519 -0.0370686 0.022558 0.0101218
internal_weight=1280.54 541.062 739.48 633.169 434.515 49.449 198.654 421.826 258.778 119.236 163.048 234.313 385.066 311.903 242.852 234.986 16.0732 218.912 69.0509 24.4648 22.6664 61.8943 36.348 31.8736 28.9303 8.72812 5.37019 7.8664 27.9241 17.1328
internal_count=30611 23470 7141 6006 3875 387 2131 13334 9823 10136 3511 9302 3488 2871 2298 2201 116 2085 573 521 515 507 313 261 237 60 42 97 282 204
is_linear=0
shrinkage=0.05


Tree=22
num_leaves=31
num_cat=0
split_feature=11 11 11 24 24 22 17 11 22 11 22 22 26 19 24 18 22 22 3 22 24 12 22 24 22 24 15 11 19 16
split_gain=94.0504 23.1879 13.4817 6.57303 5.76292 4.34352 4.0885 3.44353 2.8597 3.00691 2.63875 2.95355 2.78665 3.36765 4.51852 4.72721 3.75148 3.4106 2.69044 2.64873 2.62866 3.36199 2.93393 2.83693 3.19823 2.83672 2.53371 3.27519 3.07162 2.63086
threshold=7.7500000000000009 50.050000000000004 2.4500000000000006 -16.889677489671723 9.8085976086713362 -23.954545454545464 9.5000000000000018 127.25000000000001 33.101010101010083 6.9500000000000011 29.029411764705888 34.12916666666667 1.3937500000000003 0.34501653282947575 -134.79391940341327 0.12526150627615065 -11.118055555555541 22.055555555555546 0.78888888888888908 10.348484848484846 361.92083333333341 7.5000000000000009 -39.861904761904746 334.4950331125828 -15.279220779220763 325.03766025641033 0.36666666666666675 14.050000000000002 0.61116886116886138 1.2440476190476193
decision_type=2 2 2 2 2 2 2 2 2 2 2 2 2 2 2 2 2 2 2 2 2 2 2 2 2 2 2 2 2 2
left_child=2 6 -1 5 8 -4 26 -3 9 -5 12 -12 19 -14 -15 -16 -17 -18 -13 -7 21 -6 -23 24 -24 -26 27 29 -28 -2
right_child=1 7 3 4 20 10 -8 -9 -10 -11 11 18 13 14 15 16 17 -19 -20 -21 -22 22 23 -25 25 -27 28 -29 -30 -31
leaf_value=0.028953430716995618 -0.0029918642300429143 -0.02822456250374283 0.020184985752397307 0.03628746258929369 0.047631648564891972 0.036888703543655803 -0.027912549415178185 -0.04583424852854559 -0.01005253366256021 -0.019406534331348695 0.033097514157624873 0.0080722885871525214 -0.011537723656462093 0.029677966503024674 0.045313240429506386 -0.060107096637941088 0.003691006019848753 -0.067631763562711389 -0.040367214360858099 -0.023534478546293761 0.016933545892892279 -0.028153443737861352 0.021874664413025512 -0.0073707127901083379 0.0055912033909885353 0.038283454068925388 0.0026485796537701846 -0.013706759236969863 0.076453151691425136 -0.043725565764395562
leaf_weight=102.7409210416954 148.59809705917723 68.395916495821439 27.784480886068195 41.185406712815166 5.2433027978986493 7.1779965292662364 29.607137600178248 46.727877044409979 4.2277454100549212 2.5750259803608051 10.611410130746661 21.191753432154659 89.00542028201744 13.334907536394892 3.6162151545286205 3.9954436430707601 12.952657717745749 1.9253004118800152 3.3149895523674777 2.4269654881209135 120.50742799649015 5.7413092181086531 44.29172186832875 26.792745201848447 171.03613568469882 6.9032060988247386 21.291857577671184 209.55948488968716 1.5097026750445355 4.0726076986175022
leaf_count=1135 3298 4993 282 312 35 65 1897 5143 39 36 98 236 1038 119 25 43 132 20 44 29 1008 80 380 281 1649 55 443 7616 5 75
internal_value=0.000510757 -0.0155198 0.0121668 0.00941105 0.0128884 0.00186025 -0.0100078 -0.0353722 0.0292164 0.0330102 -0.00114261 0.0110615 -0.00433067 -0.00632751 0.00661719 -0.00705638 -0.0170906 -0.0055386 0.00151995 0.0216211 0.0108292 0.00800001 0.00718436 0.00799908 0.0098521 0.00685951 -0.00863105 -0.00964868 0.00753522 -0.00407847
internal_weight=1258.35 529.763 728.582 625.842 428.504 197.338 414.639 115.124 47.9882 43.7604 169.553 35.1182 134.435 124.83 35.8245 22.4896 18.8734 14.878 24.5067 9.60496 380.516 260.008 254.765 249.024 222.231 177.939 385.032 362.23 22.8016 152.671
internal_count=30611 23470 7141 6006 3875 2131 13334 10136 387 348 1849 378 1471 1377 339 220 195 152 280 94 3488 2480 2445 2365 2084 1704 11437 10989 448 3373
is_linear=0
shrinkage=0.05


Tree=23
num_leaves=31
num_cat=0
split_feature=11 11 11 24 24 11 11 3 14 0 11 24 14 12 22 14 2 10 19 22 22 11 12 22 26 19 22 26 24 16
split_gain=87.2582 21.5691 11.9236 5.54463 4.41065 3.84545 3.71675 5.6092 3.36701 3.26935 3.20473 3.14479 3.06301 3.32543 3.02488 2.93958 4.33529 3.86373 3.32241 3.89895 2.92855 2.89976 2.96729 2.54736 2.40346 2.6538 2.3838 2.3789 2.28905 2.40521
threshold=7.7500000000000009 50.050000000000004 2.4500000000000006 -18.320691895403552 9.8085976086713362 5.7500000000000009 25.050000000000004 0.41522988505747133 8.5000000000000018 9.9285714285714306 124.85000000000001 394.31049485804698 5.5000000000000009 101.00000000000001 -39.861904761904746 3.5000000000000004 0.16108108108108113 10.500000000000002 0.15871016752628844 0.89898989898992465 -21.944444444444454 49.95000000000001 76.500000000000014 66.590909090909108 1.4937500000000001 0.16689128481581314 -7.6515151515151549 2.0954545454545461 400.64197292069633 1.0666666666666669
decision_type=2 2 2 2 2 2 2 2 2 2 2 2 2 2 2 2 2 2 2 2 2 2 2 2 2 2 2 2 2 2
left_child=2 6 24 5 -5 20 28 -8 11 -10 -3 12 13 14 -6 17 18 -13 -17 -20 -4 -9 -23 -16 -1 -26 27 -14 -2 -30
right_child=1 10 3 4 8 -7 7 21 9 -11 -12 15 26 -15 23 16 -18 -19 19 -21 -22 22 -24 -25 25 -27 -28 -29 29 -31
leaf_value=0.044641744242747201 -0.0080784730305267834 -0.027412181757890432 0.022331689753396489 0.02644409244843381 -0.029341475659768509 -0.010702166716598523 -0.022646405397175873 -0.020131051013850383 -0.014647763938529974 0.048711687263083017 -0.0446573292204724 -0.0015323704586185575 0.065462075650668347 -0.017395398179442936 0.0091952491677633769 0.054768901142436079 -0.055739586800114808 0.031825990530240739 0.036986643594326817 -0.02542073238873159 0.0030323665014724941 0.028152339452818483 -0.012167508700224872 0.06387529387111289 0.047251924580373424 0.020819422355081319 0.014795075674404337 0.014773265628968897 0.0090407772823838609 -0.061691559478036423
leaf_weight=17.741208447841927 251.76209024235141 65.664347156765871 23.427093368489295 49.987743231467903 5.0690080579370251 44.187957804184407 96.350706160446862 9.6305366973392683 20.031562235206369 2.2663580728694788 45.681827068154234 10.530588350258766 5.7190824542194623 12.706844724249093 228.07939365226775 3.6123164519667652 2.7004102244973174 49.404400860890746 4.1296847127377969 6.3527157809585333 122.13296892168 12.439100262170543 7.206883489561732 2.1500402791425577 10.958380597643552 71.147440172266215 20.633010951802135 3.8884529368951917 30.20784624340013 1.2516679782420386
leaf_count=185 6562 4898 203 423 78 681 5165 411 208 18 5238 83 29 105 2167 31 22 411 29 59 1211 276 212 14 123 827 198 36 683 25
internal_value=0.000611002 -0.0149778 0.0119232 0.00932912 0.0124878 0.00221669 -0.00966455 -0.0168225 0.0106386 -0.00820792 -0.0344873 0.0118225 0.0093511 0.00751923 0.0088647 0.0207843 0.00229682 0.0259649 0.013416 -0.000834495 0.00613849 0.0023441 0.0133615 0.00970589 0.0279533 0.0243473 0.0243744 0.0449468 -0.00648951 0.00622658
internal_weight=1237.05 520.195 716.857 617.01 427.262 189.748 408.849 125.627 377.274 22.2979 111.346 354.976 278.246 248.005 235.298 76.7301 16.7951 59.935 14.0947 10.4824 145.56 29.2765 19.646 230.229 99.847 82.1058 30.2405 9.60754 283.222 31.4595
internal_count=30611 23470 7141 6006 3911 2095 13334 6064 3488 226 10136 3262 2627 2364 2259 635 141 494 119 88 1414 899 488 2181 1135 950 263 65 7270 708
is_linear=0
shrinkage=0.05


Tree=24
num_leaves=31
num_cat=0
split_feature=17 17 26 26 26 26 24 17 14 18 21 17 3 14 24 22 18 22 16 14 24 22 16 0 24 0 22 24 14 14
split_gain=67.8066 14.7481 9.70657 7.3914 4.82671 4.7507 6.37766 5.90284 4.59541 4.03161 5.31124 3.78018 4.08314 4.0379 3.87451 3.77929 3.70708 3.59567 4.4233 3.74024 5.46534 3.7914 3.38856 3.34951 3.30934 3.1521 3.10125 3.07273 3.76957 4.32895
threshold=6.5000000000000009 3.5000000000000004 3.5045454545454553 1.8527777777777781 11.925833333333335 1.935416666666667 407.31049485804698 1.5000000000000002 7.5000000000000009 0.29671764581795174 1.0000000180025095e-35 1.5000000000000002 0.91987179487179505 -1.4999999999999998 378.73643564356445 -5.4226190476190643 0.25440767089390665 2.0416666666666576 0.16666666666666666 1.0000000180025095e-35 351.5359422034918 5.0294117647058849 -2.4924242424242418 8.2111111111111121 443.82721602972407 13.875000000000002 17.348484848484848 -21.010416666666597 5.5000000000000009 -6.4999999999999991
decision_type=2 2 2 2 2 2 2 2 2 2 2 2 2 2 2 2 2 2 2 2 2 2 2 2 2 2 2 2 2 2
left_child=1 5 15 25 16 7 9 -1 -8 11 23 12 14 -14 -7 -2 -4 18 -9 20 -19 -21 -13 -11 -10 26 -3 28 29 -24
right_child=2 3 4 -5 -6 6 8 17 24 10 -12 22 13 -15 -16 -17 -18 19 -20 21 -22 -23 27 -25 -26 -27 -28 -29 -30 -31
leaf_value=0.031799045264809082 0.0033108716780267454 0.0012575199783720419 -0.025716798651701248 -0.0082895992983195426 -0.044108931437408551 0.018285690637720457 0.031405944781478991 0.022809267276223615 0.019270524522287742 0.019578614006791506 -0.055057954769368291 -0.061470904430634958 -0.02491796588307546 0.0107314097413469 -0.024333747391756262 -0.017781637437996146 0.025969146819207114 -0.0087621228363453981 -0.020837965667208542 -0.033301264805426424 0.027897118589106169 0.021457486169417145 -0.045543380923854071 -0.036081901128717793 -0.060973897942092216 0.069465029306856774 0.019240257191426899 0.007314958248357508 -0.038046787342905376 0.0028757977810372789
leaf_weight=50.07683099550195 38.356820490560494 81.06338054407388 127.99115676125075 190.92093140090583 40.216803859861102 120.67191827230272 39.157380141608883 86.239706072025001 2.7064517261460415 8.4006650304654631 6.1873151194304219 2.0972289182245722 13.087313377764074 20.208163126546424 5.5791801419109097 47.581548709451454 3.5658290559367734 50.616780515294522 6.223501475993543 3.4163070209324351 12.722364121116696 42.308838479220867 5.0965143609791985 3.9850530944531775 2.4460887676104903 2.0275662373751393 34.044365215115249 114.70802257783362 8.2105735912919027 48.985770606406732
leaf_count=625 1239 1090 8989 5320 4638 1050 319 808 28 89 47 28 151 191 43 1873 82 517 43 39 104 403 80 54 24 12 433 1390 136 766
internal_value=0.000688641 0.00679504 -0.0220864 -0.00222314 -0.0289499 0.0110486 0.00767296 0.0164356 0.025565 0.00545361 -0.017228 0.00669758 0.0122946 -0.00328114 0.0164023 -0.00836743 -0.0243159 0.0126179 0.0198715 0.00646849 -0.00139871 0.0173662 0.00171158 0.00167008 -0.0188243 0.00766469 0.00657611 0.00246021 -0.00647948 -0.00168705
internal_weight=1218.9 961.188 257.712 308.056 171.774 653.132 401.528 251.604 44.3099 357.218 18.573 338.645 159.547 33.2955 126.251 85.9384 131.557 201.527 92.4632 109.064 63.3391 45.7251 179.098 12.3857 5.15254 117.135 115.108 177.001 62.2929 54.0823
internal_count=30611 13790 16821 6855 13709 6935 4396 2539 371 4025 190 3835 1435 342 1093 3112 9071 1914 851 1063 621 442 2400 143 52 1535 1523 2372 982 846
is_linear=0
shrinkage=0.05


Tree=25
num_leaves=31
num_cat=0
split_feature=11 11 11 23 3 11 7 19 12 11 14 7 10 22 18 0 19 19 22 13 15 11 17 0 14 2 12 12 18 3
split_gain=63.7237 13.6717 11.0096 4.5122 3.99658 3.78068 3.11912 3.11781 3.05685 3.05059 3.05685 3.04139 2.87941 2.56176 3.2343 6.47325 3.53937 3.26711 3.0696 2.83537 3.28414 3.51541 3.55614 3.65528 2.68429 2.65859 2.41332 2.9717 2.40209 4.36857
threshold=14.050000000000002 56.250000000000007 3.3500000000000001 836.25000000000011 0.3905180840664712 49.95000000000001 1.5000000000000002 0.25765531652691087 133.50000000000003 1.4500000000000002 -14.499999999999998 3.5000000000000004 6.5000000000000009 21.612500000000015 0.14915106916923723 3.5192307692307696 0.44671201814058964 0.41218865924748282 22.055555555555546 1.1666666666666667 0.45000000000000007 5.4500000000000011 3.5000000000000004 3.5192307692307696 11.500000000000002 0.37980769230769235 104.50000000000001 76.500000000000014 0.25440767089390665 0.49000000000000005
decision_type=2 2 2 2 2 2 2 2 2 2 2 2 2 2 2 2 2 2 2 2 2 2 2 2 2 2 2 2 2 2
left_child=2 4 3 9 -2 -6 7 -4 26 -1 -11 12 -12 19 17 -16 -17 18 -15 -8 24 -22 -23 -24 25 -21 27 -7 -14 -30
right_child=1 -3 6 -5 5 8 13 -9 -10 10 11 -13 28 14 15 16 -18 -19 -20 20 21 22 23 -25 -26 -27 -28 -29 29 -31
leaf_value=0.044189789665565332 -0.015190157124905582 -0.033950703848455048 -0.0079623922566760263 -0.04978782172405536 -0.010384748297375283 0.024958981931105385 -0.020330191529179666 0.004885659579316263 -0.044429560127685674 0.071708453829830959 -0.029056236358598653 -0.011590798880201902 0.019551567311870091 0.071521627209945524 0.03923936364412936 -0.064015309055436384 0.01364177107636106 0.076556060201801168 0.013190417946195751 0.0036416970390369119 0.046907996749074692 -0.040369851410281259 0.054854644765345309 -0.020008952197427057 0.027596279668346643 -0.026052970925738501 0.062050879835331044 -0.027267598748145168 -0.016431055786293898 0.021455317901147276
leaf_weight=10.04620102373883 188.70823716961604 96.160707103903405 91.916017167037353 2.5390131222084156 34.283783233724535 13.510659524079538 11.399098946712909 97.101665369002149 1.9004206792160392 2.4404967576265326 3.388026548549532 9.9452468762174231 184.86562651162967 2.3131682481616727 3.8807832733727974 4.9821503516286612 2.0797323808073997 2.1812974065542212 90.285424421541393 287.85249342792667 9.4160497393459099 3.0790969645604473 4.0154144167900085 2.7452054060995579 11.393875785171984 7.7403116626664987 3.1568260697968062 3.4114577745203851 13.7975897253491 16.96314722020179
leaf_count=160 8867 9512 1797 16 1100 340 156 1472 125 11 39 89 1662 19 39 71 28 11 1021 3582 65 39 39 43 106 104 33 80 162 164
internal_value=0.000360125 -0.0179743 0.00749694 0.0165193 -0.011703 -6.92165e-06 0.00401593 -0.00136212 0.0161806 0.0172166 0.0160455 0.0154522 0.0166802 0.00630874 0.0131008 -0.0126371 -0.0411452 0.0160724 0.0146476 0.004182 0.00503847 0.0250689 0.00417012 0.0244557 0.00378206 0.00286412 0.0219172 0.0144302 0.0173989 0.00446156
internal_weight=1217.5 341.132 876.367 243.985 244.971 56.2631 632.382 189.018 21.9794 241.446 231.4 228.96 219.014 443.364 105.723 10.9427 7.06188 94.7799 92.5986 337.642 326.242 19.2558 9.83972 6.76062 306.987 295.593 20.0789 16.9221 215.626 30.7607
internal_count=30952 20057 10895 2303 10545 1678 8592 3269 578 2287 2127 2116 2027 5323 1189 138 99 1051 1040 4134 3978 186 121 82 3792 3686 453 420 1988 326
is_linear=0
shrinkage=0.05


Tree=26
num_leaves=31
num_cat=0
split_feature=11 11 11 26 18 11 16 12 14 6 16 16 18 3 18 1 14 7 14 18 1 12 14 11 14 11 26 26 0 26
split_gain=59.0406 12.5738 9.48585 3.58366 4.26175 3.57395 2.47321 2.91814 2.52719 2.42663 4.3625 4.11256 3.63024 4.6954 3.7849 4.80054 3.69344 3.44181 3.14398 3.66676 2.90158 4.61481 3.80804 2.80911 2.80613 4.2667 2.54635 5.42009 2.53229 2.50709
threshold=14.050000000000002 56.250000000000007 2.4500000000000006 7.0087121212121213 0.05440753707340678 7.5500000000000007 2.333333333333333 43.500000000000007 3.5000000000000004 4.325757575757577 0.92499999999999993 -0.58333333333333359 0.25440767089390665 0.32916666666666672 0.093829314720812199 2.8333333333333335 2.5000000000000004 1.5000000000000002 -6.4999999999999991 0.18248475079801527 6.166666666666667 77.500000000000014 7.5000000000000009 6.7500000000000009 -4.4999999999999991 2.9500000000000006 1.3937500000000003 1.6950000000000003 5.1833333333333345 1.3535714285714289
decision_type=2 2 2 2 2 2 2 2 2 2 2 2 2 2 2 2 2 2 2 2 2 2 2 2 2 2 2 2 2 2
left_child=2 3 -1 6 -5 9 8 -8 -2 10 11 -4 14 16 15 -11 -14 20 19 -13 -17 -22 23 29 25 -16 28 -28 -19 -23
right_child=1 -3 5 4 -6 -7 7 -9 -10 12 -12 18 13 -15 24 17 -18 26 -20 -21 21 22 -24 -25 -26 -27 27 -29 -30 -31
leaf_value=0.02227700845398356 -0.011539007898988523 -0.033115207232558008 -0.016466169384905523 -0.025954050074050723 0.01458505743742094 -0.0010627719133444785 -0.025361860559487359 0.06743129864547108 -0.024596036940092651 0.052784600305373908 -0.051559500890705323 -0.023524232420759031 -0.036154012495620252 0.030921450382165757 0.057716041809017488 -0.032823932645564761 0.015346277904130798 -0.0057243292915874731 0.0080281495350057568 0.048467305237065918 0.041108044598858279 -0.035813398133112025 -0.047513829031708539 -0.034374446507634708 0.020020880005535438 -0.010622703096106773 -0.013715054849581979 0.013733214001866495 0.04772451104112007 0.0062028405419229157
leaf_weight=93.168735683662817 155.87712017504964 93.320073654933367 22.094045778736472 8.841948788307489 24.300628021883313 168.0094158310676 1.4747230233624571 1.9912835219874976 48.61703323177062 5.4891620911657801 3.5825805654749265 14.47326485719532 12.778704491443937 5.4714096141979089 2.6663561873137978 7.346834775991737 4.7849823506548992 3.0391232185065737 191.37707775970921 2.01496409298852 6.2762451022863379 3.8279493004083625 4.627001801505684 5.5058239628560832 122.66918120440096 15.927890320308505 22.449063747189939 90.450012505985796 8.1823673015460354 48.963272954337299
leaf_count=1156 7078 9512 168 478 722 3734 39 32 2196 28 29 172 151 46 13 98 51 25 1829 18 69 41 107 123 1137 189 221 795 49 646
internal_value=0.00030996 -0.0175316 0.00720638 -0.0114998 0.00376982 0.00538759 -0.0139333 0.0279495 -0.0146432 0.00718184 0.00319031 0.00404327 0.00969818 -0.00952398 0.0109727 0.00665265 -0.0221235 0.00539074 0.00622322 -0.0147264 -0.00294766 0.00022424 -0.00385364 -0.000388358 0.0172772 -0.000823143 0.0105332 0.00827535 0.0332489 0.0031562
internal_weight=1199.6 334.423 865.175 241.103 33.1426 772.007 207.96 3.46601 204.494 603.997 233.542 229.959 370.455 23.0351 347.42 206.157 17.5637 200.668 207.865 16.4882 76.5471 69.2003 62.924 58.297 141.263 18.5942 124.121 112.899 11.2215 52.7912
internal_count=30952 20057 10895 10545 1200 9739 9345 71 9274 6005 2216 2187 3789 248 3541 2202 202 2174 2019 190 1084 986 917 810 1339 202 1090 1016 74 687
is_linear=0
shrinkage=0.05


Tree=27
num_leaves=31
num_cat=0
split_feature=11 11 11 12 11 14 18 10 19 19 21 14 12 26 18 11 18 19 18 26 12 12 22 22 26 11 6 13 13 1
split_gain=54.1867 11.6769 8.48282 4.66505 4.02897 3.20325 4.37603 3.97518 4.12421 3.94143 3.10443 4.38013 3.10266 2.91508 3.29985 2.84666 4.32657 2.73514 2.96302 2.42712 6.38709 4.78591 3.40831 3.99167 3.82823 3.86768 3.72749 3.43079 3.35285 4.15398
threshold=14.050000000000002 56.250000000000007 4.6500000000000012 6.5000000000000009 2.4500000000000006 -1.0000000180025095e-35 0.086821533781311994 15.500000000000002 0.19870750856092878 0.17351155338168328 1.0000000180025095e-35 1.5000000000000002 15.500000000000002 7.0087121212121213 0.05440753707340678 7.5500000000000007 0.061365383710165859 0.21061161818647106 0.078178146258503417 3.3683333333333336 28.500000000000004 26.500000000000004 -9.1180555555555411 -14.966666666666667 1.6950000000000003 4.1500000000000012 7.2111111111111121 3.759615384615385 3.3452380952380958 4.166666666666667
decision_type=2 2 2 2 2 2 2 2 2 2 2 2 2 2 2 2 2 2 2 2 2 2 2 2 2 2 2 2 2 2
left_child=2 13 4 -4 17 6 -5 8 9 -7 12 15 -9 -2 -15 16 -12 -1 -19 21 -21 22 23 -6 25 -24 27 28 29 -26
right_child=1 -3 3 5 19 7 -8 10 -10 -11 11 -13 -14 14 -16 -17 -18 18 -20 20 -22 -23 24 -25 26 -27 -28 -29 -30 -31
leaf_value=0.039082995204286992 -0.013302092911394121 -0.032199261004659883 0.057213462524765016 0.001897127023459995 6.8158299712789086e-05 -0.0039693141261764103 -0.015808966150425107 0.046086327737680483 0.0051921306278834879 -0.036247349465187796 0.0011732041832325252 0.01368900219889597 0.014987358514998933 -0.024359203161155907 0.012255441981645578 0.0058326175338258499 -0.066554134078834634 -0.011759688413581507 0.020571790418391009 0.019878996153813753 -0.017631185608569657 0.0154922199697736 0.038552099879827183 -0.044160986983387815 -0.0078940813449896799 -0.010357019753981437 0.046041285078999225 -0.018393022197760782 0.066684222047536115 0.055407576306629486
leaf_weight=17.477281258441508 205.06955048772215 90.655533775745425 3.7951993197202674 100.88141649914905 14.736918193753811 38.538149612024426 53.350465354742482 9.6364101953804475 114.64260178455152 12.53337861318141 4.335275726392867 33.248138150665909 47.817355349427089 8.2760807893646398 23.993534346605884 7.3110786103643468 5.1703477329574525 7.9452505973167709 65.552573946304619 20.181334746070206 25.930039004422724 197.92363783577457 14.898375920951368 7.8019376024603835 15.478440669830894 5.5471584061160675 3.9262203965336075 22.475973507389426 2.301205448806285 3.1128352619707575
leaf_count=225 9345 9512 33 1686 152 669 968 99 1601 237 53 490 782 478 722 157 80 120 811 131 214 1736 122 54 165 54 31 194 14 17
internal_value=0.000347036 -0.0169346 0.0069646 0.00202335 0.0119752 0.00153335 -0.0042276 0.00478524 -7.26095e-05 -0.0118906 0.0122725 0.00317098 0.0202034 -0.0111039 0.00286501 -0.0176241 -0.0356654 0.0213043 0.0170767 0.00943654 -0.00121429 0.0111406 0.0016004 -0.015242 0.00720428 0.0252824 -0.000610897 -0.0048344 0.00975187 0.00270485
internal_weight=1184.54 327.995 856.549 431.26 425.289 427.465 154.232 273.233 165.714 51.0715 107.519 50.0648 57.4538 237.339 32.2696 16.8167 9.50562 90.9751 73.4978 334.314 46.1114 288.203 90.2791 22.5389 67.7402 20.4455 47.2947 43.3685 20.8925 18.5913
internal_count=30952 20057 10895 6855 4040 6822 2654 4168 2507 906 1661 780 881 10545 1200 290 133 1156 931 2884 345 2539 803 206 597 176 421 390 196 182
is_linear=0
shrinkage=0.05


Tree=28
num_leaves=31
num_cat=0
split_feature=11 11 11 24 26 3 19 11 14 1 24 14 24 24 11 16 7 26 18 7 11 7 18 18 7 16 14 19 26 6
